<?xml version="1.0"?>
<opencv_storage>
<cascade>
  <stageType>BOOST</stageType>
  <featureType>LBP</featureType>
  <height>24</height>
  <width>24</width>
  <stageParams>
    <boostType>GAB</boostType>
    <minHitRate>9.9500000476837158e-01</minHitRate>
    <maxFalseAlarm>5.0000000000000000e-01</maxFalseAlarm>
    <weightTrimRate>9.4999998807907104e-01</weightTrimRate>
    <maxDepth>1</maxDepth>
    <maxWeakCount>100</maxWeakCount></stageParams>
  <featureParams>
    <maxCatCount>256</maxCatCount>
    <featSize>1</featSize></featureParams>
  <stageNum>20</stageNum>
  <stages>
    <!-- stage 0 -->
    <_>
      <maxWeakCount>5</maxWeakCount>
      <stageThreshold>-1.2609964609146118e+00</stageThreshold>
      <weakClassifiers>
        <_>
          <internalNodes>
            0 -1 2 -806428673 -2625027 -314716705 -2650177 -4196353
            -269637 -1324033 -1048585</internalNodes>
          <leafValues>
            -8.0539202690124512e-01 3.6263737082481384e-01</leafValues></_>
        <_>
          <internalNodes>
            0 -1 29 -110593 -94217 -5055489 -1081182354 2146926335
            -767457 -278175761 -67323473</internalNodes>
          <leafValues>
            -5.6286334991455078e-01 5.3219628334045410e-01</leafValues></_>
        <_>
          <internalNodes>
            0 -1 5 -461181214 585936826 -4981921 -638615589 13428717
            -269763653 567748511 -940374473</internalNodes>
          <leafValues>
            -6.3881689310073853e-01 4.1410678625106812e-01</leafValues></_>
        <_>
          <internalNodes>
            0 -1 85 -69208816 158785519 338557476 1040187185 -50356312
            586010277 -51126656 -1913393157</internalNodes>
          <leafValues>
            -6.8864899873733521e-01 3.8948577642440796e-01</leafValues></_>
        <_>
          <internalNodes>
            0 -1 119 -21500145 1727524317 -11611022 -1460863237
            2068567556 1950350079 1876425718 -453055519</internalNodes>
          <leafValues>
            -6.9633370637893677e-01 3.9144182205200195e-01</leafValues></_></weakClassifiers></_>
    <!-- stage 1 -->
    <_>
      <maxWeakCount>5</maxWeakCount>
      <stageThreshold>-1.4702360630035400e+00</stageThreshold>
      <weakClassifiers>
        <_>
          <internalNodes>
            0 -1 80 -3305 -679750249 -240529121 -12642985 -606405441
            -68445253 -65287201 -88352837</internalNodes>
          <leafValues>
            -8.2123267650604248e-01 1.1221945285797119e-01</leafValues></_>
        <_>
          <internalNodes>
            0 -1 4 -712516024 -539921442 1392777096 2011156429
            -355867682 443102155 -205455937 1934619631</internalNodes>
          <leafValues>
            -7.9977446794509888e-01 2.5573030114173889e-01</leafValues></_>
        <_>
          <internalNodes>
            0 -1 44 -137625606 2010275774 394611478 2140655860 814529212
            1045054116 2072042206 2135813066</internalNodes>
          <leafValues>
            -7.1897822618484497e-01 3.2197141647338867e-01</leafValues></_>
        <_>
          <internalNodes>
            0 -1 3 -288438590 -605109489 -376308649 -302005533
            -749805825 -758523701 -860889349 -672140937</internalNodes>
          <leafValues>
            -5.5283206701278687e-01 4.7532075643539429e-01</leafValues></_>
        <_>
          <internalNodes>
            0 -1 121 -286001373 803035855 -1684699760 -107499045
            1460367647 187671767 1120039377 -589832283</internalNodes>
          <leafValues>
            -5.6637549400329590e-01 4.7021746635437012e-01</leafValues></_></weakClassifiers></_>
    <!-- stage 2 -->
    <_>
      <maxWeakCount>5</maxWeakCount>
      <stageThreshold>-1.7368162870407104e+00</stageThreshold>
      <weakClassifiers>
        <_>
          <internalNodes>
            0 -1 45 -25174785 2145333323 -659050253 -1661535749
            -796964850 1064247385 -157112581 -18874885</internalNodes>
          <leafValues>
            -8.4156304597854614e-01 -1.9124087691307068e-01</leafValues></_>
        <_>
          <internalNodes>
            0 -1 38 1419739818 -614990858 85787135 2010093947 -33823297
            -106874437 -472269857 1360128479</internalNodes>
          <leafValues>
            -7.6211059093475342e-01 1.4766557514667511e-01</leafValues></_>
        <_>
          <internalNodes>
            0 -1 105 -539297532 -741368883 -127542157 852922843
            -510135808 -298199361 -70423553 -264242827</internalNodes>
          <leafValues>
            -6.4515495300292969e-01 3.3991584181785583e-01</leafValues></_>
        <_>
          <internalNodes>
            0 -1 8 -953222681 214612458 -1608533581 -140013649
            -1289228873 -1950113657 2120704951 -439888126</internalNodes>
          <leafValues>
            -5.2394700050354004e-01 4.1259607672691345e-01</leafValues></_>
        <_>
          <internalNodes>
            0 -1 28 -86267863 1987003481 -938290534 -434439514
            -639089610 1522354995 1199831995 -159907985</internalNodes>
          <leafValues>
            -6.0470861196517944e-01 3.8563704490661621e-01</leafValues></_></weakClassifiers></_>
    <!-- stage 3 -->
    <_>
      <maxWeakCount>5</maxWeakCount>
      <stageThreshold>-1.5136955976486206e+00</stageThreshold>
      <weakClassifiers>
        <_>
          <internalNodes>
            0 -1 86 -603988005 -1116548641 -543662859 -1073772207
            -1147417603 -71687683 -275977283 -1</internalNodes>
          <leafValues>
            -8.1615233421325684e-01 -3.0837005004286766e-02</leafValues></_>
        <_>
          <internalNodes>
            0 -1 98 -755022763 -35756553 -66871361 -1285955810
            -472230977 -544104259 2029529791 -55902913</internalNodes>
          <leafValues>
            -5.9868156909942627e-01 2.7018412947654724e-01</leafValues></_>
        <_>
          <internalNodes>
            0 -1 107 2086634752 819450025 1992257911 -2048920217
            1540225808 -1079274070 1045948799 16244727</internalNodes>
          <leafValues>
            -7.2523885965347290e-01 2.5962898135185242e-01</leafValues></_>
        <_>
          <internalNodes>
            0 -1 122 -1346398701 797874058 -879694223 -1175594652
            910577637 -1142191169 301814228 -823132707</internalNodes>
          <leafValues>
            -5.4127520322799683e-01 3.8157796859741211e-01</leafValues></_>
        <_>
          <internalNodes>
            0 -1 20 -1023746822 -1078482418 -1840638276 -183219712
            1442605268 1538982377 1427009375 2099203423</internalNodes>
          <leafValues>
            -5.7439613342285156e-01 3.8233703374862671e-01</leafValues></_></weakClassifiers></_>
    <!-- stage 4 -->
    <_>
      <maxWeakCount>6</maxWeakCount>
      <stageThreshold>-1.9398989677429199e+00</stageThreshold>
      <weakClassifiers>
        <_>
          <internalNodes>
            0 -1 87 -42729475 -1075850785 -78537219 -35696163 -537141505
            -1075215377 -913651267 -263173</internalNodes>
          <leafValues>
            -7.8044283390045166e-01 1.5322580933570862e-01</leafValues></_>
        <_>
          <internalNodes>
            0 -1 62 -2138920519 -1049601 2132278717 -1073768501
            1000077807 -1077976081 -544140289 -1644345051</internalNodes>
          <leafValues>
            -6.1089724302291870e-01 2.0666362345218658e-01</leafValues></_>
        <_>
          <internalNodes>
            0 -1 101 134209468 1050320856 -425732812 530545882 804060089
            1073531092 -1687329688 -1929775271</internalNodes>
          <leafValues>
            -6.9002252817153931e-01 2.8794053196907043e-01</leafValues></_>
        <_>
          <internalNodes>
            0 -1 63 -738775040 -1075621761 -575832549 -173081011
            2003679743 -83886901 -140363431 8503263</internalNodes>
          <leafValues>
            -7.2000259160995483e-01 2.5667545199394226e-01</leafValues></_>
        <_>
          <internalNodes>
            0 -1 18 -476579865 587920356 1817542646 -134303506
            1589357567 -1024794598 1912329205 -185076154</internalNodes>
          <leafValues>
            -4.9918773770332336e-01 4.0887856483459473e-01</leafValues></_>
        <_>
          <internalNodes>
            0 -1 27 -153948547 -1093674799 -661530540 1047042142
            2074311246 1484404821 -72765953 -75633153</internalNodes>
          <leafValues>
            -5.2409040927886963e-01 3.7614378333091736e-01</leafValues></_></weakClassifiers></_>
    <!-- stage 5 -->
    <_>
      <maxWeakCount>7</maxWeakCount>
      <stageThreshold>-1.6700509786605835e+00</stageThreshold>
      <weakClassifiers>
        <_>
          <internalNodes>
            0 -1 125 -1 1071642111 1168225240 -2114597 -536884501
            -1097929749 -91369811 -33</internalNodes>
          <leafValues>
            -7.9077899456024170e-01 -3.6619719117879868e-02</leafValues></_>
        <_>
          <internalNodes>
            0 -1 108 -385921985 -44091649 -959268397 -12856339
            -124461318 -704920673 -32617493 -1172679617</internalNodes>
          <leafValues>
            -5.5181080102920532e-01 2.5933071970939636e-01</leafValues></_>
        <_>
          <internalNodes>
            0 -1 54 1062731650 1978082148 567921876 995621103 -133234948
            1990043808 758903130 790099912</internalNodes>
          <leafValues>
            -6.8913453817367554e-01 2.3282861709594727e-01</leafValues></_>
        <_>
          <internalNodes>
            0 -1 83 796662431 1791951259 1494685661 -1776501812
            1868529271 -554012277 -11584524 -462360816</internalNodes>
          <leafValues>
            -5.9273898601531982e-01 2.8010183572769165e-01</leafValues></_>
        <_>
          <internalNodes>
            0 -1 25 -287379874 486327935 -1671498062 -1263470010
            1918832251 2031756556 2127716170 -1437368578</internalNodes>
          <leafValues>
            -5.6956100463867188e-01 3.3537733554840088e-01</leafValues></_>
        <_>
          <internalNodes>
            0 -1 58 -1568489815 -827717744 -979970699 399858613
            1912273893 -64257870 1071593203 -912896555</internalNodes>
          <leafValues>
            -5.3282779455184937e-01 3.3931586146354675e-01</leafValues></_>
        <_>
          <internalNodes>
            0 -1 133 -144835549 197515227 1444140452 -1594698329
            1781266998 1370196490 -372017228 -453575753</internalNodes>
          <leafValues>
            -5.4914426803588867e-01 3.5064029693603516e-01</leafValues></_></weakClassifiers></_>
    <!-- stage 6 -->
    <_>
      <maxWeakCount>6</maxWeakCount>
      <stageThreshold>-1.5958864688873291e+00</stageThreshold>
      <weakClassifiers>
        <_>
          <internalNodes>
            0 -1 68 -41761 -44079649 462935039 2144755679 -1846747970
            -1073779067 -21042530 -1342276625</internalNodes>
          <leafValues>
            -8.2900989055633545e-01 -3.0275228619575500e-01</leafValues></_>
        <_>
          <internalNodes>
            0 -1 127 -2510863 -2021720107 291451952 -1612733138
            2079836115 729610574 -204245356 -824183865</internalNodes>
          <leafValues>
            -6.1261397600173950e-01 1.4878433942794800e-01</leafValues></_>
        <_>
          <internalNodes>
            0 -1 113 -311215 -1629585681 -407127297 944496575 -286904968
            -19160895 -1543454954 -1604125193</internalNodes>
          <leafValues>
            -5.2652341127395630e-01 2.9550376534461975e-01</leafValues></_>
        <_>
          <internalNodes>
            0 -1 74 1325014884 2029934975 1469241885 1002069853
            524966268 1336805176 -337843266 -281395617</internalNodes>
          <leafValues>
            -5.4062485694885254e-01 3.0476698279380798e-01</leafValues></_>
        <_>
          <internalNodes>
            0 -1 93 2092955388 -1518991864 -112977484 2109664154
            1515597208 -1649481296 1367048088 1004885941</internalNodes>
          <leafValues>
            -6.4033055305480957e-01 2.8878241777420044e-01</leafValues></_>
        <_>
          <internalNodes>
            0 -1 7 1703603910 181568006 -465198601 -705832241 -102823345
            -11526757 1934029431 -737717378</internalNodes>
          <leafValues>
            -5.5646687746047974e-01 3.0959910154342651e-01</leafValues></_></weakClassifiers></_>
    <!-- stage 7 -->
    <_>
      <maxWeakCount>6</maxWeakCount>
      <stageThreshold>-1.4969742298126221e+00</stageThreshold>
      <weakClassifiers>
        <_>
          <internalNodes>
            0 -1 16 -502344233 -37207681 -821400097 -2146087 2106156031
            -69002849 -1203848453 -1082175071</internalNodes>
          <leafValues>
            -8.0883866548538208e-01 -2.3924268782138824e-01</leafValues></_>
        <_>
          <internalNodes>
            0 -1 131 -75520998 -7384553 -1065103265 2136293967
            -1567774020 -280289046 -2008027409 -799539633</internalNodes>
          <leafValues>
            -4.9567386507987976e-01 2.7275079488754272e-01</leafValues></_>
        <_>
          <internalNodes>
            0 -1 36 1317971526 2127447898 205703178 1403005111
            -290947844 1255801934 1824086090 1454590434</internalNodes>
          <leafValues>
            -7.2372484207153320e-01 2.1154324710369110e-01</leafValues></_>
        <_>
          <internalNodes>
            0 -1 14 -1602049906 114596551 264944055 1006218974
            -134334265 -116958707 2010114527 88428887</internalNodes>
          <leafValues>
            -8.7254470586776733e-01 1.6464036703109741e-01</leafValues></_>
        <_>
          <internalNodes>
            0 -1 124 1876409844 257342415 -786966032 232601859 535367600
            672243906 -778805888 637387670</internalNodes>
          <leafValues>
            -6.7582726478576660e-01 2.2524647414684296e-01</leafValues></_>
        <_>
          <internalNodes>
            0 -1 73 1120425968 -1110392428 856392094 391323469
            1403564476 1653152436 998799304 535703398</internalNodes>
          <leafValues>
            -6.0566514730453491e-01 2.7402532100677490e-01</leafValues></_></weakClassifiers></_>
    <!-- stage 8 -->
    <_>
      <maxWeakCount>7</maxWeakCount>
      <stageThreshold>-1.6104532480239868e+00</stageThreshold>
      <weakClassifiers>
        <_>
          <internalNodes>
            0 -1 132 -102773089 -208314633 -1104457505 819983343
            -271845554 -1165301041 -538117382 -83887361</internalNodes>
          <leafValues>
            -8.1485390663146973e-01 -2.8072836995124817e-01</leafValues></_>
        <_>
          <internalNodes>
            0 -1 10 2130437887 -6293002 -727451010 944738999 -635823236
            -452318662 -39915063 -1084758145</internalNodes>
          <leafValues>
            -5.3064060211181641e-01 2.2344966232776642e-01</leafValues></_>
        <_>
          <internalNodes>
            0 -1 41 -274160918 -110711360 899419217 -1791035566
            -1953874973 -858798902 1088894900 1173831511</internalNodes>
          <leafValues>
            -5.7750260829925537e-01 2.5870582461357117e-01</leafValues></_>
        <_>
          <internalNodes>
            0 -1 123 -419568123 -6431749 -1055821315 604235159
            2138012160 -1074032194 -1144128677 1392377162</internalNodes>
          <leafValues>
            -5.1592934131622314e-01 2.9553255438804626e-01</leafValues></_>
        <_>
          <internalNodes>
            0 -1 47 -1098973466 -1098982298 1288230550 -233014690
            1779648844 739967015 1915608821 -12391612</internalNodes>
          <leafValues>
            -5.8103394508361816e-01 2.8367426991462708e-01</leafValues></_>
        <_>
          <internalNodes>
            0 -1 51 -1357043039 -830289712 -2049728102 -715206186
            871000823 -1551793967 -1155993872 -715851979</internalNodes>
          <leafValues>
            -5.0588965415954590e-01 3.1756955385208130e-01</leafValues></_>
        <_>
          <internalNodes>
            0 -1 0 1653060341 505279966 312821119 -336227208 1964202382
            2078126248 -976865030 -460642316</internalNodes>
          <leafValues>
            -4.8901861906051636e-01 3.3784738183021545e-01</leafValues></_></weakClassifiers></_>
    <!-- stage 9 -->
    <_>
      <maxWeakCount>8</maxWeakCount>
      <stageThreshold>-1.4438778162002563e+00</stageThreshold>
      <weakClassifiers>
        <_>
          <internalNodes>
            0 -1 116 -738222149 -1812008646 456228849 -203996394
            1714665962 -1928290072 1303592441 -841220609</internalNodes>
          <leafValues>
            -8.2872503995895386e-01 -3.8169643282890320e-01</leafValues></_>
        <_>
          <internalNodes>
            0 -1 89 -583607096 -1632964524 -597739656 -92596762
            1107815866 -1078364089 1628485367 2208815</internalNodes>
          <leafValues>
            -6.5512651205062866e-01 6.6892355680465698e-02</leafValues></_>
        <_>
          <internalNodes>
            0 -1 30 -442044237 -115384150 2037486335 -134256194
            1255931326 -877424227 -954371855 -978851882</internalNodes>
          <leafValues>
            -4.0518927574157715e-01 3.6405470967292786e-01</leafValues></_>
        <_>
          <internalNodes>
            0 -1 95 -45903736 2047435811 358136836 1400502245 17694156
            1254728115 -501417046 415101837</internalNodes>
          <leafValues>
            -5.4398638010025024e-01 2.7985379099845886e-01</leafValues></_>
        <_>
          <internalNodes>
            0 -1 69 -738883584 -1185939023 -788058121 -1080433697
            -1299846145 -1453766151 1602890717 152339350</internalNodes>
          <leafValues>
            -5.7722228765487671e-01 2.9628670215606689e-01</leafValues></_>
        <_>
          <internalNodes>
            0 -1 84 255067711 707200705 -779970145 -1268846188
            2048488230 1250590853 -3632176 -558826892</internalNodes>
          <leafValues>
            -5.9207409620285034e-01 2.6636025309562683e-01</leafValues></_>
        <_>
          <internalNodes>
            0 -1 99 -824285183 595581743 -371336853 393998671 -643069754
            -367285990 -99659366 -667696297</internalNodes>
          <leafValues>
            -4.9250206351280212e-01 3.4961342811584473e-01</leafValues></_>
        <_>
          <internalNodes>
            0 -1 60 1955394492 -1082565576 -450620470 1038989983
            -1449117966 1532544144 958738090 1550710455</internalNodes>
          <leafValues>
            -5.7225835323333740e-01 3.1567695736885071e-01</leafValues></_></weakClassifiers></_>
    <!-- stage 10 -->
    <_>
      <maxWeakCount>7</maxWeakCount>
      <stageThreshold>-1.7335683107376099e+00</stageThreshold>
      <weakClassifiers>
        <_>
          <internalNodes>
            0 -1 112 -142609409 -1082301025 1544771581 -539530059
            1823450047 -1462858901 -1076666371 -287314021</internalNodes>
          <leafValues>
            -8.0771929025650024e-01 -3.0461537837982178e-01</leafValues></_>
        <_>
          <internalNodes>
            0 -1 24 -96760097 1015407357 1788342430 1861417718
            2101573231 2063978791 -72664548 -27011825</internalNodes>
          <leafValues>
            -5.4571789503097534e-01 1.5038898587226868e-01</leafValues></_>
        <_>
          <internalNodes>
            0 -1 104 -620871596 -543655459 676977895 814377321 -98390043
            -73496493 1887726569 538982746</internalNodes>
          <leafValues>
            -6.4201551675796509e-01 1.9194637238979340e-01</leafValues></_>
        <_>
          <internalNodes>
            0 -1 35 281791662 -1787836802 -2059357026 1207713984
            1224201918 925390126 1570699753 890976236</internalNodes>
          <leafValues>
            -5.5270922183990479e-01 2.8874033689498901e-01</leafValues></_>
        <_>
          <internalNodes>
            0 -1 9 1288160940 -1095261242 -2033783570 72204140
            1884841443 -166697533 448778085 2087998231</internalNodes>
          <leafValues>
            -6.6879528760910034e-01 1.9307692348957062e-01</leafValues></_>
        <_>
          <internalNodes>
            0 -1 115 715331106 666796518 -1324133410 978712920
            1516192113 682068652 1586458789 -1922272004</internalNodes>
          <leafValues>
            -7.0646822452545166e-01 1.9534604251384735e-01</leafValues></_>
        <_>
          <internalNodes>
            0 -1 12 1536324939 1535619999 1158271454 -69242555
            -1156748834 -894794751 60797542 1970385387</internalNodes>
          <leafValues>
            -4.0779128670692444e-01 3.6140930652618408e-01</leafValues></_></weakClassifiers></_>
    <!-- stage 11 -->
    <_>
      <maxWeakCount>8</maxWeakCount>
      <stageThreshold>-1.5739471912384033e+00</stageThreshold>
      <weakClassifiers>
        <_>
          <internalNodes>
            0 -1 126 -537412609 328575482 -899435559 -3050734
            -1226077201 -1379816517 1540184829 -2362945</internalNodes>
          <leafValues>
            -8.1117117404937744e-01 -3.4344828128814697e-01</leafValues></_>
        <_>
          <internalNodes>
            0 -1 103 858849268 2134177236 -1716439593 -1174799423
            833217213 -1483763037 1926495146 -1342491427</internalNodes>
          <leafValues>
            -5.3046709299087524e-01 1.3903428614139557e-01</leafValues></_>
        <_>
          <internalNodes>
            0 -1 97 785149701 -1479790387 1729099709 -691051308
            -212968585 -222715811 -79674464 -768810256</internalNodes>
          <leafValues>
            -5.4689776897430420e-01 2.2373946011066437e-01</leafValues></_>
        <_>
          <internalNodes>
            0 -1 39 -1850061766 1600823116 1963863805 159691812
            802126314 -537298917 1987414713 117929452</internalNodes>
          <leafValues>
            -6.2908768653869629e-01 2.0098607242107391e-01</leafValues></_>
        <_>
          <internalNodes>
            0 -1 32 -45075962 -270979605 -62095416 -612525219 2138422270
            790575747 216334090 436351164</internalNodes>
          <leafValues>
            -6.9080001115798950e-01 2.0726749300956726e-01</leafValues></_>
        <_>
          <internalNodes>
            0 -1 77 1595940060 -1600505487 -150155817 1930379499
            -125082770 -1165383655 866653566 558215571</internalNodes>
          <leafValues>
            -5.2768033742904663e-01 2.5572535395622253e-01</leafValues></_>
        <_>
          <internalNodes>
            0 -1 50 1703660594 -286466350 -113227918 -40218240
            -1852083992 -913145413 1510963347 -864562956</internalNodes>
          <leafValues>
            -4.9127483367919922e-01 2.7925273776054382e-01</leafValues></_>
        <_>
          <internalNodes>
            0 -1 92 -750846800 -1375189602 -1676928058 -1086586627
            960397870 185843770 830625196 1002428734</internalNodes>
          <leafValues>
            -5.4876178503036499e-01 2.6942464709281921e-01</leafValues></_></weakClassifiers></_>
    <!-- stage 12 -->
    <_>
      <maxWeakCount>7</maxWeakCount>
      <stageThreshold>-1.6913968324661255e+00</stageThreshold>
      <weakClassifiers>
        <_>
          <internalNodes>
            0 -1 118 -23341825 -8956943 -1852221731 2076801375 -91247398
            -69042041 -204801793 -88085761</internalNodes>
          <leafValues>
            -7.7566540241241455e-01 -1.5116278827190399e-01</leafValues></_>
        <_>
          <internalNodes>
            0 -1 34 -953513309 -1481968854 -45902505 432912213
            -1913776130 -1081167717 1837524014 -842804685</internalNodes>
          <leafValues>
            -5.5954086780548096e-01 1.1491823941469193e-01</leafValues></_>
        <_>
          <internalNodes>
            0 -1 120 -236235254 1017037023 -451232786 702013014
            1504703360 -1313717045 -1837238008 11657194</internalNodes>
          <leafValues>
            -5.7581502199172974e-01 2.0698787271976471e-01</leafValues></_>
        <_>
          <internalNodes>
            0 -1 117 -1029923020 1012414390 390975861 -1153501860
            1274865627 704243892 456080184 -1662193935</internalNodes>
          <leafValues>
            -5.3921365737915039e-01 2.3883858323097229e-01</leafValues></_>
        <_>
          <internalNodes>
            0 -1 21 1562889454 -374749872 381990172 -581882550
            2096448483 1532908390 1969157199 1297316042</internalNodes>
          <leafValues>
            -4.8002895712852478e-01 3.0455216765403748e-01</leafValues></_>
        <_>
          <internalNodes>
            0 -1 106 -116822222 -2086350350 -82737440 -540550398
            556379122 -2073374583 1940742113 -852501890</internalNodes>
          <leafValues>
            -5.2423256635665894e-01 2.8766238689422607e-01</leafValues></_>
        <_>
          <internalNodes>
            0 -1 11 -835783046 1054763223 -1336896366 751761574
            2071730681 2137808928 -1430313859 1023698299</internalNodes>
          <leafValues>
            -6.8616783618927002e-01 2.0224456489086151e-01</leafValues></_></weakClassifiers></_>
    <!-- stage 13 -->
    <_>
      <maxWeakCount>10</maxWeakCount>
      <stageThreshold>-1.5991989374160767e+00</stageThreshold>
      <weakClassifiers>
        <_>
          <internalNodes>
            0 -1 53 -538193665 -170270183 -268183201 -1147187977
            -338813347 -81901203 2080283391 -76821825</internalNodes>
          <leafValues>
            -7.9377955198287964e-01 -2.8044280409812927e-01</leafValues></_>
        <_>
          <internalNodes>
            0 -1 23 -279859574 1047454412 1431560758 -1714764860
            -70712353 1071206607 2129355549 -185206153</internalNodes>
          <leafValues>
            -5.5591976642608643e-01 1.2046597898006439e-01</leafValues></_>
        <_>
          <internalNodes>
            0 -1 128 -13660655 267381314 -1794515120 -1144138378
            997425855 193777841 1227183313 -862202946</internalNodes>
          <leafValues>
            -4.3797710537910461e-01 2.8171098232269287e-01</leafValues></_>
        <_>
          <internalNodes>
            0 -1 48 -186600928 323059323 387666838 1961428060
            -1566450250 -1619296579 -1960969217 1448077711</internalNodes>
          <leafValues>
            -4.8351672291755676e-01 2.7018791437149048e-01</leafValues></_>
        <_>
          <internalNodes>
            0 -1 55 -1505306398 1925375241 130015963 -891756090
            1678398165 -40134536 1954892787 494227280</internalNodes>
          <leafValues>
            -5.4919207096099854e-01 2.7647241950035095e-01</leafValues></_>
        <_>
          <internalNodes>
            0 -1 75 -856270316 -27229033 -585999873 898181501 1401575756
            -1814127317 1791505245 -1685949545</internalNodes>
          <leafValues>
            -4.2584428191184998e-01 3.1930994987487793e-01</leafValues></_>
        <_>
          <internalNodes>
            0 -1 114 882257529 -1886431915 -712425000 700423162
            -503635425 -47631586 1070754038 -456618644</internalNodes>
          <leafValues>
            -4.9071338772773743e-01 2.8491488099098206e-01</leafValues></_>
        <_>
          <internalNodes>
            0 -1 81 -1247016320 2045444722 -1105544734 -206341298
            -1418812976 1099262199 -5146229 1198191869</internalNodes>
          <leafValues>
            -5.4627096652984619e-01 2.5238889455795288e-01</leafValues></_>
        <_>
          <internalNodes>
            0 -1 94 -327743350 -356321664 -250929982 922706255
            -1427442944 990972267 1460854508 1442430315</internalNodes>
          <leafValues>
            -5.9510952234268188e-01 2.3794196546077728e-01</leafValues></_>
        <_>
          <internalNodes>
            0 -1 37 -19208547 589195844 -985361717 443433691 -1651886350
            -1143844210 939995751 -512267949</internalNodes>
          <leafValues>
            -4.8642796277999878e-01 3.0272537469863892e-01</leafValues></_></weakClassifiers></_>
    <!-- stage 14 -->
    <_>
      <maxWeakCount>8</maxWeakCount>
      <stageThreshold>-1.5553981065750122e+00</stageThreshold>
      <weakClassifiers>
        <_>
          <internalNodes>
            0 -1 53 -134491397 -134618861 -1073481505 -104907527
            -134083477 997867531 2076348159 -75766065</internalNodes>
          <leafValues>
            -7.9300892353057861e-01 -3.1958761811256409e-01</leafValues></_>
        <_>
          <internalNodes>
            0 -1 111 1337715696 798159506 -1446545200 793629784
            466974904 235964882 73625016 -866154464</internalNodes>
          <leafValues>
            -6.9607692956924438e-01 1.0515541071072221e-03</leafValues></_>
        <_>
          <internalNodes>
            0 -1 96 -1933625856 377549151 1495156208 1797020082
            -777834560 1450130144 -2330402 826342149</internalNodes>
          <leafValues>
            -6.4034646749496460e-01 1.5640550851821899e-01</leafValues></_>
        <_>
          <internalNodes>
            0 -1 137 496548068 1860105354 -142526695 -1889639985
            1593554645 2108305130 1472517474 1766382712</internalNodes>
          <leafValues>
            -5.2454328536987305e-01 2.4325622618198395e-01</leafValues></_>
        <_>
          <internalNodes>
            0 -1 15 698609937 1715992410 1157928332 -722253376
            2057785520 -747046005 1440949503 -1006582285</internalNodes>
          <leafValues>
            -4.9153310060501099e-01 2.6554113626480103e-01</leafValues></_>
        <_>
          <internalNodes>
            0 -1 70 -861242049 -321949441 470250647 -797508636
            -139740772 -300156849 455889638 -985462335</internalNodes>
          <leafValues>
            -3.8173866271972656e-01 3.3618500828742981e-01</leafValues></_>
        <_>
          <internalNodes>
            0 -1 52 -1397976526 -1685637707 -57380095 1149188080
            1237964243 850055172 600492982 1275826372</internalNodes>
          <leafValues>
            -5.5977219343185425e-01 2.3156966269016266e-01</leafValues></_>
        <_>
          <internalNodes>
            0 -1 76 1980421116 2093543726 27089007 1207734686 1652595672
            991718640 898238783 54223346</internalNodes>
          <leafValues>
            -4.8211020231246948e-01 2.6994147896766663e-01</leafValues></_></weakClassifiers></_>
    <!-- stage 15 -->
    <_>
      <maxWeakCount>8</maxWeakCount>
      <stageThreshold>-1.4656916856765747e+00</stageThreshold>
      <weakClassifiers>
        <_>
          <internalNodes>
            0 -1 46 -35652613 -6351917 -1809330049 -536173 -220208421
            -70015488 -79172613 -1841</internalNodes>
          <leafValues>
            -7.4593794345855713e-01 2.1739129722118378e-01</leafValues></_>
        <_>
          <internalNodes>
            0 -1 67 722146425 1661739433 -563964074 1052632418 984350492
            -354686725 -6661292 -217386812</internalNodes>
          <leafValues>
            -6.2112432718276978e-01 4.7346238046884537e-02</leafValues></_>
        <_>
          <internalNodes>
            0 -1 65 -664934157 1541809982 -1179085626 1943756522
            328778670 285899100 1827594226 -785209398</internalNodes>
          <leafValues>
            -3.5229837894439697e-01 3.3672860264778137e-01</leafValues></_>
        <_>
          <internalNodes>
            0 -1 136 597485088 1038310239 -973024358 -1443567105
            2035947424 1806010894 2117003944 114546384</internalNodes>
          <leafValues>
            -5.5316346883773804e-01 2.2529082000255585e-01</leafValues></_>
        <_>
          <internalNodes>
            0 -1 129 701936802 -2055069248 1348022645 1436709618
            2076678793 1313393876 244153845 -1645226017</internalNodes>
          <leafValues>
            -4.4100382924079895e-01 2.8520801663398743e-01</leafValues></_>
        <_>
          <internalNodes>
            0 -1 135 1707628077 1742488474 437146780 140252575
            1283613556 744327808 -574112770 910966126</internalNodes>
          <leafValues>
            -5.2345138788223267e-01 2.6265972852706909e-01</leafValues></_>
        <_>
          <internalNodes>
            0 -1 19 1741398319 694068454 -58249213 -103190054 1537454235
            -1306981941 1813500615 -507119246</internalNodes>
          <leafValues>
            -3.8511133193969727e-01 3.4325864911079407e-01</leafValues></_>
        <_>
          <internalNodes>
            0 -1 88 1952351488 1012126682 -2008475542 517566803
            -649164496 -1223116767 -224184985 1478235</internalNodes>
          <leafValues>
            -8.0284887552261353e-01 1.7336125671863556e-01</leafValues></_></weakClassifiers></_>
    <!-- stage 16 -->
    <_>
      <maxWeakCount>8</maxWeakCount>
      <stageThreshold>-1.5257476568222046e+00</stageThreshold>
      <weakClassifiers>
        <_>
          <internalNodes>
            0 -1 49 -19144805 -37596298 -915291375 -538977803 -20212737
            -1714440037 -1011878933 -541072641</internalNodes>
          <leafValues>
            -7.7311724424362183e-01 -1.8980169296264648e-01</leafValues></_>
        <_>
          <internalNodes>
            0 -1 100 1072877073 -1621240916 1094960079 -1103162593
            1811575566 -1349795448 2060382903 -1095616136</internalNodes>
          <leafValues>
            -5.6132078170776367e-01 7.5889319181442261e-02</leafValues></_>
        <_>
          <internalNodes>
            0 -1 43 -892353760 2053355238 1564111742 1442051238
            1095334340 1804699107 1860752470 558497676</internalNodes>
          <leafValues>
            -6.6428029537200928e-01 1.5872955322265625e-01</leafValues></_>
        <_>
          <internalNodes>
            0 -1 6 -720466710 -1360343538 666999132 1659398189 1169267
            2078708124 2006086977 1635215538</internalNodes>
          <leafValues>
            -6.6140925884246826e-01 2.1618986129760742e-01</leafValues></_>
        <_>
          <internalNodes>
            0 -1 56 -1953870270 -211401764 1612028862 -1265352376
            -647245697 -891039028 293862138 1564086497</internalNodes>
          <leafValues>
            -5.2641201019287109e-01 2.2960409522056580e-01</leafValues></_>
        <_>
          <internalNodes>
            0 -1 66 -560582771 -1118080675 -401189708 -744645223
            166653684 190399003 1939796444 -1851075119</internalNodes>
          <leafValues>
            -3.9184185862541199e-01 3.3976313471794128e-01</leafValues></_>
        <_>
          <internalNodes>
            0 -1 82 -2292096 -963953298 -805046666 -745171506 151775231
            813793453 -170862340 274857862</internalNodes>
          <leafValues>
            -5.5827236175537109e-01 2.4224261939525604e-01</leafValues></_>
        <_>
          <internalNodes>
            0 -1 22 803139492 -1611697400 420926166 1565481119
            1909133471 406997891 1360655260 1979940687</internalNodes>
          <leafValues>
            -4.0970501303672791e-01 3.4008085727691650e-01</leafValues></_></weakClassifiers></_>
    <!-- stage 17 -->
    <_>
      <maxWeakCount>7</maxWeakCount>
      <stageThreshold>-1.3761708736419678e+00</stageThreshold>
      <weakClassifiers>
        <_>
          <internalNodes>
            0 -1 17 -843066369 -183244069 1836579327 -537544961
            -902832193 -2024532 -85340161 -607134214</internalNodes>
          <leafValues>
            -7.6336818933486938e-01 -6.5040647983551025e-02</leafValues></_>
        <_>
          <internalNodes>
            0 -1 61 -1636144906 802674767 -463188846 922763405
            -1357757364 1446142843 2131342078 -277409203</internalNodes>
          <leafValues>
            -5.9168428182601929e-01 6.0736600309610367e-02</leafValues></_>
        <_>
          <internalNodes>
            0 -1 91 177082061 741073318 1817763056 1423597014 1365471342
            -399928621 -342674874 -353046156</internalNodes>
          <leafValues>
            -5.4170048236846924e-01 2.0659396052360535e-01</leafValues></_>
        <_>
          <internalNodes>
            0 -1 40 280920586 1177962306 620583136 1824968846 1477431201
            672101428 1637762556 38042610</internalNodes>
          <leafValues>
            -8.0898988246917725e-01 1.7926087975502014e-01</leafValues></_>
        <_>
          <internalNodes>
            0 -1 90 87790090 -305732467 1599898900 865824910 1468349322
            908185247 -653213866 808793869</internalNodes>
          <leafValues>
            -6.2688976526260376e-01 1.6126994788646698e-01</leafValues></_>
        <_>
          <internalNodes>
            0 -1 59 -1891858912 -361016314 1074421680 2134365232
            -2009294122 421116561 425907186 1352069079</internalNodes>
          <leafValues>
            -5.8211678266525269e-01 2.0771990716457367e-01</leafValues></_>
        <_>
          <internalNodes>
            0 -1 42 -559012704 1800798918 -505578340 776204492 453751340
            717881582 1910296942 422326464</internalNodes>
          <leafValues>
            -6.3854730129241943e-01 1.9012160599231720e-01</leafValues></_></weakClassifiers></_>
    <!-- stage 18 -->
    <_>
      <maxWeakCount>8</maxWeakCount>
      <stageThreshold>-1.8118088245391846e+00</stageThreshold>
      <weakClassifiers>
        <_>
          <internalNodes>
            0 -1 72 -14680097 -326561 -972775777 -544386593 -989535805
            -283180999 -1485834817 -2103361</internalNodes>
          <leafValues>
            -7.6041352748870850e-01 4.7393366694450378e-03</leafValues></_>
        <_>
          <internalNodes>
            0 -1 118 -63860503 2047304144 -1845470115 985758558
            -225793956 -1163736948 -359864102 -356717033</internalNodes>
          <leafValues>
            -5.0759482383728027e-01 1.2391404807567596e-01</leafValues></_>
        <_>
          <internalNodes>
            0 -1 26 1737899036 1582198878 -1740595732 798151390
            845028341 -633246864 -41414018 510394917</internalNodes>
          <leafValues>
            -7.2460460662841797e-01 1.4256732165813446e-01</leafValues></_>
        <_>
          <internalNodes>
            0 -1 109 -754523006 -128229153 -2123263724 1574035807
            813616972 694526471 -867800292 280457413</internalNodes>
          <leafValues>
            -4.6169018745422363e-01 2.8046333789825439e-01</leafValues></_>
        <_>
          <internalNodes>
            0 -1 13 450244140 -1083043432 -749710369 691951061
            2047540508 -1086730096 -1551350625 1682495899</internalNodes>
          <leafValues>
            -4.4054311513900757e-01 2.6451930403709412e-01</leafValues></_>
        <_>
          <internalNodes>
            0 -1 64 -2123711197 -154233424 4300949 -1618380460 596637754
            -13500114 -1450605259 -731096748</internalNodes>
          <leafValues>
            -4.8629495501518250e-01 2.6605832576751709e-01</leafValues></_>
        <_>
          <internalNodes>
            0 -1 31 -748523597 -1158692940 2147459071 1206828922
            1844379389 1879048190 1767337357 -785828354</internalNodes>
          <leafValues>
            -3.0321285128593445e-01 4.3717035651206970e-01</leafValues></_>
        <_>
          <internalNodes>
            0 -1 130 89850795 1271271773 1418055881 1816598325
            1486449767 -846593879 1258971982 575463728</internalNodes>
          <leafValues>
            -5.6215077638626099e-01 2.5302001833915710e-01</leafValues></_></weakClassifiers></_>
    <!-- stage 19 -->
    <_>
      <maxWeakCount>9</maxWeakCount>
      <stageThreshold>-1.3227471113204956e+00</stageThreshold>
      <weakClassifiers>
        <_>
          <internalNodes>
            0 -1 102 -686296589 -611740332 -787395083 -6460965 941096703
            -862449214 -1886418945 -1049637</internalNodes>
          <leafValues>
            -7.6262933015823364e-01 2.8037382289767265e-02</leafValues></_>
        <_>
          <internalNodes>
            0 -1 134 -149438223 -1613838896 8980177 -13663788 -347417923
            566331970 1929944300 -931141361</internalNodes>
          <leafValues>
            -4.6276319026947021e-01 1.8830326199531555e-01</leafValues></_>
        <_>
          <internalNodes>
            0 -1 1 -1576648570 -1566798454 -754721041 -1434502759
            428774967 1242550427 1811378211 1781945940</internalNodes>
          <leafValues>
            -8.2349717617034912e-01 1.2508550286293030e-01</leafValues></_>
        <_>
          <internalNodes>
            0 -1 78 -1319369856 -873854776 1314268062 1752585612
            1814716636 218832920 1002361754 51575796</internalNodes>
          <leafValues>
            -6.0973376035690308e-01 2.0342545211315155e-01</leafValues></_>
        <_>
          <internalNodes>
            0 -1 33 1370048689 -67175475 922599269 931118315 -1280606363
            -34719106 -1156712490 -930436102</internalNodes>
          <leafValues>
            -2.4566639959812164e-01 5.0336664915084839e-01</leafValues></_>
        <_>
          <internalNodes>
            0 -1 79 251602305 -1401007891 840479140 639097282
            -1903957981 1290404138 1654989716 -722414368</internalNodes>
          <leafValues>
            -5.9630578756332397e-01 2.2292636334896088e-01</leafValues></_>
        <_>
          <internalNodes>
            0 -1 110 188426902 1336084626 -1592770287 1854670378
            1032533115 2038964241 1772794353 -317682912</internalNodes>
          <leafValues>
            -5.6205421686172485e-01 2.1913322806358337e-01</leafValues></_>
        <_>
          <internalNodes>
            0 -1 57 -324648440 1918296394 1627403002 -735031280
            -1593261706 -32585537 -1060632790 93782789</internalNodes>
          <leafValues>
            -5.8603453636169434e-01 2.2563816606998444e-01</leafValues></_>
        <_>
          <internalNodes>
            0 -1 71 -1169159472 2138469836 625964334 1971085754
            1082749593 1050035348 1357259073 218765354</internalNodes>
          <leafValues>
            -6.5246051549911499e-01 1.9606757164001465e-01</leafValues></_></weakClassifiers></_></stages>
  <features>
    <_>
      <rect>
        0 0 3 3</rect></_>
    <_>
      <rect>
        0 0 4 5</rect></_>
    <_>
      <rect>
        0 0 5 2</rect></_>
    <_>
      <rect>
        0 0 5 3</rect></_>
    <_>
      <rect>
        0 0 8 8</rect></_>
    <_>
      <rect>
        0 1 3 4</rect></_>
    <_>
      <rect>
        0 3 4 5</rect></_>
    <_>
      <rect>
        0 4 2 4</rect></_>
    <_>
      <rect>
        0 5 2 2</rect></_>
    <_>
      <rect>
        0 7 3 4</rect></_>
    <_>
      <rect>
        0 13 2 2</rect></_>
    <_>
      <rect>
        0 13 3 3</rect></_>
    <_>
      <rect>
        0 20 1 1</rect></_>
    <_>
      <rect>
        1 0 2 1</rect></_>
    <_>
      <rect>
        1 0 6 3</rect></_>
    <_>
      <rect>
        1 1 2 2</rect></_>
    <_>
      <rect>
        1 1 5 1</rect></_>
    <_>
      <rect>
        1 5 7 4</rect></_>
    <_>
      <rect>
        1 6 2 1</rect></_>
    <_>
      <rect>
        1 7 1 2</rect></_>
    <_>
      <rect>
        1 7 3 5</rect></_>
    <_>
      <rect>
        1 7 4 4</rect></_>
    <_>
      <rect>
        1 8 2 2</rect></_>
    <_>
      <rect>
        1 9 1 2</rect></_>
    <_>
      <rect>
        1 11 1 2</rect></_>
    <_>
      <rect>
        1 11 2 3</rect></_>
    <_>
      <rect>
        1 15 4 3</rect></_>
    <_>
      <rect>
        1 17 3 1</rect></_>
    <_>
      <rect>
        1 18 3 1</rect></_>
    <_>
      <rect>
        1 18 5 2</rect></_>
    <_>
      <rect>
        2 2 2 2</rect></_>
    <_>
      <rect>
        2 2 2 3</rect></_>
    <_>
      <rect>
        2 2 7 7</rect></_>
    <_>
      <rect>
        2 3 7 5</rect></_>
    <_>
      <rect>
        2 5 1 2</rect></_>
    <_>
      <rect>
        2 8 4 3</rect></_>
    <_>
      <rect>
        2 13 4 3</rect></_>
    <_>
      <rect>
        2 17 3 2</rect></_>
    <_>
      <rect>
        3 0 6 3</rect></_>
    <_>
      <rect>
        3 2 4 5</rect></_>
    <_>
      <rect>
        3 3 6 4</rect></_>
    <_>
      <rect>
        3 4 2 2</rect></_>
    <_>
      <rect>
        3 6 5 4</rect></_>
    <_>
      <rect>
        3 9 6 4</rect></_>
    <_>
      <rect>
        3 15 6 3</rect></_>
    <_>
      <rect>
        3 16 1 1</rect></_>
    <_>
      <rect>
        3 17 1 1</rect></_>
    <_>
      <rect>
        3 17 2 1</rect></_>
    <_>
      <rect>
        4 1 4 4</rect></_>
    <_>
      <rect>
        4 4 2 1</rect></_>
    <_>
      <rect>
        4 5 1 1</rect></_>
    <_>
      <rect>
        4 7 1 1</rect></_>
    <_>
      <rect>
        4 7 3 5</rect></_>
    <_>
      <rect>
        4 16 1 1</rect></_>
    <_>
      <rect>
        4 17 6 2</rect></_>
    <_>
      <rect>
        5 1 3 1</rect></_>
    <_>
      <rect>
        5 2 1 1</rect></_>
    <_>
      <rect>
        5 2 3 1</rect></_>
    <_>
      <rect>
        5 3 1 1</rect></_>
    <_>
      <rect>
        5 10 4 4</rect></_>
    <_>
      <rect>
        5 12 4 4</rect></_>
    <_>
      <rect>
        5 19 2 1</rect></_>
    <_>
      <rect>
        6 0 2 2</rect></_>
    <_>
      <rect>
        6 0 6 3</rect></_>
    <_>
      <rect>
        6 4 1 1</rect></_>
    <_>
      <rect>
        6 6 4 4</rect></_>
    <_>
      <rect>
        6 7 3 2</rect></_>
    <_>
      <rect>
        6 13 1 1</rect></_>
    <_>
      <rect>
        6 19 1 1</rect></_>
    <_>
      <rect>
        7 0 4 2</rect></_>
    <_>
      <rect>
        7 4 2 2</rect></_>
    <_>
      <rect>
        7 9 4 4</rect></_>
    <_>
      <rect>
        7 15 4 2</rect></_>
    <_>
      <rect>
        7 18 3 2</rect></_>
    <_>
      <rect>
        7 19 1 1</rect></_>
    <_>
      <rect>
        7 19 2 1</rect></_>
    <_>
      <rect>
        7 20 3 1</rect></_>
    <_>
      <rect>
        8 2 3 2</rect></_>
    <_>
      <rect>
        8 7 4 3</rect></_>
    <_>
      <rect>
        8 14 2 1</rect></_>
    <_>
      <rect>
        9 0 5 2</rect></_>
    <_>
      <rect>
        9 5 3 3</rect></_>
    <_>
      <rect>
        9 6 4 3</rect></_>
    <_>
      <rect>
        9 10 1 1</rect></_>
    <_>
      <rect>
        9 11 1 1</rect></_>
    <_>
      <rect>
        9 11 5 4</rect></_>
    <_>
      <rect>
        9 18 5 2</rect></_>
    <_>
      <rect>
        9 20 4 1</rect></_>
    <_>
      <rect>
        10 1 4 2</rect></_>
    <_>
      <rect>
        10 3 3 3</rect></_>
    <_>
      <rect>
        10 7 4 3</rect></_>
    <_>
      <rect>
        10 13 2 1</rect></_>
    <_>
      <rect>
        10 15 3 2</rect></_>
    <_>
      <rect>
        10 15 4 3</rect></_>
    <_>
      <rect>
        11 4 4 3</rect></_>
    <_>
      <rect>
        11 5 4 4</rect></_>
    <_>
      <rect>
        11 9 4 3</rect></_>
    <_>
      <rect>
        12 14 1 1</rect></_>
    <_>
      <rect>
        13 0 2 2</rect></_>
    <_>
      <rect>
        13 1 3 2</rect></_>
    <_>
      <rect>
        13 8 1 2</rect></_>
    <_>
      <rect>
        13 15 3 3</rect></_>
    <_>
      <rect>
        13 19 2 1</rect></_>
    <_>
      <rect>
        13 20 1 1</rect></_>
    <_>
      <rect>
        14 2 1 1</rect></_>
    <_>
      <rect>
        14 4 3 1</rect></_>
    <_>
      <rect>
        14 18 2 1</rect></_>
    <_>
      <rect>
        15 0 3 6</rect></_>
    <_>
      <rect>
        15 2 1 1</rect></_>
    <_>
      <rect>
        15 6 3 4</rect></_>
    <_>
      <rect>
        15 8 1 1</rect></_>
    <_>
      <rect>
        15 15 2 2</rect></_>
    <_>
      <rect>
        15 15 3 3</rect></_>
    <_>
      <rect>
        16 3 1 1</rect></_>
    <_>
      <rect>
        16 13 1 1</rect></_>
    <_>
      <rect>
        16 15 1 1</rect></_>
    <_>
      <rect>
        16 16 2 2</rect></_>
    <_>
      <rect>
        16 17 2 2</rect></_>
    <_>
      <rect>
        17 5 1 1</rect></_>
    <_>
      <rect>
        17 7 2 1</rect></_>
    <_>
      <rect>
        17 7 2 3</rect></_>
    <_>
      <rect>
        17 15 2 1</rect></_>
    <_>
      <rect>
        17 16 1 1</rect></_>
    <_>
      <rect>
        18 4 2 3</rect></_>
    <_>
      <rect>
        18 7 2 5</rect></_>
    <_>
      <rect>
        18 9 2 5</rect></_>
    <_>
      <rect>
        18 11 2 4</rect></_>
    <_>
      <rect>
        18 13 2 2</rect></_>
    <_>
      <rect>
        18 16 1 1</rect></_>
    <_>
      <rect>
        18 17 1 1</rect></_>
    <_>
      <rect>
        18 21 2 1</rect></_>
    <_>
      <rect>
        19 4 1 3</rect></_>
    <_>
      <rect>
        19 6 1 1</rect></_>
    <_>
      <rect>
        19 11 1 1</rect></_>
    <_>
      <rect>
        19 13 1 2</rect></_>
    <_>
      <rect>
        19 20 1 1</rect></_>
    <_>
      <rect>
        20 9 1 2</rect></_>
    <_>
      <rect>
        21 0 1 1</rect></_></features></cascade>
</opencv_storage>
