<?xml version="1.0"?>
<opencv_storage>
<cascade>
  <stageType>BOOST</stageType>
  <featureType>LBP</featureType>
  <height>24</height>
  <width>24</width>
  <stageParams>
    <boostType>GAB</boostType>
    <minHitRate>9.9500000476837158e-01</minHitRate>
    <maxFalseAlarm>5.0000000000000000e-01</maxFalseAlarm>
    <weightTrimRate>9.4999998807907104e-01</weightTrimRate>
    <maxDepth>1</maxDepth>
    <maxWeakCount>100</maxWeakCount></stageParams>
  <featureParams>
    <maxCatCount>256</maxCatCount>
    <featSize>1</featSize></featureParams>
  <stageNum>11</stageNum>
  <stages>
    <!-- stage 0 -->
    <_>
      <maxWeakCount>3</maxWeakCount>
      <stageThreshold>-1.3208785057067871e+00</stageThreshold>
      <weakClassifiers>
        <_>
          <internalNodes>
            0 -1 11 -1 -524833 -1084227617 -2049 -67273857 -296261
            -1069057 -273</internalNodes>
          <leafValues>
            -9.4382023811340332e-01 5.3012049198150635e-01</leafValues></_>
        <_>
          <internalNodes>
            0 -1 27 1071513087 525988703 -707396097 -10765987 -147457
            -1077945925 -275778561 -1073938433</internalNodes>
          <leafValues>
            -8.1802517175674438e-01 6.8679934740066528e-01</leafValues></_>
        <_>
          <internalNodes>
            0 -1 31 -1612709921 788462591 -538968097 -1073745937
            -1126170627 -1342177345 -939524098 267845111</internalNodes>
          <leafValues>
            -9.1718322038650513e-01 4.4096687436103821e-01</leafValues></_></weakClassifiers></_>
    <!-- stage 1 -->
    <_>
      <maxWeakCount>4</maxWeakCount>
      <stageThreshold>-2.2268869876861572e+00</stageThreshold>
      <weakClassifiers>
        <_>
          <internalNodes>
            0 -1 40 -35651585 -538969601 -745552387 -2116621 -207881217
            -73956181 -20447825 -889192705</internalNodes>
          <leafValues>
            -9.3666338920593262e-01 6.4067798852920532e-01</leafValues></_>
        <_>
          <internalNodes>
            0 -1 1 -848300041 -3684393 -241970753 -10775225 -360322049
            -7356195 -343151625 -8390793</internalNodes>
          <leafValues>
            -8.5169303417205811e-01 4.6737506985664368e-01</leafValues></_>
        <_>
          <internalNodes>
            0 -1 28 -541065218 -196873522 -205122669 -320603057
            -38933964 -1475614069 -505152023 -2139621145</internalNodes>
          <leafValues>
            -8.3341568708419800e-01 4.4479450583457947e-01</leafValues></_>
        <_>
          <internalNodes>
            0 -1 2 -6312020 -11041 -250552933 -33948853 -342694917
            -916297082 -74715905 1409417206</internalNodes>
          <leafValues>
            -9.4881415367126465e-01 3.9488518238067627e-01</leafValues></_></weakClassifiers></_>
    <!-- stage 2 -->
    <_>
      <maxWeakCount>4</maxWeakCount>
      <stageThreshold>-2.1181294918060303e+00</stageThreshold>
      <weakClassifiers>
        <_>
          <internalNodes>
            0 -1 10 -570687489 -141299627 -712510657 -3193889 -74219785
            -4603635 2141674431 -4194309</internalNodes>
          <leafValues>
            -9.4614362716674805e-01 4.7428572177886963e-01</leafValues></_>
        <_>
          <internalNodes>
            0 -1 3 -1192234057 1809480471 2039599581 -4720389 -240432129
            -90373189 1499980531 -180357513</internalNodes>
          <leafValues>
            -9.0504878759384155e-01 3.7053516507148743e-01</leafValues></_>
        <_>
          <internalNodes>
            0 -1 5 -218105857 -1102133378 -519183973 -170930034
            -268182589 -138190590 -266862817 -8948881</internalNodes>
          <leafValues>
            -7.4482840299606323e-01 6.5649902820587158e-01</leafValues></_>
        <_>
          <internalNodes>
            0 -1 34 -304152577 -1348536033 1669362135 198558673
            -477113153 -1145261894 -1729369099 -939525665</internalNodes>
          <leafValues>
            -7.9769259691238403e-01 6.0952860116958618e-01</leafValues></_></weakClassifiers></_>
    <!-- stage 3 -->
    <_>
      <maxWeakCount>4</maxWeakCount>
      <stageThreshold>-2.0092723369598389e+00</stageThreshold>
      <weakClassifiers>
        <_>
          <internalNodes>
            0 -1 15 -513 -797221 -1655840801 -2649505 2072607743
            -72626983 -6554625 -1025</internalNodes>
          <leafValues>
            -9.1913920640945435e-01 4.7766321897506714e-01</leafValues></_>
        <_>
          <internalNodes>
            0 -1 0 -268435713 -171182625 -175646241 -41978921 -84153345
            -605040197 -33554689 -276824153</internalNodes>
          <leafValues>
            -7.7593541145324707e-01 5.6114888191223145e-01</leafValues></_>
        <_>
          <internalNodes>
            0 -1 18 -32897 1574329815 -788049413 532380379 2040756084
            -3471125 2126216190 -1</internalNodes>
          <leafValues>
            -7.6130419969558716e-01 5.0219297409057617e-01</leafValues></_>
        <_>
          <internalNodes>
            0 -1 41 -69249034 -87051625 -265035577 -968894313
            -1725768965 -22814183 -204997633 167762047</internalNodes>
          <leafValues>
            -8.8143408298492432e-01 4.4710651040077209e-01</leafValues></_></weakClassifiers></_>
    <!-- stage 4 -->
    <_>
      <maxWeakCount>4</maxWeakCount>
      <stageThreshold>-1.8158509731292725e+00</stageThreshold>
      <weakClassifiers>
        <_>
          <internalNodes>
            0 -1 38 -1 -1545 -205040705 -537927713 -6291457 -2104389
            -7341061 -553648145</internalNodes>
          <leafValues>
            -9.2816758155822754e-01 3.1623932719230652e-01</leafValues></_>
        <_>
          <internalNodes>
            0 -1 8 -134217761 -49697 -650978305 -8390785 -1356929
            -5282117 1804234461 -5</internalNodes>
          <leafValues>
            -8.2009506225585938e-01 4.3713900446891785e-01</leafValues></_>
        <_>
          <internalNodes>
            0 -1 36 -83927697 -136855041 -271615521 -1073750529
            -67128321 -5851654 -70845574 -634191937</internalNodes>
          <leafValues>
            -6.8830871582031250e-01 5.3447771072387695e-01</leafValues></_>
        <_>
          <internalNodes>
            0 -1 13 -268513345 -1052673 -524289 -41943046 1928265455
            -335560771 -705232898 -143395017</internalNodes>
          <leafValues>
            -6.0206598043441772e-01 6.4301794767379761e-01</leafValues></_></weakClassifiers></_>
    <!-- stage 5 -->
    <_>
      <maxWeakCount>5</maxWeakCount>
      <stageThreshold>-1.7729585170745850e+00</stageThreshold>
      <weakClassifiers>
        <_>
          <internalNodes>
            0 -1 43 -524289 -1610878603 -170527787 -2623689 -2360833
            -350763813 -42468389 -1</internalNodes>
          <leafValues>
            -9.0006488561630249e-01 3.4057971835136414e-01</leafValues></_>
        <_>
          <internalNodes>
            0 -1 42 -86246017 2144853981 -12849153 -262671873 -5669
            -8924865 -8913921 -822083585</internalNodes>
          <leafValues>
            -7.9921126365661621e-01 4.0826520323753357e-01</leafValues></_>
        <_>
          <internalNodes>
            0 -1 20 -8430337 2147447263 -130033153 2144755167 -69386380
            -46661 1596944383 -25264195</internalNodes>
          <leafValues>
            -8.1311511993408203e-01 3.9351052045822144e-01</leafValues></_>
        <_>
          <internalNodes>
            0 -1 21 -6344706 -553806349 -549724161 -71640205 736067567
            -8439105 1871708125 2138406781</internalNodes>
          <leafValues>
            -8.3221644163131714e-01 4.3414959311485291e-01</leafValues></_>
        <_>
          <internalNodes>
            0 -1 17 1803026303 1876940703 -606741025 -2624802
            -1167856641 -7931505 -96471053 1064558935</internalNodes>
          <leafValues>
            -9.0134239196777344e-01 3.6813786625862122e-01</leafValues></_></weakClassifiers></_>
    <!-- stage 6 -->
    <_>
      <maxWeakCount>5</maxWeakCount>
      <stageThreshold>-1.6867039203643799e+00</stageThreshold>
      <weakClassifiers>
        <_>
          <internalNodes>
            0 -1 46 -2081 -1145055537 -250881577 1977612087 -136578821
            -1156349757 -87043153 -37</internalNodes>
          <leafValues>
            -8.9528453350067139e-01 2.5795054435729980e-01</leafValues></_>
        <_>
          <internalNodes>
            0 -1 37 536344511 -4212257 -1650076161 -538969121 -74526721
            -7622998 2076552127 1321205755</internalNodes>
          <leafValues>
            -8.7260276079177856e-01 2.4532294273376465e-01</leafValues></_>
        <_>
          <internalNodes>
            0 -1 6 -1226836033 -397433905 -618409509 -34617393
            2047533007 -275021127 1930552311 -1217043849</internalNodes>
          <leafValues>
            -8.1081908941268921e-01 4.0051144361495972e-01</leafValues></_>
        <_>
          <internalNodes>
            0 -1 9 -23072769 2110678015 -750330370 -573647409 2143910885
            -75267941 1936702457 2147467135</internalNodes>
          <leafValues>
            -7.4312704801559448e-01 4.0917542576789856e-01</leafValues></_>
        <_>
          <internalNodes>
            0 -1 32 -1678049419 -1096896260 -593528389 -1764560042
            -948293515 933988383 793739189 -65539</internalNodes>
          <leafValues>
            -6.8958598375320435e-01 5.1720386743545532e-01</leafValues></_></weakClassifiers></_>
    <!-- stage 7 -->
    <_>
      <maxWeakCount>4</maxWeakCount>
      <stageThreshold>-2.0863747596740723e+00</stageThreshold>
      <weakClassifiers>
        <_>
          <internalNodes>
            0 -1 16 -68158977 -266121 -614769441 -1099681 -1146355777
            -74457653 -39076865 -12600329</internalNodes>
          <leafValues>
            -8.9614629745483398e-01 2.1621622145175934e-01</leafValues></_>
        <_>
          <internalNodes>
            0 -1 33 -1073741857 -1745027116 -1694368289 2113401031
            -1351879942 -1141117793 791399913 -268436033</internalNodes>
          <leafValues>
            -8.2451897859573364e-01 3.0137351155281067e-01</leafValues></_>
        <_>
          <internalNodes>
            0 -1 23 -1440768065 -543171107 1434050047 -2156077 -83239937
            -1885609015 -645338625 82636459</internalNodes>
          <leafValues>
            -8.3877277374267578e-01 3.6663782596588135e-01</leafValues></_>
        <_>
          <internalNodes>
            0 -1 24 -270970881 -17883682 -673219841 2077874047
            -210804872 2077950527 -273711106 -117932072</internalNodes>
          <leafValues>
            -6.8667346239089966e-01 4.7306334972381592e-01</leafValues></_></weakClassifiers></_>
    <!-- stage 8 -->
    <_>
      <maxWeakCount>5</maxWeakCount>
      <stageThreshold>-1.9418814182281494e+00</stageThreshold>
      <weakClassifiers>
        <_>
          <internalNodes>
            0 -1 44 -2049 -1075847209 -149168641 534639583 -743707969
            -10513202 -640951809 -1025</internalNodes>
          <leafValues>
            -9.2561697959899902e-01 -3.5343036055564880e-02</leafValues></_>
        <_>
          <internalNodes>
            0 -1 39 -335806497 -134218753 -651693619 -134369 -1612727393
            1062982575 -17843205 -754991297</internalNodes>
          <leafValues>
            -7.6613634824752808e-01 3.8875016570091248e-01</leafValues></_>
        <_>
          <internalNodes>
            0 -1 19 -350259265 -1443251233 -40040961 2113914879
            -71566593 -108815477 2139548159 1047258738</internalNodes>
          <leafValues>
            -7.6612788438796997e-01 3.6645069718360901e-01</leafValues></_>
        <_>
          <internalNodes>
            0 -1 35 -1092616221 -1361063529 -283783939 526376669
            -40240387 176946171 1978397173 -857809921</internalNodes>
          <leafValues>
            -7.4137777090072632e-01 4.1878998279571533e-01</leafValues></_>
        <_>
          <internalNodes>
            0 -1 25 2111831550 2145244639 -271084065 838424477
            -173302017 2143021217 1149884660 972938127</internalNodes>
          <leafValues>
            -7.9306405782699585e-01 4.1090497374534607e-01</leafValues></_></weakClassifiers></_>
    <!-- stage 9 -->
    <_>
      <maxWeakCount>5</maxWeakCount>
      <stageThreshold>-1.6992541551589966e+00</stageThreshold>
      <weakClassifiers>
        <_>
          <internalNodes>
            0 -1 7 -69207041 -573848369 -741555969 -3278433 -206602305
            -54906229 1536908287 -2097169</internalNodes>
          <leafValues>
            -9.0039843320846558e-01 9.2485547065734863e-02</leafValues></_>
        <_>
          <internalNodes>
            0 -1 12 -549455745 -7605281 -610152289 -552080457 -73673729
            -24663633 -5243905 -1082166285</internalNodes>
          <leafValues>
            -7.4989944696426392e-01 3.6186057329177856e-01</leafValues></_>
        <_>
          <internalNodes>
            0 -1 29 -1409515659 -337641507 -1300589571 -1096814184
            -74908041 -89095667 -74973196 -1778600876</internalNodes>
          <leafValues>
            -7.8013485670089722e-01 3.6066660284996033e-01</leafValues></_>
        <_>
          <internalNodes>
            0 -1 14 2130706365 -1082466 -787350561 -2100775 -70291785
            1856602779 2073919197 2147382260</internalNodes>
          <leafValues>
            -8.5115939378738403e-01 3.4881260991096497e-01</leafValues></_>
        <_>
          <internalNodes>
            0 -1 30 -1348718603 -203496488 -1862190625 -52633156
            1885592428 1770996811 -628162631 -51103076</internalNodes>
          <leafValues>
            -6.9752848148345947e-01 4.7057798504829407e-01</leafValues></_></weakClassifiers></_>
    <!-- stage 10 -->
    <_>
      <maxWeakCount>5</maxWeakCount>
      <stageThreshold>-1.7979964017868042e+00</stageThreshold>
      <weakClassifiers>
        <_>
          <internalNodes>
            0 -1 7 -69207041 -37487649 -240526849 -637667333 -338790465
            -65322609 1574952959 -1</internalNodes>
          <leafValues>
            -8.8925081491470337e-01 1.7361110448837280e-01</leafValues></_>
        <_>
          <internalNodes>
            0 -1 45 1709172605 -603979809 -742276165 -10495137
            -1214782465 -106789637 -607125537 1526660095</internalNodes>
          <leafValues>
            -8.7733167409896851e-01 9.6088536083698273e-02</leafValues></_>
        <_>
          <internalNodes>
            0 -1 22 -805378071 -576269838 -235676165 -2370603
            -1441203714 -826633574 1267305431 -964737561</internalNodes>
          <leafValues>
            -6.7206686735153198e-01 4.4452267885208130e-01</leafValues></_>
        <_>
          <internalNodes>
            0 -1 4 121568767 -310386345 -754462241 -74785 2076841981
            -104078657 -69340289 2139027319</internalNodes>
          <leafValues>
            -8.0669248104095459e-01 3.7406566739082336e-01</leafValues></_>
        <_>
          <internalNodes>
            0 -1 26 -1090887 -1722937045 -586001505 -71631466 -414263840
            -234880838 1942114924 -277187816</internalNodes>
          <leafValues>
            -6.4266431331634521e-01 4.9270072579383850e-01</leafValues></_></weakClassifiers></_></stages>
  <features>
    <_>
      <rect>
        0 0 2 2</rect></_>
    <_>
      <rect>
        0 0 3 2</rect></_>
    <_>
      <rect>
        0 0 8 3</rect></_>
    <_>
      <rect>
        0 2 2 2</rect></_>
    <_>
      <rect>
        0 3 1 2</rect></_>
    <_>
      <rect>
        0 3 3 6</rect></_>
    <_>
      <rect>
        0 4 2 2</rect></_>
    <_>
      <rect>
        0 14 1 2</rect></_>
    <_>
      <rect>
        0 15 2 3</rect></_>
    <_>
      <rect>
        0 18 1 2</rect></_>
    <_>
      <rect>
        0 18 2 2</rect></_>
    <_>
      <rect>
        0 18 3 2</rect></_>
    <_>
      <rect>
        1 0 2 2</rect></_>
    <_>
      <rect>
        1 1 3 5</rect></_>
    <_>
      <rect>
        1 21 1 1</rect></_>
    <_>
      <rect>
        1 21 5 1</rect></_>
    <_>
      <rect>
        2 0 2 1</rect></_>
    <_>
      <rect>
        2 1 1 1</rect></_>
    <_>
      <rect>
        2 15 2 3</rect></_>
    <_>
      <rect>
        3 0 2 1</rect></_>
    <_>
      <rect>
        3 18 2 2</rect></_>
    <_>
      <rect>
        3 21 4 1</rect></_>
    <_>
      <rect>
        4 2 2 1</rect></_>
    <_>
      <rect>
        5 0 6 1</rect></_>
    <_>
      <rect>
        6 18 1 1</rect></_>
    <_>
      <rect>
        6 21 5 1</rect></_>
    <_>
      <rect>
        7 19 1 1</rect></_>
    <_>
      <rect>
        8 21 5 1</rect></_>
    <_>
      <rect>
        12 2 4 6</rect></_>
    <_>
      <rect>
        12 13 1 1</rect></_>
    <_>
      <rect>
        12 14 1 1</rect></_>
    <_>
      <rect>
        12 15 4 3</rect></_>
    <_>
      <rect>
        15 6 1 1</rect></_>
    <_>
      <rect>
        15 18 2 2</rect></_>
    <_>
      <rect>
        15 18 3 2</rect></_>
    <_>
      <rect>
        15 19 2 1</rect></_>
    <_>
      <rect>
        16 0 2 2</rect></_>
    <_>
      <rect>
        17 0 2 1</rect></_>
    <_>
      <rect>
        18 0 2 2</rect></_>
    <_>
      <rect>
        18 0 2 3</rect></_>
    <_>
      <rect>
        18 1 2 2</rect></_>
    <_>
      <rect>
        18 1 2 7</rect></_>
    <_>
      <rect>
        18 2 2 2</rect></_>
    <_>
      <rect>
        18 15 2 3</rect></_>
    <_>
      <rect>
        18 18 2 2</rect></_>
    <_>
      <rect>
        21 3 1 2</rect></_>
    <_>
      <rect>
        21 15 1 2</rect></_></features></cascade>
</opencv_storage>
