<?xml version="1.0"?>
<opencv_storage>
<cascade>
  <stageType>BOOST</stageType>
  <featureType>LBP</featureType>
  <height>64</height>
  <width>64</width>
  <stageParams>
    <boostType>GAB</boostType>
    <minHitRate>9.9500000476837158e-01</minHitRate>
    <maxFalseAlarm>5.0000000000000000e-01</maxFalseAlarm>
    <weightTrimRate>9.4999998807907104e-01</weightTrimRate>
    <maxDepth>1</maxDepth>
    <maxWeakCount>100</maxWeakCount></stageParams>
  <featureParams>
    <maxCatCount>256</maxCatCount>
    <featSize>1</featSize></featureParams>
  <stageNum>20</stageNum>
  <stages>
    <!-- stage 0 -->
    <_>
      <maxWeakCount>5</maxWeakCount>
      <stageThreshold>-1.2821489572525024e+00</stageThreshold>
      <weakClassifiers>
        <_>
          <internalNodes>
            0 -1 12 -3278882 -2108965 318800284 -15863330 -397804865
            -16015160 2077227770 2078257919</internalNodes>
          <leafValues>
            -8.3216303586959839e-01 2.1613486111164093e-01</leafValues></_>
        <_>
          <internalNodes>
            0 -1 37 -102892658 -573619758 822129629 -136972193
            -1668547890 -1157037686 -1156908053 1532857039</internalNodes>
          <leafValues>
            -6.1308068037033081e-01 4.2827898263931274e-01</leafValues></_>
        <_>
          <internalNodes>
            0 -1 142 804732731 -1350925445 1465646587 -223430666
            -2406572 -91563853 -620867083 -16976396</internalNodes>
          <leafValues>
            -6.4518433809280396e-01 4.0390333533287048e-01</leafValues></_>
        <_>
          <internalNodes>
            0 -1 189 732898607 783544779 -104206153 -16846242 2044682615
            -11687573 -822093580 -319751756</internalNodes>
          <leafValues>
            -6.9154149293899536e-01 3.5536623001098633e-01</leafValues></_>
        <_>
          <internalNodes>
            0 -1 150 -1372121291 -1354067619 -709689355 -94578429
            -93881739 -68564481 -3294220 -356583052</internalNodes>
          <leafValues>
            -5.5171400308609009e-01 4.5291286706924438e-01</leafValues></_></weakClassifiers></_>
    <!-- stage 1 -->
    <_>
      <maxWeakCount>7</maxWeakCount>
      <stageThreshold>-1.4140459299087524e+00</stageThreshold>
      <weakClassifiers>
        <_>
          <internalNodes>
            0 -1 44 -2098177 -2721825 -789160993 -11994406 -3375873
            -27386341 -90178561 -9438337</internalNodes>
          <leafValues>
            -7.3107939958572388e-01 2.0342205464839935e-01</leafValues></_>
        <_>
          <internalNodes>
            0 -1 35 -134905718 -3161521 1469421143 -169871377 -622870529
            -1685330829 -740557873 2011036623</internalNodes>
          <leafValues>
            -5.8913898468017578e-01 3.1620666384696960e-01</leafValues></_>
        <_>
          <internalNodes>
            0 -1 166 805248383 639268861 1196187599 -1101338753
            -1925227649 -1682194689 -20979723 -17498124</internalNodes>
          <leafValues>
            -5.9151303768157959e-01 3.1689614057540894e-01</leafValues></_>
        <_>
          <internalNodes>
            0 -1 138 804203127 -1417743369 -80284713 -53020675
            -539669641 -2178113 -822362379 -17631244</internalNodes>
          <leafValues>
            -5.3546792268753052e-01 3.6500984430313110e-01</leafValues></_>
        <_>
          <internalNodes>
            0 -1 210 -1430552777 -1342193237 -1043110541 -285551621
            670728053 -1148473653 -859832332 -16780831</internalNodes>
          <leafValues>
            -4.4372528791427612e-01 4.2864874005317688e-01</leafValues></_>
        <_>
          <internalNodes>
            0 -1 52 -333254918 -547888686 382002649 1975870188 459913451
            -1696124725 -827880997 1599542499</internalNodes>
          <leafValues>
            -5.1262623071670532e-01 3.7394613027572632e-01</leafValues></_>
        <_>
          <internalNodes>
            0 -1 181 788475687 -1357203595 -1324509257 -394337882
            2074049369 2141971647 -1112662284 -318971596</internalNodes>
          <leafValues>
            -6.7478704452514648e-01 2.8526899218559265e-01</leafValues></_></weakClassifiers></_>
    <!-- stage 2 -->
    <_>
      <maxWeakCount>6</maxWeakCount>
      <stageThreshold>-1.8948049545288086e+00</stageThreshold>
      <weakClassifiers>
        <_>
          <internalNodes>
            0 -1 104 -1342177281 -1342703617 -35659777 -16779271 -1
            -4199813 -134480393 -139</internalNodes>
          <leafValues>
            -7.5708639621734619e-01 -5.5390112102031708e-02</leafValues></_>
        <_>
          <internalNodes>
            0 -1 41 2136989694 -671237794 264159218 -70256898 -6506002
            1066262782 -2064846854 2145383166</internalNodes>
          <leafValues>
            -5.7549983263015747e-01 2.6932021975517273e-01</leafValues></_>
        <_>
          <internalNodes>
            0 -1 120 268119919 788329471 -274735171 -1405427764
            -67150977 2146951935 -18318987 -320799308</internalNodes>
          <leafValues>
            -7.1758073568344116e-01 2.5057938694953918e-01</leafValues></_>
        <_>
          <internalNodes>
            0 -1 224 -1409319113 -1361379333 -173023233 -1364541537
            -1073792137 1874586591 -69239004 -419496971</internalNodes>
          <leafValues>
            -5.7400459051132202e-01 3.0648720264434814e-01</leafValues></_>
        <_>
          <internalNodes>
            0 -1 130 668409647 683569495 -442005089 -1426697782
            1928293741 -84209223 -1477747884 -318996636</internalNodes>
          <leafValues>
            -6.8963962793350220e-01 2.6074755191802979e-01</leafValues></_>
        <_>
          <internalNodes>
            0 -1 174 -791943424 2141008663 -549726753 541714415
            -914669312 -538318655 -30475954 -2136999049</internalNodes>
          <leafValues>
            -4.9954107403755188e-01 3.1239917874336243e-01</leafValues></_></weakClassifiers></_>
    <!-- stage 3 -->
    <_>
      <maxWeakCount>8</maxWeakCount>
      <stageThreshold>-1.5750857591629028e+00</stageThreshold>
      <weakClassifiers>
        <_>
          <internalNodes>
            0 -1 139 -134217731 -1277309443 2146899965 -1107320867
            -1092878340 -1443898371 -1316213508 -1073741827</internalNodes>
          <leafValues>
            -7.5628226995468140e-01 -6.2721893191337585e-02</leafValues></_>
        <_>
          <internalNodes>
            0 -1 54 1604319182 -539010133 1970056156 -843596077 -2097761
            534392347 -1736589553 1935651567</internalNodes>
          <leafValues>
            -5.7529759407043457e-01 2.1642960608005524e-01</leafValues></_>
        <_>
          <internalNodes>
            0 -1 251 264077055 -268835893 -681773057 651942335
            1539963775 -68255333 -154404045 150240757</internalNodes>
          <leafValues>
            -7.0963752269744873e-01 1.8376897275447845e-01</leafValues></_>
        <_>
          <internalNodes>
            0 -1 149 -545570812 1502206769 -246155393 824128979
            -826293012 -4404769 -1626749976 -2110534641</internalNodes>
          <leafValues>
            -4.1131213307380676e-01 3.6174866557121277e-01</leafValues></_>
        <_>
          <internalNodes>
            0 -1 50 -1029815634 -1125077442 -1903545636 1852450312
            1920812793 1587751196 1926659448 2004188682</internalNodes>
          <leafValues>
            -5.9286791086196899e-01 2.1471457183361053e-01</leafValues></_>
        <_>
          <internalNodes>
            0 -1 169 793192243 182424407 -741082657 -1399170610
            1479241015 -1088724861 -627315931 -189468972</internalNodes>
          <leafValues>
            -6.4709168672561646e-01 1.8596465885639191e-01</leafValues></_>
        <_>
          <internalNodes>
            0 -1 74 -264437632 -1107581665 -615686721 -581594934
            -161532449 1966575995 -539111635 73501710</internalNodes>
          <leafValues>
            -5.4674315452575684e-01 2.2319687902927399e-01</leafValues></_>
        <_>
          <internalNodes>
            0 -1 182 -307036239 60582388 -140307947 -820021363 503229933
            -1935477235 333518196 -906153515</internalNodes>
          <leafValues>
            -4.3136119842529297e-01 2.9489684104919434e-01</leafValues></_></weakClassifiers></_>
    <!-- stage 4 -->
    <_>
      <maxWeakCount>8</maxWeakCount>
      <stageThreshold>-1.4880818128585815e+00</stageThreshold>
      <weakClassifiers>
        <_>
          <internalNodes>
            0 -1 136 -101450401 -536065 -585763333 -69206081 -7341089
            -72352801 -87293953 -85988069</internalNodes>
          <leafValues>
            -7.0252972841262817e-01 1.1727079004049301e-01</leafValues></_>
        <_>
          <internalNodes>
            0 -1 137 -546316496 389396405 1915736925 1063123863
            -37888068 -1093796883 651987384 476817599</internalNodes>
          <leafValues>
            -5.8702695369720459e-01 1.6846138238906860e-01</leafValues></_>
        <_>
          <internalNodes>
            0 -1 33 467500925 794818007 1213938551 -272375810 -102941891
            -67109669 1535113559 1820127093</internalNodes>
          <leafValues>
            -6.8003648519515991e-01 1.8868987262248993e-01</leafValues></_>
        <_>
          <internalNodes>
            0 -1 40 -159388929 -1091129383 446313518 -1292722542
            1647332989 1060383024 709586303 -28704773</internalNodes>
          <leafValues>
            -3.7234395742416382e-01 3.8511532545089722e-01</leafValues></_>
        <_>
          <internalNodes>
            0 -1 103 1324297583 -1369775629 -901974561 -27610657
            -607579533 -1679056766 -1219638476 -17400972</internalNodes>
          <leafValues>
            -5.0013500452041626e-01 2.9623308777809143e-01</leafValues></_>
        <_>
          <internalNodes>
            0 -1 232 519928829 -1344286116 -1618486785 242285898
            2110340059 -14710391 -69469341 1609629669</internalNodes>
          <leafValues>
            -6.0672456026077271e-01 2.0601713657379150e-01</leafValues></_>
        <_>
          <internalNodes>
            0 -1 53 -2136801913 -76611647 -356059497 -538212718
            1272967666 -885552913 1091000037 -2138226572</internalNodes>
          <leafValues>
            -4.4442567229270935e-01 2.9662147164344788e-01</leafValues></_>
        <_>
          <internalNodes>
            0 -1 171 778702653 10219983 1252512094 -286862060 847990396
            -6578133 -609523088 -323684972</internalNodes>
          <leafValues>
            -7.0050466060638428e-01 1.8208985030651093e-01</leafValues></_></weakClassifiers></_>
    <!-- stage 5 -->
    <_>
      <maxWeakCount>9</maxWeakCount>
      <stageThreshold>-1.8946671485900879e+00</stageThreshold>
      <weakClassifiers>
        <_>
          <internalNodes>
            0 -1 26 -524289 -680969 -100787721 -1078415077 -112698369
            -67407755 -163742721 -525441</internalNodes>
          <leafValues>
            -7.1783041954040527e-01 1.0717229917645454e-02</leafValues></_>
        <_>
          <internalNodes>
            0 -1 57 -460338449 -1565727146 -1063664104 -269575546
            1163338667 -1694623559 1411343383 1160245815</internalNodes>
          <leafValues>
            -5.5373221635818481e-01 1.8655453622341156e-01</leafValues></_>
        <_>
          <internalNodes>
            0 -1 93 -1384698057 -1936795717 -510932993 -288950866
            -583065729 1977338419 -270831244 -189283356</internalNodes>
          <leafValues>
            -5.2908754348754883e-01 2.4058058857917786e-01</leafValues></_>
        <_>
          <internalNodes>
            0 -1 141 262094715 771487387 -179056899 -32056482 -879273378
            -70395719 -886310027 -21698572</internalNodes>
          <leafValues>
            -5.3254288434982300e-01 2.3149773478507996e-01</leafValues></_>
        <_>
          <internalNodes>
            0 -1 148 -397024752 364607239 2004048271 825735678
            -507405948 -1080165733 -2117084756 269145387</internalNodes>
          <leafValues>
            -4.9128100275993347e-01 2.8778991103172302e-01</leafValues></_>
        <_>
          <internalNodes>
            0 -1 129 1072557824 401733429 589248436 702132524
            -1108738308 612946397 1022034936 1023393790</internalNodes>
          <leafValues>
            -5.4225212335586548e-01 2.1485796570777893e-01</leafValues></_>
        <_>
          <internalNodes>
            0 -1 135 782183807 647608153 -586091204 -59477810 -216302721
            -203714353 -1315710697 -289866348</internalNodes>
          <leafValues>
            -5.5995029211044312e-01 2.2280809283256531e-01</leafValues></_>
        <_>
          <internalNodes>
            0 -1 9 1912449670 1526159070 872995360 2005465586
            -1155857938 527253545 1360920133 1976036042</internalNodes>
          <leafValues>
            -6.2599903345108032e-01 1.9377052783966064e-01</leafValues></_>
        <_>
          <internalNodes>
            0 -1 211 133904247 -1501670946 -518659841 1289392627
            667891191 1066055821 -16780347 -50439468</internalNodes>
          <leafValues>
            -4.8070049285888672e-01 2.5823026895523071e-01</leafValues></_></weakClassifiers></_>
    <!-- stage 6 -->
    <_>
      <maxWeakCount>10</maxWeakCount>
      <stageThreshold>-1.7583508491516113e+00</stageThreshold>
      <weakClassifiers>
        <_>
          <internalNodes>
            0 -1 113 -193465569 -36211233 -583041217 -1616916641
            -604112897 -67129441 -8652805 -1427124433</internalNodes>
          <leafValues>
            -7.2460806369781494e-01 -1.5196079015731812e-01</leafValues></_>
        <_>
          <internalNodes>
            0 -1 0 968128511 1071640927 -780931585 -1367476385
            2061311871 -1614298481 1912150369 1820131325</internalNodes>
          <leafValues>
            -6.8744099140167236e-01 5.2513461560010910e-02</leafValues></_>
        <_>
          <internalNodes>
            0 -1 61 2146357214 1610108634 658769338 -1142673694
            827338750 1542749135 2080257786 2134798322</internalNodes>
          <leafValues>
            -5.1054739952087402e-01 2.0056997239589691e-01</leafValues></_>
        <_>
          <internalNodes>
            0 -1 193 -1881863347 778007287 -183250441 -562115777
            -1684443371 2050724015 -2433610 -16973952</internalNodes>
          <leafValues>
            -4.4324818253517151e-01 2.7898821234703064e-01</leafValues></_>
        <_>
          <internalNodes>
            0 -1 110 -1430319205 -1521069986 -124661289 -153332775
            915608951 -1148991060 -809537167 -189502860</internalNodes>
          <leafValues>
            -5.0906163454055786e-01 1.9801786541938782e-01</leafValues></_>
        <_>
          <internalNodes>
            0 -1 192 -201998079 1025073471 -196179608 39636771
            1866162004 1965639806 -150029860 -1063925909</internalNodes>
          <leafValues>
            -4.3021908402442932e-01 2.4484710395336151e-01</leafValues></_>
        <_>
          <internalNodes>
            0 -1 5 -423186726 -1304024430 -1412571169 -573102582
            532123823 -746104369 681998397 242686071</internalNodes>
          <leafValues>
            -4.7648379206657410e-01 2.2498799860477448e-01</leafValues></_>
        <_>
          <internalNodes>
            0 -1 246 230977405 -321457733 -779585601 114741727 603537393
            -67469165 -70296585 509882737</internalNodes>
          <leafValues>
            -6.2305217981338501e-01 1.6150709986686707e-01</leafValues></_>
        <_>
          <internalNodes>
            0 -1 207 666641189 -1387429437 -779749930 -18951735
            870531955 -359415585 -822225420 -287617035</internalNodes>
          <leafValues>
            -4.4314247369766235e-01 2.2526144981384277e-01</leafValues></_>
        <_>
          <internalNodes>
            0 -1 56 1113908782 -1465989017 -1219774227 1363467492
            101169007 -8218313 110873582 1158762519</internalNodes>
          <leafValues>
            -5.2974396944046021e-01 1.8840126693248749e-01</leafValues></_></weakClassifiers></_>
    <!-- stage 7 -->
    <_>
      <maxWeakCount>11</maxWeakCount>
      <stageThreshold>-1.6948243379592896e+00</stageThreshold>
      <weakClassifiers>
        <_>
          <internalNodes>
            0 -1 34 -857483273 -2894881 -12669985 -537004545 -578864129
            -4207623 -285242117 -303077597</internalNodes>
          <leafValues>
            -7.1239835023880005e-01 -1.8421052396297455e-01</leafValues></_>
        <_>
          <internalNodes>
            0 -1 238 217341917 -134232737 -15207937 248927175 600076261
            -74729297 -83757057 804540277</internalNodes>
          <leafValues>
            -5.7744532823562622e-01 8.9972130954265594e-02</leafValues></_>
        <_>
          <internalNodes>
            0 -1 83 2069684222 2145317270 -1086713858 959004616
            1940847036 1626116016 266288810 2146418642</internalNodes>
          <leafValues>
            -4.1239878535270691e-01 2.3594698309898376e-01</leafValues></_>
        <_>
          <internalNodes>
            0 -1 180 803023923 -1422073769 -724331589 -388302346
            1522630186 556516483 -122238476 -55253051</internalNodes>
          <leafValues>
            -5.2630072832107544e-01 2.2558687627315521e-01</leafValues></_>
        <_>
          <internalNodes>
            0 -1 215 -805580929 -407257089 -83890193 -27004929 -62379
            1878392701 -16994348 -50405381</internalNodes>
          <leafValues>
            -3.0173775553703308e-01 3.3824968338012695e-01</leafValues></_>
        <_>
          <internalNodes>
            0 -1 248 644642815 -2210217 1360174047 -1390748739
            2064603903 -83383111 1602781167 804585205</internalNodes>
          <leafValues>
            -4.4808205962181091e-01 2.3007944226264954e-01</leafValues></_>
        <_>
          <internalNodes>
            0 -1 188 2140922369 -1243106789 -2011436928 223061682
            -1493056112 30114579 -1081202432 135251579</internalNodes>
          <leafValues>
            -4.4953608512878418e-01 2.3445653915405273e-01</leafValues></_>
        <_>
          <internalNodes>
            0 -1 162 148637557 792641759 -510874401 -20003121 2044950588
            1894170779 -415520459 -1160349324</internalNodes>
          <leafValues>
            -5.0414103269577026e-01 1.9343993067741394e-01</leafValues></_>
        <_>
          <internalNodes>
            0 -1 78 -826741026 1603851862 -48080298 321917742 356522172
            1582435843 719378666 -76382853</internalNodes>
          <leafValues>
            -3.9709386229515076e-01 2.3454852402210236e-01</leafValues></_>
        <_>
          <internalNodes>
            0 -1 145 -886051149 1006632827 -16796867 -1578047492
            1879029692 2021046239 375124376 1130821163</internalNodes>
          <leafValues>
            -3.1191000342369080e-01 3.2363814115524292e-01</leafValues></_>
        <_>
          <internalNodes>
            0 -1 100 -1344363161 716796343 -1056860774 -221064966
            839465850 -813071990 -795106827 -453987659</internalNodes>
          <leafValues>
            -4.3001276254653931e-01 2.1711067855358124e-01</leafValues></_></weakClassifiers></_>
    <!-- stage 8 -->
    <_>
      <maxWeakCount>14</maxWeakCount>
      <stageThreshold>-1.6804289817810059e+00</stageThreshold>
      <weakClassifiers>
        <_>
          <internalNodes>
            0 -1 3 -930427145 -537667137 -685805569 -9061665 -482651157
            -86017284 -91488257 -410565597</internalNodes>
          <leafValues>
            -7.3743230104446411e-01 -2.9467353224754333e-01</leafValues></_>
        <_>
          <internalNodes>
            0 -1 212 -1344292937 -1382889546 1342255581 -2106473
            1944058607 -6562900 -509873163 -67110923</internalNodes>
          <leafValues>
            -3.6395534873008728e-01 2.4625907838344574e-01</leafValues></_>
        <_>
          <internalNodes>
            0 -1 111 -750930948 831323844 109756108 492544793 1071177208
            485914108 -1210826900 786137003</internalNodes>
          <leafValues>
            -3.9489626884460449e-01 2.2932283580303192e-01</leafValues></_>
        <_>
          <internalNodes>
            0 -1 236 796680183 1587340763 1373986751 240448989 50928167
            -139466599 -546713665 246442453</internalNodes>
          <leafValues>
            -5.4760444164276123e-01 1.6002167761325836e-01</leafValues></_>
        <_>
          <internalNodes>
            0 -1 202 781597955 -1374711523 -2133657648 -392242730
            143348243 1334026251 -5257483 -453329936</internalNodes>
          <leafValues>
            -4.8873379826545715e-01 1.9334997236728668e-01</leafValues></_>
        <_>
          <internalNodes>
            0 -1 205 1541920259 1908931847 1530937290 4425165 -228310972
            -1974034 -73022882 1088911423</internalNodes>
          <leafValues>
            -3.7658557295799255e-01 2.3799087107181549e-01</leafValues></_>
        <_>
          <internalNodes>
            0 -1 115 -1400346859 -1485782713 -677792073 -27354156
            -475304089 1539250859 -895696399 -1532068524</internalNodes>
          <leafValues>
            -4.4481512904167175e-01 1.9065290689468384e-01</leafValues></_>
        <_>
          <internalNodes>
            0 -1 51 -1665757964 2106855156 938425295 -1251975299
            -1376425802 -52070556 1060518703 -1684795779</internalNodes>
          <leafValues>
            -2.7411618828773499e-01 3.3772391080856323e-01</leafValues></_>
        <_>
          <internalNodes>
            0 -1 48 1109831598 1569097824 -154959139 -942353522
            635314991 -2187105 1427333471 -457706430</internalNodes>
          <leafValues>
            -3.7829059362411499e-01 2.3160767555236816e-01</leafValues></_>
        <_>
          <internalNodes>
            0 -1 128 733820783 -1345596086 -1046949409 -153300410
            964918086 1796964362 471558245 -386883148</internalNodes>
          <leafValues>
            -5.5224025249481201e-01 1.5812362730503082e-01</leafValues></_>
        <_>
          <internalNodes>
            0 -1 159 -803798528 1532949887 1563091735 814003181 -1280834
            2132875979 -615728532 8431387</internalNodes>
          <leafValues>
            -5.3341954946517944e-01 1.5687058866024017e-01</leafValues></_>
        <_>
          <internalNodes>
            0 -1 24 -655032971 1014316925 -1073745985 -1082558747
            -1359029131 -536870913 -1359160971 -1086357635</internalNodes>
          <leafValues>
            -2.8008043766021729e-01 3.2364094257354736e-01</leafValues></_>
        <_>
          <internalNodes>
            0 -1 98 -1359007889 -1399631471 -237882926 -1090630882
            -571923638 2131984409 -185676750 -360776724</internalNodes>
          <leafValues>
            -4.1879451274871826e-01 2.2005715966224670e-01</leafValues></_>
        <_>
          <internalNodes>
            0 -1 87 156042894 534175540 536713198 1049928698 1436213758
            203306142 197122188 1095880704</internalNodes>
          <leafValues>
            -6.0544341802597046e-01 1.5020273625850677e-01</leafValues></_></weakClassifiers></_>
    <!-- stage 9 -->
    <_>
      <maxWeakCount>13</maxWeakCount>
      <stageThreshold>-1.5749642848968506e+00</stageThreshold>
      <weakClassifiers>
        <_>
          <internalNodes>
            0 -1 70 -50336049 1449456411 -1060937681 -691870714
            -103843841 1897537667 2015727150 -82839761</internalNodes>
          <leafValues>
            -7.1854305267333984e-01 -2.8779068589210510e-01</leafValues></_>
        <_>
          <internalNodes>
            0 -1 30 956069749 534282239 -132810785 2108273477 -73799305
            -124812837 -607798475 739793469</internalNodes>
          <leafValues>
            -5.9863448143005371e-01 5.4677207022905350e-02</leafValues></_>
        <_>
          <internalNodes>
            0 -1 235 248840189 -1678313143 -786957366 190589335
            2143312881 -1224113509 -77336306 729038763</internalNodes>
          <leafValues>
            -4.4802957773208618e-01 1.7036193609237671e-01</leafValues></_>
        <_>
          <internalNodes>
            0 -1 216 -11172576 667780998 -312405852 700515671 1094715104
            21312007 1201758612 1423819911</internalNodes>
          <leafValues>
            -4.3105521798133850e-01 2.1740628778934479e-01</leafValues></_>
        <_>
          <internalNodes>
            0 -1 201 -420712611 -50626627 -72065 -1095434241 -975214795
            -1 -1107427588 -222642178</internalNodes>
          <leafValues>
            -2.8076675534248352e-01 3.0524584650993347e-01</leafValues></_>
        <_>
          <internalNodes>
            0 -1 45 1939668188 1430004876 520204840 401975859 -415188262
            823204074 -1081296113 388832270</internalNodes>
          <leafValues>
            -2.8691092133522034e-01 3.0180305242538452e-01</leafValues></_>
        <_>
          <internalNodes>
            0 -1 15 649079918 1591533764 660344242 -1653724318 148559101
            1222847061 -828489806 2132246385</internalNodes>
          <leafValues>
            -5.4272109270095825e-01 1.4813327789306641e-01</leafValues></_>
        <_>
          <internalNodes>
            0 -1 157 -1409598667 -1396715113 -176109541 -958497842
            -893813898 -477658942 -1294702091 -70230044</internalNodes>
          <leafValues>
            -4.4172033667564392e-01 1.8908534944057465e-01</leafValues></_>
        <_>
          <internalNodes>
            0 -1 156 2079307170 1045556490 2101205657 725243159
            -683004256 584288587 980368410 1347411526</internalNodes>
          <leafValues>
            -3.7968069314956665e-01 2.1182923018932343e-01</leafValues></_>
        <_>
          <internalNodes>
            0 -1 126 -358374765 -169181320 1946021815 1936653244
            266780138 -895508692 1073661372 -1055265794</internalNodes>
          <leafValues>
            -2.5812369585037231e-01 3.3769115805625916e-01</leafValues></_>
        <_>
          <internalNodes>
            0 -1 249 779384821 -1231452017 -754757177 264372879
            1512599031 -71056757 -1425310725 783318003</internalNodes>
          <leafValues>
            -4.7005015611648560e-01 1.9400021433830261e-01</leafValues></_>
        <_>
          <internalNodes>
            0 -1 85 -532116826 -75427378 421131636 -1275602473
            1267278757 -321132341 -1559672851 1147470117</internalNodes>
          <leafValues>
            -4.5518803596496582e-01 1.8000029027462006e-01</leafValues></_>
        <_>
          <internalNodes>
            0 -1 109 2111781291 936366591 1954800426 -2038296170
            195980219 1609214114 -57995172 -1766577964</internalNodes>
          <leafValues>
            -3.7023755908012390e-01 2.3022504150867462e-01</leafValues></_></weakClassifiers></_>
    <!-- stage 10 -->
    <_>
      <maxWeakCount>14</maxWeakCount>
      <stageThreshold>-1.6648106575012207e+00</stageThreshold>
      <weakClassifiers>
        <_>
          <internalNodes>
            0 -1 124 1056987635 -44318383 -1994975779 1598641549
            -1968527173 -5566326 -1355502594 -1433778164</internalNodes>
          <leafValues>
            -6.7285096645355225e-01 -1.4341084659099579e-01</leafValues></_>
        <_>
          <internalNodes>
            0 -1 31 981237565 1030844893 -648676993 769120231
            -1680623559 -72641909 1843747701 204240757</internalNodes>
          <leafValues>
            -6.5679681301116943e-01 2.1048020571470261e-02</leafValues></_>
        <_>
          <internalNodes>
            0 -1 234 80773093 1534579667 -640558081 785933663 1841330805
            -71415541 -1148617097 259021749</internalNodes>
          <leafValues>
            -6.1711102724075317e-01 1.0541985183954239e-01</leafValues></_>
        <_>
          <internalNodes>
            0 -1 198 -1506400475 547238320 -654058287 -497893034
            1607455079 2078507691 -930902539 -1258392587</internalNodes>
          <leafValues>
            -4.4141593575477600e-01 1.7278322577476501e-01</leafValues></_>
        <_>
          <internalNodes>
            0 -1 71 -490092980 306999572 539518996 982300930 2048057629
            2001799693 1038384591 1378837883</internalNodes>
          <leafValues>
            -4.0686067938804626e-01 2.0951455831527710e-01</leafValues></_>
        <_>
          <internalNodes>
            0 -1 47 335807124 -772536823 -850130967 -1216258801
            -1659367540 -721304561 973998634 17591351</internalNodes>
          <leafValues>
            -3.0974712967872620e-01 2.5262206792831421e-01</leafValues></_>
        <_>
          <internalNodes>
            0 -1 240 139788287 -185443875 -469115937 -1881270069
            1515482105 -90074199 -351474753 -1078715437</internalNodes>
          <leafValues>
            -2.6840859651565552e-01 3.0277842283248901e-01</leafValues></_>
        <_>
          <internalNodes>
            0 -1 114 110854194 -1148529543 -754796108 -1115301125
            857301945 -133041747 -1416990233 1127588927</internalNodes>
          <leafValues>
            -3.9035335183143616e-01 2.1473829448223114e-01</leafValues></_>
        <_>
          <internalNodes>
            0 -1 163 -803020975 1894906622 2141913082 -1452040193
            -42084707 -176325636 -411322787 -364274673</internalNodes>
          <leafValues>
            -2.5594529509544373e-01 3.0554261803627014e-01</leafValues></_>
        <_>
          <internalNodes>
            0 -1 184 800011299 53891483 -788463250 -1432829580 465767013
            1786939785 -1983197422 -1275010636</internalNodes>
          <leafValues>
            -6.0948687791824341e-01 1.3198627531528473e-01</leafValues></_>
        <_>
          <internalNodes>
            0 -1 49 150334476 738206124 -854250462 -912331452 1613171084
            -1242412229 1614768455 649323270</internalNodes>
          <leafValues>
            -5.3253191709518433e-01 1.3717973232269287e-01</leafValues></_>
        <_>
          <internalNodes>
            0 -1 68 1354862800 -139982100 -405595641 -604651062
            2017470453 1193404472 964672363 1572481571</internalNodes>
          <leafValues>
            -2.7595010399818420e-01 2.9150411486625671e-01</leafValues></_>
        <_>
          <internalNodes>
            0 -1 151 501212048 218699308 2002050353 2146604215
            -1202309448 -2097995091 -1392005072 212487148</internalNodes>
          <leafValues>
            -5.2797216176986694e-01 1.5205086767673492e-01</leafValues></_>
        <_>
          <internalNodes>
            0 -1 82 -1490033033 -79917746 1527990512 -711559392 27972030
            151619013 1908503408 1366684030</internalNodes>
          <leafValues>
            -3.0420646071434021e-01 2.7792808413505554e-01</leafValues></_></weakClassifiers></_>
    <!-- stage 11 -->
    <_>
      <maxWeakCount>14</maxWeakCount>
      <stageThreshold>-1.6228545904159546e+00</stageThreshold>
      <weakClassifiers>
        <_>
          <internalNodes>
            0 -1 66 -36306977 -1076541891 566664703 -1617162387
            -1109377099 -188853383 -1705148417 -1078501509</internalNodes>
          <leafValues>
            -7.1228843927383423e-01 -3.0426356196403503e-01</leafValues></_>
        <_>
          <internalNodes>
            0 -1 27 2105376637 1071432509 -1325144577 1071471071
            -372508167 -74743381 -609452931 -1124500515</internalNodes>
          <leafValues>
            -3.6531957983970642e-01 1.8967097997665405e-01</leafValues></_>
        <_>
          <internalNodes>
            0 -1 39 -936909664 -1394605884 -1979492394 -343748434
            1675074223 1325256913 349639540 92758066</internalNodes>
          <leafValues>
            -5.4388874769210815e-01 1.2959894537925720e-01</leafValues></_>
        <_>
          <internalNodes>
            0 -1 213 882955708 -234882324 922741825 -250385 -788750356
            -1118671156 -1150243169 -1950737169</internalNodes>
          <leafValues>
            -1.7225199937820435e-01 4.0113982558250427e-01</leafValues></_>
        <_>
          <internalNodes>
            0 -1 204 -753416317 1605352755 -68194628 220852218
            -570708960 -1644691521 1572863658 1706930946</internalNodes>
          <leafValues>
            -2.7357295155525208e-01 2.7963680028915405e-01</leafValues></_>
        <_>
          <internalNodes>
            0 -1 118 803144255 784298207 1425300607 -1168844454
            -754246853 -534052809 -38020271 -1328226236</internalNodes>
          <leafValues>
            -5.4316693544387817e-01 1.5835131704807281e-01</leafValues></_>
        <_>
          <internalNodes>
            0 -1 117 661465915 -1346931714 -780299459 1393768926
            -376186498 1341721702 185745909 -682252090</internalNodes>
          <leafValues>
            -3.0682542920112610e-01 2.5323429703712463e-01</leafValues></_>
        <_>
          <internalNodes>
            0 -1 75 -2134727958 -144156673 -681544610 1742788312
            -230690878 1476623000 345799133 1398786380</internalNodes>
          <leafValues>
            -4.7618025541305542e-01 1.7730174958705902e-01</leafValues></_>
        <_>
          <internalNodes>
            0 -1 22 -498078113 964012703 -1234936092 83788292 1483538973
            1484669305 -1615205505 -1088112785</internalNodes>
          <leafValues>
            -3.4168019890785217e-01 2.3096223175525665e-01</leafValues></_>
        <_>
          <internalNodes>
            0 -1 133 -1845809217 -1087930563 2013262458 -538247264
            1962874011 1475739599 -41968468 -1326164004</internalNodes>
          <leafValues>
            -2.7376118302345276e-01 3.0713331699371338e-01</leafValues></_>
        <_>
          <internalNodes>
            0 -1 38 -111354196 -26443780 -1354764892 -773210122
            -1762383409 343212026 -1271208049 632891370</internalNodes>
          <leafValues>
            -2.7511447668075562e-01 3.0001410841941833e-01</leafValues></_>
        <_>
          <internalNodes>
            0 -1 13 427392893 1033654619 -1047405153 739068617
            -875955747 -68558694 -1702241687 -1941144783</internalNodes>
          <leafValues>
            -3.5900145769119263e-01 2.2811397910118103e-01</leafValues></_>
        <_>
          <internalNodes>
            0 -1 154 784022243 -1370885157 -1878748705 -1371629994
            1804275829 2055318235 -108549643 -1090717468</internalNodes>
          <leafValues>
            -5.3719413280487061e-01 1.5497072041034698e-01</leafValues></_>
        <_>
          <internalNodes>
            0 -1 206 -2029523936 -2082949546 1216790800 -839023720
            1536031125 763502875 1129387140 17773963</internalNodes>
          <leafValues>
            -4.5250782370567322e-01 1.8093246221542358e-01</leafValues></_></weakClassifiers></_>
    <!-- stage 12 -->
    <_>
      <maxWeakCount>15</maxWeakCount>
      <stageThreshold>-1.6386029720306396e+00</stageThreshold>
      <weakClassifiers>
        <_>
          <internalNodes>
            0 -1 219 -117393160 -1250228305 -1785654453 -16027697
            -1176586341 1944884943 -209149990 -1076286481</internalNodes>
          <leafValues>
            -6.9265031814575195e-01 -2.7480456233024597e-01</leafValues></_>
        <_>
          <internalNodes>
            0 -1 6 534077309 2144465631 -577659073 -1076014817
            -204936578 -74192501 1259957053 1008294253</internalNodes>
          <leafValues>
            -4.7000423073768616e-01 7.8537113964557648e-02</leafValues></_>
        <_>
          <internalNodes>
            0 -1 65 -325162922 2010001046 -1618981002 179076644
            1915439960 875848049 1480891452 1918246270</internalNodes>
          <leafValues>
            -5.5943441390991211e-01 1.1666068434715271e-01</leafValues></_>
        <_>
          <internalNodes>
            0 -1 223 -422172884 668522973 -1744118658 -1508452737
            -154044124 2097875112 -208434492 -488212044</internalNodes>
          <leafValues>
            -4.2428433895111084e-01 1.8110537528991699e-01</leafValues></_>
        <_>
          <internalNodes>
            0 -1 191 -1679322545 1964500949 -799378469 43341451
            -148385728 873380465 1595063994 821238663</internalNodes>
          <leafValues>
            -3.2004135847091675e-01 2.2477665543556213e-01</leafValues></_>
        <_>
          <internalNodes>
            0 -1 18 1463836661 1025298519 -922740737 923459857 -83627844
            -1081240951 -913474963 -1461429507</internalNodes>
          <leafValues>
            -2.7689835429191589e-01 2.7608612179756165e-01</leafValues></_>
        <_>
          <internalNodes>
            0 -1 195 1035971503 455868349 1878880042 1672658802
            -1610823969 1559363580 -537438264 -1174593603</internalNodes>
          <leafValues>
            -2.3972450196743011e-01 3.1287953257560730e-01</leafValues></_>
        <_>
          <internalNodes>
            0 -1 42 1810706346 1676604286 520790736 1672726335 492437243
            2135196056 -683739035 1465710022</internalNodes>
          <leafValues>
            -4.9956184625625610e-01 1.5686041116714478e-01</leafValues></_>
        <_>
          <internalNodes>
            0 -1 76 1817570599 -69014258 1914819326 1533339768
            -873733761 1887150409 1997206381 1933047244</internalNodes>
          <leafValues>
            -3.0364844202995300e-01 2.5392404198646545e-01</leafValues></_>
        <_>
          <internalNodes>
            0 -1 158 1033793142 -1357430182 -750661418 1719988936
            713784116 1787332642 -209060940 -17511996</internalNodes>
          <leafValues>
            -5.0773501396179199e-01 1.4951176941394806e-01</leafValues></_>
        <_>
          <internalNodes>
            0 -1 73 944286276 -990575124 1141018535 1065636943 463774188
            322980353 850682666 893717274</internalNodes>
          <leafValues>
            -3.8139823079109192e-01 1.9285003840923309e-01</leafValues></_>
        <_>
          <internalNodes>
            0 -1 173 771294471 1741681055 411142506 -283119355
            2089280367 2072821898 1265093422 -407978010</internalNodes>
          <leafValues>
            -3.0982515215873718e-01 2.4378138780593872e-01</leafValues></_>
        <_>
          <internalNodes>
            0 -1 247 436796413 -825953911 -1844317858 1335650505
            -511901097 -620001222 855797367 661941111</internalNodes>
          <leafValues>
            -4.5040798187255859e-01 1.7405694723129272e-01</leafValues></_>
        <_>
          <internalNodes>
            0 -1 217 -5243407 2078795898 1811787312 1973789551
            -606801426 12352873 1022702252 -824449061</internalNodes>
          <leafValues>
            -2.1376073360443115e-01 3.8494151830673218e-01</leafValues></_>
        <_>
          <internalNodes>
            0 -1 97 -337076077 1568300110 1879027196 455551180
            -2018051595 218052429 484307188 -159519425</internalNodes>
          <leafValues>
            -2.5820904970169067e-01 3.1320533156394958e-01</leafValues></_></weakClassifiers></_>
    <!-- stage 13 -->
    <_>
      <maxWeakCount>16</maxWeakCount>
      <stageThreshold>-1.5113334655761719e+00</stageThreshold>
      <weakClassifiers>
        <_>
          <internalNodes>
            0 -1 220 -577187364 -607151669 -796267961 -201388557
            967416574 894179590 -20401681 -1411826262</internalNodes>
          <leafValues>
            -6.9145816564559937e-01 -2.8914955258369446e-01</leafValues></_>
        <_>
          <internalNodes>
            0 -1 245 752155647 -207803939 -711731753 805085279
            1100839923 -104136494 1000029166 1064594165</internalNodes>
          <leafValues>
            -4.6474537253379822e-01 7.6285585761070251e-02</leafValues></_>
        <_>
          <internalNodes>
            0 -1 8 1111926446 -1540444634 -543095073 1227025966
            911698814 -441007369 1884383051 572999685</internalNodes>
          <leafValues>
            -5.5764102935791016e-01 1.1114306002855301e-01</leafValues></_>
        <_>
          <internalNodes>
            0 -1 96 -1412551384 -1492847962 -640347248 -224994820
            -1454879881 1506492571 -305413995 -323488956</internalNodes>
          <leafValues>
            -3.8583257794380188e-01 1.9136956334114075e-01</leafValues></_>
        <_>
          <internalNodes>
            0 -1 1 1515988096 -149924899 220251278 -1343269220
            -1795077723 -2031130620 1114259211 906768948</internalNodes>
          <leafValues>
            -3.6829403042793274e-01 1.9251449406147003e-01</leafValues></_>
        <_>
          <internalNodes>
            0 -1 227 -455981810 -1528916723 1359606662 -1367735969
            -654157196 2139914251 -628500895 -1862921610</internalNodes>
          <leafValues>
            -4.2465218901634216e-01 1.6776709258556366e-01</leafValues></_>
        <_>
          <internalNodes>
            0 -1 123 662535981 1305985239 1367693647 -318258122
            2042849919 2005616778 1518050055 -1537950141</internalNodes>
          <leafValues>
            -3.6419627070426941e-01 1.8301440775394440e-01</leafValues></_>
        <_>
          <internalNodes>
            0 -1 218 800911149 1602223919 -145 729807724 -33554515
            1870135295 -1996489105 -1764458956</internalNodes>
          <leafValues>
            -2.5560542941093445e-01 2.7096793055534363e-01</leafValues></_>
        <_>
          <internalNodes>
            0 -1 89 -838136273 2111446590 -1458243361 1974474130
            1892280063 204685423 1385157244 1466659270</internalNodes>
          <leafValues>
            -2.8375393152236938e-01 2.4693995714187622e-01</leafValues></_>
        <_>
          <internalNodes>
            0 -1 81 96968832 -1393168395 560769966 -311057956 -225059737
            668322035 -337824711 1091644111</internalNodes>
          <leafValues>
            -4.4319254159927368e-01 1.5888999402523041e-01</leafValues></_>
        <_>
          <internalNodes>
            0 -1 60 297293164 -685191492 -1208570323 2100260774
            -1092178961 -439885956 1995915231 -1349509783</internalNodes>
          <leafValues>
            -2.2172434628009796e-01 3.3135780692100525e-01</leafValues></_>
        <_>
          <internalNodes>
            0 -1 146 -402659837 1831857930 1423594800 -264964164
            -491309155 1370194681 1440133996 1147924671</internalNodes>
          <leafValues>
            -3.4830695390701294e-01 2.1778813004493713e-01</leafValues></_>
        <_>
          <internalNodes>
            0 -1 134 770907943 -1441652498 -1023216196 -1093625360
            -1439536545 -1291216758 -91591755 -328165008</internalNodes>
          <leafValues>
            -5.1718676090240479e-01 1.3939701020717621e-01</leafValues></_>
        <_>
          <internalNodes>
            0 -1 101 -816895325 -168474417 -1961206316 857463004
            445588715 792660576 368686844 -988875137</internalNodes>
          <leafValues>
            -3.0015620589256287e-01 2.5046855211257935e-01</leafValues></_>
        <_>
          <internalNodes>
            0 -1 122 1089264592 395899056 999492700 256414804 1034187851
            1655460024 1811692172 852765552</internalNodes>
          <leafValues>
            -5.1909410953521729e-01 1.4236873388290405e-01</leafValues></_>
        <_>
          <internalNodes>
            0 -1 187 1630592512 2059824541 -1723711425 811057613
            1482314500 -642562001 985725416 37952019</internalNodes>
          <leafValues>
            -4.5270112156867981e-01 1.5567569434642792e-01</leafValues></_></weakClassifiers></_>
    <!-- stage 14 -->
    <_>
      <maxWeakCount>15</maxWeakCount>
      <stageThreshold>-1.5229634046554565e+00</stageThreshold>
      <weakClassifiers>
        <_>
          <internalNodes>
            0 -1 199 2108750813 -2370152 1334024951 -1646965811
            1040878063 -1551070790 -67526725 -1342223233</internalNodes>
          <leafValues>
            -6.7066895961761475e-01 -1.8307267129421234e-01</leafValues></_>
        <_>
          <internalNodes>
            0 -1 155 -606088195 1071104255 -2146627186 -2112950049
            1541110655 1132691723 -640454059 -143328257</internalNodes>
          <leafValues>
            -3.3994093537330627e-01 1.6319705545902252e-01</leafValues></_>
        <_>
          <internalNodes>
            0 -1 237 203717119 -551628454 -1602112165 -1350659685
            464380157 -68187750 1938321401 259325877</internalNodes>
          <leafValues>
            -4.1044864058494568e-01 1.6109049320220947e-01</leafValues></_>
        <_>
          <internalNodes>
            0 -1 64 -663752962 910451462 -1407498360 711912038
            1726817580 617131049 839295502 2002460462</internalNodes>
          <leafValues>
            -3.2146722078323364e-01 1.9535355269908905e-01</leafValues></_>
        <_>
          <internalNodes>
            0 -1 23 894989173 743187223 -922499874 -65454061 -1161176451
            -158694707 1756195125 -1405600451</internalNodes>
          <leafValues>
            -3.5557207465171814e-01 2.1897673606872559e-01</leafValues></_>
        <_>
          <internalNodes>
            0 -1 36 -1979299130 -1426677996 1593673628 -7494330
            1973252863 1293287129 1610445583 105857093</internalNodes>
          <leafValues>
            -5.3581881523132324e-01 1.2012059241533279e-01</leafValues></_>
        <_>
          <internalNodes>
            0 -1 179 -1911577837 742287287 -1587547018 -1302401206
            1462086319 1630169209 -1285753220 15335416</internalNodes>
          <leafValues>
            -3.3076345920562744e-01 2.0793570578098297e-01</leafValues></_>
        <_>
          <internalNodes>
            0 -1 127 -280025088 1876838835 857495353 444353660 555477812
            776175233 1974874112 36885782</internalNodes>
          <leafValues>
            -6.1076450347900391e-01 1.1254034191370010e-01</leafValues></_>
        <_>
          <internalNodes>
            0 -1 225 1954068141 -33649439 -21208187 -1176510547
            -1319604784 -56250932 -562762325 -1228403681</internalNodes>
          <leafValues>
            -2.2836713492870331e-01 3.1936454772949219e-01</leafValues></_>
        <_>
          <internalNodes>
            0 -1 59 1463164934 762407399 -783011066 -808135742
            -1019498931 1000792586 -208580156 1406181518</internalNodes>
          <leafValues>
            -5.9169036149978638e-01 1.1725717037916183e-01</leafValues></_>
        <_>
          <internalNodes>
            0 -1 152 265554263 -1540468582 -1072598690 -1538362415
            1787511352 701075594 1653236341 -286198972</internalNodes>
          <leafValues>
            -5.7835251092910767e-01 1.0565507411956787e-01</leafValues></_>
        <_>
          <internalNodes>
            0 -1 231 1592039584 1427341263 -236045720 -1855779465
            895801308 482738023 784256766 -1310652926</internalNodes>
          <leafValues>
            -2.4856075644493103e-01 2.8340804576873779e-01</leafValues></_>
        <_>
          <internalNodes>
            0 -1 167 -2050154713 651051351 1262556630 771801236
            969564465 726173827 -1723607307 -18973808</internalNodes>
          <leafValues>
            -4.3784070014953613e-01 1.6488073766231537e-01</leafValues></_>
        <_>
          <internalNodes>
            0 -1 132 -28450141 -1400884970 -586254212 862109151
            1129290632 1216006485 1998233820 1616050167</internalNodes>
          <leafValues>
            -3.4122115373611450e-01 2.1145023405551910e-01</leafValues></_>
        <_>
          <internalNodes>
            0 -1 32 2102942589 609321459 -721219185 -2028109385
            -758535496 -83262799 -1106411908 947738413</internalNodes>
          <leafValues>
            -4.0048000216484070e-01 1.7951369285583496e-01</leafValues></_></weakClassifiers></_>
    <!-- stage 15 -->
    <_>
      <maxWeakCount>17</maxWeakCount>
      <stageThreshold>-1.5590544939041138e+00</stageThreshold>
      <weakClassifiers>
        <_>
          <internalNodes>
            0 -1 221 -1867722500 -609106980 -788315491 -1610677795
            -1146434853 -1829470021 -1283933765 -1283390774</internalNodes>
          <leafValues>
            -7.0533597469329834e-01 -3.1209558248519897e-01</leafValues></_>
        <_>
          <internalNodes>
            0 -1 243 222623223 -614674209 -720269073 -1386690069
            1227389951 -74792546 1541995263 -1344245003</internalNodes>
          <leafValues>
            -3.6030554771423340e-01 1.4891913533210754e-01</leafValues></_>
        <_>
          <internalNodes>
            0 -1 2 492394321 345339677 -649642538 -1932003885 2032705909
            -70146418 2031620161 16538485</internalNodes>
          <leafValues>
            -6.4096087217330933e-01 9.1460652649402618e-02</leafValues></_>
        <_>
          <internalNodes>
            0 -1 131 -5226579 958001503 -912160694 -1572670708 465640095
            655069347 -1970777003 -1524340228</internalNodes>
          <leafValues>
            -3.2017466425895691e-01 2.0503251254558563e-01</leafValues></_>
        <_>
          <internalNodes>
            0 -1 226 1489478914 -1616905893 -786606848 45328385
            1506641408 516229144 2060384648 1078059395</internalNodes>
          <leafValues>
            -3.2985058426856995e-01 1.9197891652584076e-01</leafValues></_>
        <_>
          <internalNodes>
            0 -1 72 1563962860 -45339906 670501741 1025862881
            -1254925091 -1763610633 769863197 598746168</internalNodes>
          <leafValues>
            -2.4568316340446472e-01 2.7041670680046082e-01</leafValues></_>
        <_>
          <internalNodes>
            0 -1 58 -826300345 1609473959 -1224802434 -579895306
            2139082493 -27495329 1702868092 -144721922</internalNodes>
          <leafValues>
            -2.0988598465919495e-01 3.1662273406982422e-01</leafValues></_>
        <_>
          <internalNodes>
            0 -1 88 40266762 130573392 575995578 1544452730 1307489148
            167919473 728571658 1196148814</internalNodes>
          <leafValues>
            -4.9049562215805054e-01 1.4044749736785889e-01</leafValues></_>
        <_>
          <internalNodes>
            0 -1 209 -1345703189 792252638 -787155493 977568221
            -613787566 -1400668030 -1041407260 -319630352</internalNodes>
          <leafValues>
            -4.0352249145507813e-01 1.7110383510589600e-01</leafValues></_>
        <_>
          <internalNodes>
            0 -1 228 -695166022 -543277075 2147352417 1873899450
            1567723466 1170073559 -1114271857 -1154870325</internalNodes>
          <leafValues>
            -2.0343270897865295e-01 3.5705682635307312e-01</leafValues></_>
        <_>
          <internalNodes>
            0 -1 94 -221823380 936317081 -729114162 -693120746
            2078823681 2065170849 1942598650 -14216389</internalNodes>
          <leafValues>
            -2.7404120564460754e-01 2.5608745217323303e-01</leafValues></_>
        <_>
          <internalNodes>
            0 -1 46 1987355552 -1857548246 -678376414 1459161502
            1682563310 1674166459 -79579266 1968901014</internalNodes>
          <leafValues>
            -2.7962526679039001e-01 2.4750025570392609e-01</leafValues></_>
        <_>
          <internalNodes>
            0 -1 28 -2048804408 1622446764 794790184 28218758 1060600828
            726730952 1369843568 2000461019</internalNodes>
          <leafValues>
            -5.2981126308441162e-01 1.3262236118316650e-01</leafValues></_>
        <_>
          <internalNodes>
            0 -1 203 666789421 1733923215 -1073654910 -313550734
            1368382267 1401657769 722191206 -1268594076</internalNodes>
          <leafValues>
            -4.1076248884201050e-01 1.7281684279441833e-01</leafValues></_>
        <_>
          <internalNodes>
            0 -1 62 -606556968 -235561108 -553665671 -38799683
            -2030264581 662044597 -1636980774 -1219281157</internalNodes>
          <leafValues>
            -1.9312079250812531e-01 3.8746255636215210e-01</leafValues></_>
        <_>
          <internalNodes>
            0 -1 116 -873598026 -77120706 2046222007 2076093823
            737781756 796864380 900921244 -786965723</internalNodes>
          <leafValues>
            -2.4809914827346802e-01 2.9487931728363037e-01</leafValues></_>
        <_>
          <internalNodes>
            0 -1 168 -320917725 -604153385 1225855986 1677230134
            -1189406837 710658566 -1042031940 1886059188</internalNodes>
          <leafValues>
            -3.0667683482170105e-01 2.3575089871883392e-01</leafValues></_></weakClassifiers></_>
    <!-- stage 16 -->
    <_>
      <maxWeakCount>18</maxWeakCount>
      <stageThreshold>-1.5742726325988770e+00</stageThreshold>
      <weakClassifiers>
        <_>
          <internalNodes>
            0 -1 29 1566931805 401076719 -784092705 -42099745 -606676033
            -91254374 -1121126167 -1175623303</internalNodes>
          <leafValues>
            -7.1467870473861694e-01 -3.5794275999069214e-01</leafValues></_>
        <_>
          <internalNodes>
            0 -1 250 751894509 -87829719 -619536177 1255412111
            2089049017 -502279666 726587503 1005679575</internalNodes>
          <leafValues>
            -4.3401712179183960e-01 6.9753333926200867e-02</leafValues></_>
        <_>
          <internalNodes>
            0 -1 14 888691829 474972757 1436013023 -1514569385
            -341845067 -90341237 -1047963275 -1665662115</internalNodes>
          <leafValues>
            -3.3779820799827576e-01 1.7805625498294830e-01</leafValues></_>
        <_>
          <internalNodes>
            0 -1 186 -949177423 -1171473678 2147302781 -1284015112
            1827061707 142372741 1823284637 231673759</internalNodes>
          <leafValues>
            -1.9809474050998688e-01 3.0642130970954895e-01</leafValues></_>
        <_>
          <internalNodes>
            0 -1 86 -1014312046 -514817634 1495631063 -79578932
            1207268859 -1364856007 1095390481 -946894525</internalNodes>
          <leafValues>
            -2.7715745568275452e-01 2.2014150023460388e-01</leafValues></_>
        <_>
          <internalNodes>
            0 -1 214 1031348207 1060077355 -1073779998 829095866
            -1644265506 1953890263 -1711460804 -1662748739</internalNodes>
          <leafValues>
            -2.3871544003486633e-01 2.5802299380302429e-01</leafValues></_>
        <_>
          <internalNodes>
            0 -1 63 -947944241 1198164856 786038583 -1040331232
            351690231 1727978996 1591174686 -93326041</internalNodes>
          <leafValues>
            -1.8975579738616943e-01 3.3682164549827576e-01</leafValues></_>
        <_>
          <internalNodes>
            0 -1 153 -1348541437 -21506794 -812082404 726824100
            661498527 1401294894 1469771960 1460005374</internalNodes>
          <leafValues>
            -2.8285619616508484e-01 2.2947970032691956e-01</leafValues></_>
        <_>
          <internalNodes>
            0 -1 200 -1330367796 -557106 1040163332 594849124
            -1905225732 6594405 -235430421 -1954521413</internalNodes>
          <leafValues>
            -2.3832575976848602e-01 2.7907949686050415e-01</leafValues></_>
        <_>
          <internalNodes>
            0 -1 143 2077687558 -2071721529 -1676066955 81636189
            1808236372 -1517395411 2072521508 -2130975547</internalNodes>
          <leafValues>
            -4.0506950020790100e-01 1.6857847571372986e-01</leafValues></_>
        <_>
          <internalNodes>
            0 -1 91 735559810 -578843858 -1472179056 315782579
            1448014533 252950657 1104275133 1436733830</internalNodes>
          <leafValues>
            -4.6088233590126038e-01 1.4197354018688202e-01</leafValues></_>
        <_>
          <internalNodes>
            0 -1 161 782441012 650858588 285341138 -1901821460
            2014015603 -142499710 -1683299803 -1360746127</internalNodes>
          <leafValues>
            -5.9122425317764282e-01 1.1408352851867676e-01</leafValues></_>
        <_>
          <internalNodes>
            0 -1 84 -706510400 -1817478920 2079284919 -839053344
            766820259 326164350 -1309905249 -1884344475</internalNodes>
          <leafValues>
            -2.4233816564083099e-01 2.8902202844619751e-01</leafValues></_>
        <_>
          <internalNodes>
            0 -1 95 -1617935256 172490716 -654148612 611142940
            -1027646226 411196365 1582739452 85547792</internalNodes>
          <leafValues>
            -4.8125258088111877e-01 1.4342971146106720e-01</leafValues></_>
        <_>
          <internalNodes>
            0 -1 79 -728513864 909967596 50659721 273465269 -427019532
            -83742143 -112260453 1997503599</internalNodes>
          <leafValues>
            -2.9803192615509033e-01 2.2655457258224487e-01</leafValues></_>
        <_>
          <internalNodes>
            0 -1 185 579057441 2146883799 -1895675852 244901584
            298365865 1837335138 461777086 139627740</internalNodes>
          <leafValues>
            -3.0519220232963562e-01 2.3059044778347015e-01</leafValues></_>
        <_>
          <internalNodes>
            0 -1 107 -2040025252 2136736250 -1118757380 812813002
            -1949631040 125601816 582056188 660471147</internalNodes>
          <leafValues>
            -4.0099358558654785e-01 1.7943705618381500e-01</leafValues></_>
        <_>
          <internalNodes>
            0 -1 119 772742685 -1022764730 1372611199 1565266872
            -1410751844 66543699 -2128489987 -1844915004</internalNodes>
          <leafValues>
            -3.0498087406158447e-01 2.3357523977756500e-01</leafValues></_></weakClassifiers></_>
    <!-- stage 17 -->
    <_>
      <maxWeakCount>18</maxWeakCount>
      <stageThreshold>-1.5973509550094604e+00</stageThreshold>
      <weakClassifiers>
        <_>
          <internalNodes>
            0 -1 144 1981308880 -1662936899 -1726670869 -546225451
            -1818702849 -1693341528 -81396773 -1970582770</internalNodes>
          <leafValues>
            -6.8963164091110229e-01 -2.7872860431671143e-01</leafValues></_>
        <_>
          <internalNodes>
            0 -1 21 1033656925 892633681 -783953191 -11972265
            -1358177551 -39157112 177165181 -1468248067</internalNodes>
          <leafValues>
            -3.7712979316711426e-01 1.0745777189731598e-01</leafValues></_>
        <_>
          <internalNodes>
            0 -1 233 1884356605 -455218301 1350939987 111428755
            1747016231 -75268086 -20088174 703945723</internalNodes>
          <leafValues>
            -3.1139516830444336e-01 1.9492231309413910e-01</leafValues></_>
        <_>
          <internalNodes>
            0 -1 183 -240537333 -2095632107 2077318635 14972205
            -493201404 -586297492 -275060294 -1068514745</internalNodes>
          <leafValues>
            -3.3879077434539795e-01 1.7944374680519104e-01</leafValues></_>
        <_>
          <internalNodes>
            0 -1 241 190084095 -338130445 -116696097 257704415 943993331
            -106331566 -931005701 -1352377419</internalNodes>
          <leafValues>
            -2.6650068163871765e-01 2.4628524482250214e-01</leafValues></_>
        <_>
          <internalNodes>
            0 -1 80 1188694558 1572737630 -1719475873 106990104 85179864
            1801588815 739233968 1415726964</internalNodes>
          <leafValues>
            -4.8100411891937256e-01 1.4770619571208954e-01</leafValues></_>
        <_>
          <internalNodes>
            0 -1 11 1342984324 -188087267 -2113696541 1238192215
            857006561 -576186355 848914491 959121978</internalNodes>
          <leafValues>
            -2.7583509683609009e-01 2.3671554028987885e-01</leafValues></_>
        <_>
          <internalNodes>
            0 -1 99 1624662836 399395221 282874012 486682829 1628205320
            -211541882 -1957285190 1345645466</internalNodes>
          <leafValues>
            -3.9803731441497803e-01 1.5666925907135010e-01</leafValues></_>
        <_>
          <internalNodes>
            0 -1 178 -415318224 670348916 -853525224 81740372 464265356
            143532137 1688878096 216355942</internalNodes>
          <leafValues>
            -5.3223294019699097e-01 1.1809602379798889e-01</leafValues></_>
        <_>
          <internalNodes>
            0 -1 105 1072958527 -778099030 -1945635979 -1156320930
            680288049 277693449 1258471780 -644483664</internalNodes>
          <leafValues>
            -2.8133687376976013e-01 2.3305952548980713e-01</leafValues></_>
        <_>
          <internalNodes>
            0 -1 19 -142810400 1562455911 -1208734112 1530863090
            880607215 1182756669 -1258841045 -1225968081</internalNodes>
          <leafValues>
            -1.9771960377693176e-01 3.3143052458763123e-01</leafValues></_>
        <_>
          <internalNodes>
            0 -1 175 -2042943569 -1342463933 -1811689202 -23359402
            1485204589 -492631158 -1701216473 -223290427</internalNodes>
          <leafValues>
            -3.8015240430831909e-01 1.8117244541645050e-01</leafValues></_>
        <_>
          <internalNodes>
            0 -1 222 -1687882588 -4888642 -404608005 1396068209
            335458715 -160048161 -1505756263 -1143007749</internalNodes>
          <leafValues>
            -1.9524088501930237e-01 3.7245944142341614e-01</leafValues></_>
        <_>
          <internalNodes>
            0 -1 106 1336902958 -2017651762 -1118214570 2016596510
            -1692559108 1262913659 831484102 326622747</internalNodes>
          <leafValues>
            -4.3409183621406555e-01 1.7165060341358185e-01</leafValues></_>
        <_>
          <internalNodes>
            0 -1 108 1674320231 -1501068585 -721387078 -1172663971
            -494188537 -89456632 -903164944 -18842655</internalNodes>
          <leafValues>
            -4.1511812806129456e-01 1.6091811656951904e-01</leafValues></_>
        <_>
          <internalNodes>
            0 -1 230 1916843840 -175310818 419709233 1100714187
            1535687385 109707392 591522094 1031342030</internalNodes>
          <leafValues>
            -2.8419661521911621e-01 2.4700750410556793e-01</leafValues></_>
        <_>
          <internalNodes>
            0 -1 69 -351400422 201208814 -1547512836 1678516806
            -791791173 114257949 761856211 1359144050</internalNodes>
          <leafValues>
            -5.0411069393157959e-01 1.3897398114204407e-01</leafValues></_>
        <_>
          <internalNodes>
            0 -1 165 -1968984549 2002133791 1346476255 -293303967
            -1542490712 -1084181901 1719674536 -1051270409</internalNodes>
          <leafValues>
            -2.8233137726783752e-01 2.6494237780570984e-01</leafValues></_></weakClassifiers></_>
    <!-- stage 18 -->
    <_>
      <maxWeakCount>17</maxWeakCount>
      <stageThreshold>-1.5574978590011597e+00</stageThreshold>
      <weakClassifiers>
        <_>
          <internalNodes>
            0 -1 242 131627997 -153169441 -737290297 803615595
            1669946099 -108394358 -1169949973 -2876861</internalNodes>
          <leafValues>
            -7.4169743061065674e-01 -4.0581542253494263e-01</leafValues></_>
        <_>
          <internalNodes>
            0 -1 16 490501493 763215959 -248393441 1310060623 -67912337
            -209612661 734548089 -1460112787</internalNodes>
          <leafValues>
            -4.4288647174835205e-01 6.3591308891773224e-02</leafValues></_>
        <_>
          <internalNodes>
            0 -1 164 212405284 -2070007347 554916335 -428945332
            228998007 2072576130 -902129583 -1464576272</internalNodes>
          <leafValues>
            -5.9605300426483154e-01 8.8510908186435699e-02</leafValues></_>
        <_>
          <internalNodes>
            0 -1 102 -819507653 1500245690 -1140850697 1392065276
            1878849436 267286303 368878844 -746874209</internalNodes>
          <leafValues>
            -1.7311523854732513e-01 3.3314195275306702e-01</leafValues></_>
        <_>
          <internalNodes>
            0 -1 172 1530060208 -648159804 1934094455 -1515385006
            856585384 395641097 2058303135 915016424</internalNodes>
          <leafValues>
            -2.5219526886940002e-01 2.4339522421360016e-01</leafValues></_>
        <_>
          <internalNodes>
            0 -1 147 -924622336 493610127 -787328168 541597305
            -2105436875 -1176163472 -1412508596 15748134</internalNodes>
          <leafValues>
            -5.8482551574707031e-01 1.2724305689334869e-01</leafValues></_>
        <_>
          <internalNodes>
            0 -1 177 -2024291933 2068824803 1610650032 1711919212
            327676827 153729571 1231019192 -919670950</internalNodes>
          <leafValues>
            -2.3911371827125549e-01 2.6799088716506958e-01</leafValues></_>
        <_>
          <internalNodes>
            0 -1 20 -465179956 1887740076 1360792684 -774962466
            -83774806 305178632 -888357332 700004664</internalNodes>
          <leafValues>
            -2.6479414105415344e-01 2.4756342172622681e-01</leafValues></_>
        <_>
          <internalNodes>
            0 -1 43 2119680397 278226062 470706202 -1340816268
            1963656221 1515424362 -1891034183 1045950031</internalNodes>
          <leafValues>
            -3.7834680080413818e-01 1.7218267917633057e-01</leafValues></_>
        <_>
          <internalNodes>
            0 -1 77 -504910293 1995061258 1879011174 -5083230 -285259801
            745961471 -1530937690 1710210930</internalNodes>
          <leafValues>
            -2.3094055056571960e-01 2.8363451361656189e-01</leafValues></_>
        <_>
          <internalNodes>
            0 -1 112 601819939 1858851075 -1560166069 -493338550
            -357875605 722065419 998505265 -658966235</internalNodes>
          <leafValues>
            -5.0175261497497559e-01 1.3066284358501434e-01</leafValues></_>
        <_>
          <internalNodes>
            0 -1 90 911060000 -2141941661 1901550638 -1610499733
            -1303877101 1918720453 -1996293226 72728456</internalNodes>
          <leafValues>
            -5.3799819946289063e-01 1.1801379173994064e-01</leafValues></_>
        <_>
          <internalNodes>
            0 -1 196 -1068855592 868880402 713147448 1868022367
            -1700022351 1939900564 -2130668581 651256987</internalNodes>
          <leafValues>
            -2.6635181903839111e-01 2.5693458318710327e-01</leafValues></_>
        <_>
          <internalNodes>
            0 -1 67 662921639 1736018411 -1072557746 -283641526
            2022251519 -1364153413 311003710 -524779804</internalNodes>
          <leafValues>
            -2.8142756223678589e-01 2.4007637798786163e-01</leafValues></_>
        <_>
          <internalNodes>
            0 -1 55 1082802690 -1551751226 1896960509 -708158958
            956428853 1514095525 1203987011 80187175</internalNodes>
          <leafValues>
            -4.5246204733848572e-01 1.5016035735607147e-01</leafValues></_>
        <_>
          <internalNodes>
            0 -1 197 -373301357 -671161286 -17005571 -138601540
            1320853419 166223673 1168680639 -293867625</internalNodes>
          <leafValues>
            -1.4541669189929962e-01 5.1620501279830933e-01</leafValues></_>
        <_>
          <internalNodes>
            0 -1 125 -1378333380 -1458826621 1342255441 -222362035
            1921728547 -343178878 1846393680 -1445718176</internalNodes>
          <leafValues>
            -4.6066144108772278e-01 1.6033892333507538e-01</leafValues></_></weakClassifiers></_>
    <!-- stage 19 -->
    <_>
      <maxWeakCount>17</maxWeakCount>
      <stageThreshold>-1.4746351242065430e+00</stageThreshold>
      <weakClassifiers>
        <_>
          <internalNodes>
            0 -1 244 232053691 -564301437 -1014415073 -304547235
            2056940519 -74792823 -1432851973 -1141622273</internalNodes>
          <leafValues>
            -7.3005372285842896e-01 -3.6363637447357178e-01</leafValues></_>
        <_>
          <internalNodes>
            0 -1 17 393501045 480018719 -1056882232 -1282426603
            -1819551235 -620019704 -1413228171 -1401131547</internalNodes>
          <leafValues>
            -4.1803887486457825e-01 8.3365961909294128e-02</leafValues></_>
        <_>
          <internalNodes>
            0 -1 25 -174026324 1450798209 -1342296210 -105517404
            912907695 1228267390 -1526943842 -233893969</internalNodes>
          <leafValues>
            -1.8647868931293488e-01 3.2256823778152466e-01</leafValues></_>
        <_>
          <internalNodes>
            0 -1 190 1031764671 63042079 -1593208498 637571859 61422201
            1879605271 -896657136 -1737180168</internalNodes>
          <leafValues>
            -4.0496981143951416e-01 1.5200243890285492e-01</leafValues></_>
        <_>
          <internalNodes>
            0 -1 4 329008 -322792170 -70154870 -1118294678 305885375
            1542732981 1654997139 749222935</internalNodes>
          <leafValues>
            -3.9794096350669861e-01 1.8511386215686798e-01</leafValues></_>
        <_>
          <internalNodes>
            0 -1 7 -183451024 1433067492 -1946157076 -2056370207
            1970599839 -1753383308 -1216987486 -1147569430</internalNodes>
          <leafValues>
            -2.3590250313282013e-01 2.8375867009162903e-01</leafValues></_>
        <_>
          <internalNodes>
            0 -1 176 -809529053 765391255 -670073488 63378128 1804621234
            257108032 1558777616 1088222813</internalNodes>
          <leafValues>
            -4.1120788455009460e-01 1.7601998150348663e-01</leafValues></_>
        <_>
          <internalNodes>
            0 -1 239 5789631 -1278197357 -787377713 741376399 1392655219
            -355991384 1460353890 643070773</internalNodes>
          <leafValues>
            -6.2848889827728271e-01 9.3132033944129944e-02</leafValues></_>
        <_>
          <internalNodes>
            0 -1 229 -247426356 -1821271505 -1073954825 1853315829
            1302175711 1173389261 2030018283 301669803</internalNodes>
          <leafValues>
            -2.3081243038177490e-01 3.1192472577095032e-01</leafValues></_>
        <_>
          <internalNodes>
            0 -1 140 -365959783 1589432178 -1359761579 2080012926
            1324873726 -1208090628 1439890330 1831393279</internalNodes>
          <leafValues>
            -2.1320730447769165e-01 3.1684231758117676e-01</leafValues></_>
        <_>
          <internalNodes>
            0 -1 208 1408434434 701465050 -788365101 1640192467 29735316
            536961319 2037658600 1093728663</internalNodes>
          <leafValues>
            -3.4334185719490051e-01 2.0040792226791382e-01</leafValues></_>
        <_>
          <internalNodes>
            0 -1 121 -1042325186 1665291133 -1324117406 1489663500
            1041840544 93488225 55176896 608357501</internalNodes>
          <leafValues>
            -4.3701192736625671e-01 1.5636901557445526e-01</leafValues></_>
        <_>
          <internalNodes>
            0 -1 92 -72866941 1607407054 -1879126025 2104593257
            -1366835778 419329607 1038934776 -719642961</internalNodes>
          <leafValues>
            -2.2533319890499115e-01 3.1981867551803589e-01</leafValues></_>
        <_>
          <internalNodes>
            0 -1 160 1883864337 300904927 -576553544 232216443
            -1191011860 -918192047 -221381815 -121407919</internalNodes>
          <leafValues>
            -3.0734229087829590e-01 2.3481708765029907e-01</leafValues></_>
        <_>
          <internalNodes>
            0 -1 170 400503603 -1451114150 -1857941353 -54619621
            -1311835277 445169665 -115246687 -222774828</internalNodes>
          <leafValues>
            -4.2276033759117126e-01 1.7161267995834351e-01</leafValues></_>
        <_>
          <internalNodes>
            0 -1 10 -675894565 -1241052258 -717074084 -1466719490
            2103780572 -356282213 -710092100 -1759481989</internalNodes>
          <leafValues>
            -2.6309776306152344e-01 2.7555513381958008e-01</leafValues></_>
        <_>
          <internalNodes>
            0 -1 194 782052652 -1571179822 -805223997 -858726244
            -1979502037 -209583991 -259184350 -262081632</internalNodes>
          <leafValues>
            -5.4773467779159546e-01 1.3164006173610687e-01</leafValues></_></weakClassifiers></_></stages>
  <features>
    <_>
      <rect>
        0 0 1 1</rect></_>
    <_>
      <rect>
        0 2 5 3</rect></_>
    <_>
      <rect>
        0 3 1 1</rect></_>
    <_>
      <rect>
        0 3 15 6</rect></_>
    <_>
      <rect>
        0 5 8 6</rect></_>
    <_>
      <rect>
        0 6 10 17</rect></_>
    <_>
      <rect>
        0 7 1 1</rect></_>
    <_>
      <rect>
        0 7 4 3</rect></_>
    <_>
      <rect>
        0 7 11 11</rect></_>
    <_>
      <rect>
        0 7 21 11</rect></_>
    <_>
      <rect>
        0 9 11 16</rect></_>
    <_>
      <rect>
        0 10 4 3</rect></_>
    <_>
      <rect>
        0 13 21 17</rect></_>
    <_>
      <rect>
        0 16 1 1</rect></_>
    <_>
      <rect>
        0 18 1 1</rect></_>
    <_>
      <rect>
        0 20 15 13</rect></_>
    <_>
      <rect>
        0 21 1 1</rect></_>
    <_>
      <rect>
        0 23 1 1</rect></_>
    <_>
      <rect>
        0 26 1 1</rect></_>
    <_>
      <rect>
        0 27 3 2</rect></_>
    <_>
      <rect>
        0 31 3 5</rect></_>
    <_>
      <rect>
        0 32 1 1</rect></_>
    <_>
      <rect>
        0 32 8 8</rect></_>
    <_>
      <rect>
        0 36 1 1</rect></_>
    <_>
      <rect>
        0 37 1 3</rect></_>
    <_>
      <rect>
        0 42 2 3</rect></_>
    <_>
      <rect>
        0 42 13 7</rect></_>
    <_>
      <rect>
        0 43 1 1</rect></_>
    <_>
      <rect>
        0 47 20 4</rect></_>
    <_>
      <rect>
        0 50 1 1</rect></_>
    <_>
      <rect>
        0 53 1 1</rect></_>
    <_>
      <rect>
        0 55 1 1</rect></_>
    <_>
      <rect>
        0 58 1 1</rect></_>
    <_>
      <rect>
        0 61 1 1</rect></_>
    <_>
      <rect>
        1 0 13 7</rect></_>
    <_>
      <rect>
        1 0 21 11</rect></_>
    <_>
      <rect>
        1 1 13 10</rect></_>
    <_>
      <rect>
        1 1 21 15</rect></_>
    <_>
      <rect>
        1 2 3 4</rect></_>
    <_>
      <rect>
        1 11 9 5</rect></_>
    <_>
      <rect>
        1 31 8 7</rect></_>
    <_>
      <rect>
        1 31 20 11</rect></_>
    <_>
      <rect>
        1 33 21 8</rect></_>
    <_>
      <rect>
        1 36 7 5</rect></_>
    <_>
      <rect>
        1 38 13 8</rect></_>
    <_>
      <rect>
        1 47 4 4</rect></_>
    <_>
      <rect>
        1 52 3 4</rect></_>
    <_>
      <rect>
        1 55 6 2</rect></_>
    <_>
      <rect>
        2 3 9 12</rect></_>
    <_>
      <rect>
        2 19 6 5</rect></_>
    <_>
      <rect>
        2 22 10 11</rect></_>
    <_>
      <rect>
        2 54 12 3</rect></_>
    <_>
      <rect>
        3 0 14 20</rect></_>
    <_>
      <rect>
        3 1 8 10</rect></_>
    <_>
      <rect>
        3 2 20 20</rect></_>
    <_>
      <rect>
        3 4 10 6</rect></_>
    <_>
      <rect>
        3 9 14 8</rect></_>
    <_>
      <rect>
        3 15 6 7</rect></_>
    <_>
      <rect>
        3 29 10 6</rect></_>
    <_>
      <rect>
        4 0 20 12</rect></_>
    <_>
      <rect>
        4 5 6 2</rect></_>
    <_>
      <rect>
        4 34 14 10</rect></_>
    <_>
      <rect>
        4 49 3 3</rect></_>
    <_>
      <rect>
        5 20 3 8</rect></_>
    <_>
      <rect>
        5 30 3 5</rect></_>
    <_>
      <rect>
        5 37 9 8</rect></_>
    <_>
      <rect>
        5 46 10 6</rect></_>
    <_>
      <rect>
        5 61 3 1</rect></_>
    <_>
      <rect>
        6 3 5 4</rect></_>
    <_>
      <rect>
        6 15 12 10</rect></_>
    <_>
      <rect>
        6 27 3 6</rect></_>
    <_>
      <rect>
        6 38 5 3</rect></_>
    <_>
      <rect>
        6 57 11 2</rect></_>
    <_>
      <rect>
        7 50 4 4</rect></_>
    <_>
      <rect>
        8 0 16 8</rect></_>
    <_>
      <rect>
        8 7 15 8</rect></_>
    <_>
      <rect>
        8 22 8 4</rect></_>
    <_>
      <rect>
        8 25 2 3</rect></_>
    <_>
      <rect>
        8 36 8 7</rect></_>
    <_>
      <rect>
        8 43 5 5</rect></_>
    <_>
      <rect>
        9 25 7 9</rect></_>
    <_>
      <rect>
        10 0 13 5</rect></_>
    <_>
      <rect>
        10 19 6 4</rect></_>
    <_>
      <rect>
        10 40 15 8</rect></_>
    <_>
      <rect>
        11 3 6 3</rect></_>
    <_>
      <rect>
        11 6 10 6</rect></_>
    <_>
      <rect>
        11 8 6 5</rect></_>
    <_>
      <rect>
        11 19 14 10</rect></_>
    <_>
      <rect>
        11 25 11 10</rect></_>
    <_>
      <rect>
        11 28 6 5</rect></_>
    <_>
      <rect>
        12 0 16 5</rect></_>
    <_>
      <rect>
        12 15 13 5</rect></_>
    <_>
      <rect>
        12 21 10 9</rect></_>
    <_>
      <rect>
        12 28 1 1</rect></_>
    <_>
      <rect>
        12 45 2 1</rect></_>
    <_>
      <rect>
        13 7 8 17</rect></_>
    <_>
      <rect>
        13 21 1 1</rect></_>
    <_>
      <rect>
        13 24 9 8</rect></_>
    <_>
      <rect>
        13 38 1 1</rect></_>
    <_>
      <rect>
        13 46 4 5</rect></_>
    <_>
      <rect>
        14 22 1 1</rect></_>
    <_>
      <rect>
        15 24 10 5</rect></_>
    <_>
      <rect>
        15 27 8 5</rect></_>
    <_>
      <rect>
        15 42 1 1</rect></_>
    <_>
      <rect>
        16 16 1 1</rect></_>
    <_>
      <rect>
        16 30 3 4</rect></_>
    <_>
      <rect>
        16 34 12 4</rect></_>
    <_>
      <rect>
        16 42 11 4</rect></_>
    <_>
      <rect>
        16 45 1 1</rect></_>
    <_>
      <rect>
        17 0 2 1</rect></_>
    <_>
      <rect>
        17 21 1 1</rect></_>
    <_>
      <rect>
        17 43 15 6</rect></_>
    <_>
      <rect>
        18 31 1 1</rect></_>
    <_>
      <rect>
        19 0 15 7</rect></_>
    <_>
      <rect>
        19 1 9 7</rect></_>
    <_>
      <rect>
        19 16 1 1</rect></_>
    <_>
      <rect>
        19 16 10 9</rect></_>
    <_>
      <rect>
        19 29 8 4</rect></_>
    <_>
      <rect>
        19 30 1 1</rect></_>
    <_>
      <rect>
        19 30 8 5</rect></_>
    <_>
      <rect>
        20 27 1 1</rect></_>
    <_>
      <rect>
        20 31 12 8</rect></_>
    <_>
      <rect>
        20 48 9 5</rect></_>
    <_>
      <rect>
        20 61 1 1</rect></_>
    <_>
      <rect>
        22 2 14 2</rect></_>
    <_>
      <rect>
        22 17 1 1</rect></_>
    <_>
      <rect>
        22 18 9 6</rect></_>
    <_>
      <rect>
        22 19 12 10</rect></_>
    <_>
      <rect>
        22 29 1 1</rect></_>
    <_>
      <rect>
        22 30 13 11</rect></_>
    <_>
      <rect>
        22 31 1 1</rect></_>
    <_>
      <rect>
        23 0 2 1</rect></_>
    <_>
      <rect>
        23 19 10 5</rect></_>
    <_>
      <rect>
        24 0 5 1</rect></_>
    <_>
      <rect>
        24 24 1 1</rect></_>
    <_>
      <rect>
        24 34 1 1</rect></_>
    <_>
      <rect>
        25 1 13 7</rect></_>
    <_>
      <rect>
        25 13 12 17</rect></_>
    <_>
      <rect>
        25 36 1 1</rect></_>
    <_>
      <rect>
        25 39 13 8</rect></_>
    <_>
      <rect>
        26 11 10 9</rect></_>
    <_>
      <rect>
        26 28 1 1</rect></_>
    <_>
      <rect>
        26 33 1 1</rect></_>
    <_>
      <rect>
        26 43 12 7</rect></_>
    <_>
      <rect>
        27 1 11 2</rect></_>
    <_>
      <rect>
        27 20 9 7</rect></_>
    <_>
      <rect>
        27 21 10 5</rect></_>
    <_>
      <rect>
        28 1 12 11</rect></_>
    <_>
      <rect>
        28 4 12 14</rect></_>
    <_>
      <rect>
        28 6 9 7</rect></_>
    <_>
      <rect>
        28 13 1 1</rect></_>
    <_>
      <rect>
        28 15 12 16</rect></_>
    <_>
      <rect>
        28 20 1 1</rect></_>
    <_>
      <rect>
        28 27 9 5</rect></_>
    <_>
      <rect>
        28 37 1 1</rect></_>
    <_>
      <rect>
        30 0 1 1</rect></_>
    <_>
      <rect>
        30 15 11 11</rect></_>
    <_>
      <rect>
        30 20 1 1</rect></_>
    <_>
      <rect>
        30 31 1 1</rect></_>
    <_>
      <rect>
        31 0 9 9</rect></_>
    <_>
      <rect>
        31 0 11 7</rect></_>
    <_>
      <rect>
        31 41 1 1</rect></_>
    <_>
      <rect>
        32 50 1 1</rect></_>
    <_>
      <rect>
        33 0 9 6</rect></_>
    <_>
      <rect>
        33 14 1 1</rect></_>
    <_>
      <rect>
        34 15 6 5</rect></_>
    <_>
      <rect>
        34 26 1 1</rect></_>
    <_>
      <rect>
        34 47 1 1</rect></_>
    <_>
      <rect>
        35 23 6 4</rect></_>
    <_>
      <rect>
        35 30 1 1</rect></_>
    <_>
      <rect>
        35 31 1 1</rect></_>
    <_>
      <rect>
        35 36 1 1</rect></_>
    <_>
      <rect>
        36 53 7 3</rect></_>
    <_>
      <rect>
        36 61 2 1</rect></_>
    <_>
      <rect>
        37 10 9 9</rect></_>
    <_>
      <rect>
        37 27 1 1</rect></_>
    <_>
      <rect>
        37 28 9 7</rect></_>
    <_>
      <rect>
        37 32 7 5</rect></_>
    <_>
      <rect>
        37 33 9 8</rect></_>
    <_>
      <rect>
        38 26 5 4</rect></_>
    <_>
      <rect>
        38 28 1 1</rect></_>
    <_>
      <rect>
        38 32 1 1</rect></_>
    <_>
      <rect>
        38 36 8 7</rect></_>
    <_>
      <rect>
        39 12 8 7</rect></_>
    <_>
      <rect>
        39 33 1 1</rect></_>
    <_>
      <rect>
        39 33 5 5</rect></_>
    <_>
      <rect>
        39 42 5 4</rect></_>
    <_>
      <rect>
        40 10 5 4</rect></_>
    <_>
      <rect>
        40 25 7 7</rect></_>
    <_>
      <rect>
        40 29 1 1</rect></_>
    <_>
      <rect>
        41 0 1 1</rect></_>
    <_>
      <rect>
        41 9 7 7</rect></_>
    <_>
      <rect>
        41 16 6 5</rect></_>
    <_>
      <rect>
        41 17 1 1</rect></_>
    <_>
      <rect>
        41 35 1 1</rect></_>
    <_>
      <rect>
        42 0 3 1</rect></_>
    <_>
      <rect>
        42 4 5 3</rect></_>
    <_>
      <rect>
        42 40 4 6</rect></_>
    <_>
      <rect>
        42 45 1 1</rect></_>
    <_>
      <rect>
        42 53 7 3</rect></_>
    <_>
      <rect>
        42 54 6 2</rect></_>
    <_>
      <rect>
        43 12 1 1</rect></_>
    <_>
      <rect>
        43 39 1 1</rect></_>
    <_>
      <rect>
        43 61 2 1</rect></_>
    <_>
      <rect>
        44 14 6 11</rect></_>
    <_>
      <rect>
        44 15 6 6</rect></_>
    <_>
      <rect>
        44 39 4 4</rect></_>
    <_>
      <rect>
        44 43 1 1</rect></_>
    <_>
      <rect>
        45 21 4 6</rect></_>
    <_>
      <rect>
        45 30 1 1</rect></_>
    <_>
      <rect>
        45 40 1 1</rect></_>
    <_>
      <rect>
        45 48 1 1</rect></_>
    <_>
      <rect>
        46 44 1 1</rect></_>
    <_>
      <rect>
        46 51 6 3</rect></_>
    <_>
      <rect>
        47 0 4 1</rect></_>
    <_>
      <rect>
        47 20 1 1</rect></_>
    <_>
      <rect>
        47 32 4 4</rect></_>
    <_>
      <rect>
        47 32 4 6</rect></_>
    <_>
      <rect>
        47 61 4 1</rect></_>
    <_>
      <rect>
        48 6 5 3</rect></_>
    <_>
      <rect>
        49 0 5 3</rect></_>
    <_>
      <rect>
        49 4 5 3</rect></_>
    <_>
      <rect>
        49 6 5 3</rect></_>
    <_>
      <rect>
        49 24 1 1</rect></_>
    <_>
      <rect>
        49 34 1 1</rect></_>
    <_>
      <rect>
        49 50 5 3</rect></_>
    <_>
      <rect>
        50 19 3 6</rect></_>
    <_>
      <rect>
        52 22 1 1</rect></_>
    <_>
      <rect>
        52 45 4 3</rect></_>
    <_>
      <rect>
        53 12 3 4</rect></_>
    <_>
      <rect>
        53 42 3 4</rect></_>
    <_>
      <rect>
        54 15 3 2</rect></_>
    <_>
      <rect>
        61 0 1 1</rect></_>
    <_>
      <rect>
        61 2 1 3</rect></_>
    <_>
      <rect>
        61 5 1 1</rect></_>
    <_>
      <rect>
        61 6 1 2</rect></_>
    <_>
      <rect>
        61 11 1 1</rect></_>
    <_>
      <rect>
        61 13 1 1</rect></_>
    <_>
      <rect>
        61 16 1 1</rect></_>
    <_>
      <rect>
        61 19 1 1</rect></_>
    <_>
      <rect>
        61 21 1 1</rect></_>
    <_>
      <rect>
        61 25 1 1</rect></_>
    <_>
      <rect>
        61 30 1 1</rect></_>
    <_>
      <rect>
        61 34 1 1</rect></_>
    <_>
      <rect>
        61 41 1 1</rect></_>
    <_>
      <rect>
        61 44 1 1</rect></_>
    <_>
      <rect>
        61 46 1 1</rect></_>
    <_>
      <rect>
        61 49 1 2</rect></_>
    <_>
      <rect>
        61 53 1 1</rect></_>
    <_>
      <rect>
        61 54 1 1</rect></_>
    <_>
      <rect>
        61 56 1 2</rect></_>
    <_>
      <rect>
        61 61 1 1</rect></_></features></cascade>
</opencv_storage>
