<?xml version="1.0"?>
<opencv_storage>
<cascade>
  <stageType>BOOST</stageType>
  <featureType>LBP</featureType>
  <height>24</height>
  <width>24</width>
  <stageParams>
    <boostType>GAB</boostType>
    <minHitRate>9.9500000476837158e-01</minHitRate>
    <maxFalseAlarm>5.0000000000000000e-01</maxFalseAlarm>
    <weightTrimRate>9.4999998807907104e-01</weightTrimRate>
    <maxDepth>1</maxDepth>
    <maxWeakCount>100</maxWeakCount></stageParams>
  <featureParams>
    <maxCatCount>256</maxCatCount>
    <featSize>1</featSize></featureParams>
  <stageNum>20</stageNum>
  <stages>
    <!-- stage 0 -->
    <_>
      <maxWeakCount>3</maxWeakCount>
      <stageThreshold>-1.7885959148406982e+00</stageThreshold>
      <weakClassifiers>
        <_>
          <internalNodes>
            0 -1 2 -540017718 -538981681 1375793864 1474281887
            -347344917 437071947 -113378049 2068837359</internalNodes>
          <leafValues>
            -9.3329608440399170e-01 -2.1830457448959351e-01</leafValues></_>
        <_>
          <internalNodes>
            0 -1 6 -78126358 -538459218 306544672 1474288479 -5510773
            134359040 1305474047 290453903</internalNodes>
          <leafValues>
            -8.5393655300140381e-01 1.4882108569145203e-01</leafValues></_>
        <_>
          <internalNodes>
            0 -1 18 1943647226 2137117676 366006908 2009952972
            2059403182 1535655950 1874067418 1875900302</internalNodes>
          <leafValues>
            -7.1635472774505615e-01 3.7634509801864624e-01</leafValues></_></weakClassifiers></_>
    <!-- stage 1 -->
    <_>
      <maxWeakCount>5</maxWeakCount>
      <stageThreshold>-1.5663995742797852e+00</stageThreshold>
      <weakClassifiers>
        <_>
          <internalNodes>
            0 -1 95 -69468329 -8661153 -220988417 -71306241 -6292737
            -72615507 -88212481 -85983297</internalNodes>
          <leafValues>
            -8.5781073570251465e-01 4.2253520339727402e-02</leafValues></_>
        <_>
          <internalNodes>
            0 -1 116 -33819152 -583933253 -553394299 89860691 -634998608
            -101977173 -122164725 460840635</internalNodes>
          <leafValues>
            -7.6499366760253906e-01 2.3984971642494202e-01</leafValues></_>
        <_>
          <internalNodes>
            0 -1 25 -119878438 -40348466 -399795492 -576104238 129508538
            1060768265 1477598863 1597996315</internalNodes>
          <leafValues>
            -6.6372114419937134e-01 3.5982215404510498e-01</leafValues></_>
        <_>
          <internalNodes>
            0 -1 81 -201656616 1027463069 -894084367 2147472765
            497008584 -1357121379 2130547912 1015021447</internalNodes>
          <leafValues>
            -5.9304165840148926e-01 4.2010241746902466e-01</leafValues></_>
        <_>
          <internalNodes>
            0 -1 62 -1398105422 -1615563272 -1114156163 -673719816
            -1910584338 -1362179415 702421896 -578857915</internalNodes>
          <leafValues>
            -5.7807075977325439e-01 4.1310334205627441e-01</leafValues></_></weakClassifiers></_>
    <!-- stage 2 -->
    <_>
      <maxWeakCount>7</maxWeakCount>
      <stageThreshold>-1.7127743959426880e+00</stageThreshold>
      <weakClassifiers>
        <_>
          <internalNodes>
            0 -1 124 -2097153 -1074267137 -44040707 -2049 -34604065
            -1114714405 -639640579 -1</internalNodes>
          <leafValues>
            -8.4625136852264404e-01 9.9744245409965515e-02</leafValues></_>
        <_>
          <internalNodes>
            0 -1 26 -454033409 -1368610080 -825231626 -747914 1298622447
            -307828499 1179612085 -437782813</internalNodes>
          <leafValues>
            -6.9104576110839844e-01 1.7294108867645264e-01</leafValues></_>
        <_>
          <internalNodes>
            0 -1 119 -85987825 2054938142 -19436873 541255995 -11142136
            -37062129 -1094975830 -260899242</internalNodes>
          <leafValues>
            -6.1570543050765991e-01 3.5858190059661865e-01</leafValues></_>
        <_>
          <internalNodes>
            0 -1 17 1936700374 -1377306 2112535742 -1010388576
            2111632367 1605688268 1520431098 1810883530</internalNodes>
          <leafValues>
            -5.9064352512359619e-01 3.6806842684745789e-01</leafValues></_>
        <_>
          <internalNodes>
            0 -1 4 -699470102 -67185946 763088349 -1617064961 -912544771
            -867165108 -622068993 1162072431</internalNodes>
          <leafValues>
            -5.5640316009521484e-01 4.2041161656379700e-01</leafValues></_>
        <_>
          <internalNodes>
            0 -1 123 -809765136 799733778 -1081909548 -36849815
            649426097 -1364549690 338259120 -589308687</internalNodes>
          <leafValues>
            -5.8117502927780151e-01 3.7648794054985046e-01</leafValues></_>
        <_>
          <internalNodes>
            0 -1 9 -431042818 -629477634 -448344100 1263021264
            1102247163 -340317386 1171075711 1601401855</internalNodes>
          <leafValues>
            -6.1246633529663086e-01 3.4680008888244629e-01</leafValues></_></weakClassifiers></_>
    <!-- stage 3 -->
    <_>
      <maxWeakCount>7</maxWeakCount>
      <stageThreshold>-2.2547402381896973e+00</stageThreshold>
      <weakClassifiers>
        <_>
          <internalNodes>
            0 -1 138 -161 -2099361 -74448897 -9439265 -33 -7604289
            -2098198 -83886337</internalNodes>
          <leafValues>
            -8.4861576557159424e-01 6.6518848761916161e-03</leafValues></_>
        <_>
          <internalNodes>
            0 -1 140 -620767637 -8423035 949872383 1887171833
            -1623757220 -563230149 -589497605 -92804233</internalNodes>
          <leafValues>
            -6.1814242601394653e-01 2.1144625544548035e-01</leafValues></_>
        <_>
          <internalNodes>
            0 -1 134 -402918621 126875647 -540416080 -67638793
            1543468301 57666357 1741911508 -857735241</internalNodes>
          <leafValues>
            -5.5562973022460938e-01 3.2602599263191223e-01</leafValues></_>
        <_>
          <internalNodes>
            0 -1 27 -402657305 1244331724 1818213618 -65590 446668783
            1223622655 1979151301 -419956777</internalNodes>
          <leafValues>
            -5.1939648389816284e-01 3.7374031543731689e-01</leafValues></_>
        <_>
          <internalNodes>
            0 -1 35 -83905945 2146301543 -831194370 1887174654
            2078104666 1052734775 2080373566 -63439001</internalNodes>
          <leafValues>
            -4.8817083239555359e-01 3.9529624581336975e-01</leafValues></_>
        <_>
          <internalNodes>
            0 -1 103 1059837140 -108802084 -1118277072 1027042552
            693722360 -1183729308 742379725 230652128</internalNodes>
          <leafValues>
            -5.9412693977355957e-01 3.4388771653175354e-01</leafValues></_>
        <_>
          <internalNodes>
            0 -1 72 -1416888661 -873587784 -568732683 1442083764
            597601023 -355494721 805246966 -855653259</internalNodes>
          <leafValues>
            -4.5213991403579712e-01 4.2868447303771973e-01</leafValues></_></weakClassifiers></_>
    <!-- stage 4 -->
    <_>
      <maxWeakCount>8</maxWeakCount>
      <stageThreshold>-1.8742185831069946e+00</stageThreshold>
      <weakClassifiers>
        <_>
          <internalNodes>
            0 -1 130 -16786593 -69215621 -104867841 -75497537 -92275813
            -8660481 -1311746 -88081665</internalNodes>
          <leafValues>
            -8.5519170761108398e-01 -1.6532905399799347e-01</leafValues></_>
        <_>
          <internalNodes>
            0 -1 144 -65 1002225663 -285271655 -33956044 -1225004152
            -1381900823 1338327720 -2100737</internalNodes>
          <leafValues>
            -5.6881034374237061e-01 2.8102457523345947e-01</leafValues></_>
        <_>
          <internalNodes>
            0 -1 132 -528625 1744807359 -57737614 581956347 -8399104
            2137771885 2046816243 -184553737</internalNodes>
          <leafValues>
            -5.4699760675430298e-01 3.0411687493324280e-01</leafValues></_>
        <_>
          <internalNodes>
            0 -1 84 -44534539 1033666418 -1108083841 1002061421
            -1132572712 -79790658 -3260418 -1099289813</internalNodes>
          <leafValues>
            -4.5892184972763062e-01 3.7830558419227600e-01</leafValues></_>
        <_>
          <internalNodes>
            0 -1 40 10530530 -541075714 -1644241153 -639518803
            1315923695 -13118733 -337193473 1432708177</internalNodes>
          <leafValues>
            -5.9540319442749023e-01 3.0105268955230713e-01</leafValues></_>
        <_>
          <internalNodes>
            0 -1 57 1849664105 886978802 1792737010 947059562 -562213876
            1061059965 931069679 -28082435</internalNodes>
          <leafValues>
            -4.6597036719322205e-01 3.7765526771545410e-01</leafValues></_>
        <_>
          <internalNodes>
            0 -1 128 -369099343 335347704 469729265 -34112580 1719136202
            226406394 234837425 -805568529</internalNodes>
          <leafValues>
            -3.9837992191314697e-01 4.5543074607849121e-01</leafValues></_>
        <_>
          <internalNodes>
            0 -1 117 -290847619 -1208062573 -1715734757 -1080943969
            -1105503491 -2101517 -1426178241 -1458423485</internalNodes>
          <leafValues>
            -5.1523154973983765e-01 3.4836471080780029e-01</leafValues></_></weakClassifiers></_>
    <!-- stage 5 -->
    <_>
      <maxWeakCount>7</maxWeakCount>
      <stageThreshold>-1.8679876327514648e+00</stageThreshold>
      <weakClassifiers>
        <_>
          <internalNodes>
            0 -1 137 -671088801 2138961915 -524321 -305 -18882565
            -87293969 -2097158 -83886209</internalNodes>
          <leafValues>
            -8.5300964117050171e-01 -2.4781341850757599e-01</leafValues></_>
        <_>
          <internalNodes>
            0 -1 151 -144739061 -1879607813 2130443686 -1963786241
            -860357773 1542447103 -268437628 -184549441</internalNodes>
          <leafValues>
            -6.6956734657287598e-01 6.8867914378643036e-02</leafValues></_>
        <_>
          <internalNodes>
            0 -1 68 1534866420 -213380 738032622 -1078186412 2136270328
            2130471676 533820414 1858643874</internalNodes>
          <leafValues>
            -6.2586343288421631e-01 2.0686581730842590e-01</leafValues></_>
        <_>
          <internalNodes>
            0 -1 31 -419438422 921566951 -227819978 -253432594
            1064790383 1870557300 -117473412 -1234700489</internalNodes>
          <leafValues>
            -5.4462707042694092e-01 2.8136849403381348e-01</leafValues></_>
        <_>
          <internalNodes>
            0 -1 76 -186310272 999528554 132027517 -1279264944
            1541404669 -328041678 -704882690 579275</internalNodes>
          <leafValues>
            -6.0034298896789551e-01 2.6431512832641602e-01</leafValues></_>
        <_>
          <internalNodes>
            0 -1 131 -1372384177 2097363797 -1082228769 983135583
            -17945522 -543949989 -85548326 -1061426369</internalNodes>
          <leafValues>
            -4.5554259419441223e-01 3.5599267482757568e-01</leafValues></_>
        <_>
          <internalNodes>
            0 -1 114 758787613 664225787 -207644839 -1191398721
            1006595899 -537346369 -571724364 -1364275212</internalNodes>
          <leafValues>
            -5.0783938169479370e-01 3.0980095267295837e-01</leafValues></_></weakClassifiers></_>
    <!-- stage 6 -->
    <_>
      <maxWeakCount>7</maxWeakCount>
      <stageThreshold>-1.7171027660369873e+00</stageThreshold>
      <weakClassifiers>
        <_>
          <internalNodes>
            0 -1 162 -1 -33554945 -5647833 -975175685 -536872969
            -34603021 -268435589 -1</internalNodes>
          <leafValues>
            -8.3409410715103149e-01 -2.8818442951887846e-03</leafValues></_>
        <_>
          <internalNodes>
            0 -1 10 2130701567 -493442826 -940644498 -304091409
            -136052873 -50368677 2114412345 -41943425</internalNodes>
          <leafValues>
            -5.6014031171798706e-01 1.7281773686408997e-01</leafValues></_>
        <_>
          <internalNodes>
            0 -1 93 1446922073 1073508287 -637652545 1061033559
            -289513476 -180689281 -1359020052 -1079345170</internalNodes>
          <leafValues>
            -4.3376103043556213e-01 3.1991064548492432e-01</leafValues></_>
        <_>
          <internalNodes>
            0 -1 105 -214959856 177692735 2136454804 532656045
            2134752400 91994023 -63063946 756674127</internalNodes>
          <leafValues>
            -6.3920408487319946e-01 2.2476546466350555e-01</leafValues></_>
        <_>
          <internalNodes>
            0 -1 108 -793640943 -570523803 -1633707089 602109727
            -201629698 -537428003 -352572867 -1173735073</internalNodes>
          <leafValues>
            -4.6748393774032593e-01 3.0919200181961060e-01</leafValues></_>
        <_>
          <internalNodes>
            0 -1 78 -1358267597 781908400 1786724151 -571605635
            -1696089029 -69272712 -1979845641 -855681676</internalNodes>
          <leafValues>
            -4.3475213646888733e-01 3.2557865977287292e-01</leafValues></_>
        <_>
          <internalNodes>
            0 -1 99 1743599028 -1342410882 -1917094484 902561690
            503049904 234541749 291364105 518911975</internalNodes>
          <leafValues>
            -6.3834547996520996e-01 2.2257040441036224e-01</leafValues></_></weakClassifiers></_>
    <!-- stage 7 -->
    <_>
      <maxWeakCount>6</maxWeakCount>
      <stageThreshold>-1.6148834228515625e+00</stageThreshold>
      <weakClassifiers>
        <_>
          <internalNodes>
            0 -1 39 1732630519 -2112003 -1118327329 -142885 -341968129
            -1058561 -1390281729 -15913</internalNodes>
          <leafValues>
            -8.4590268135070801e-01 -2.0557491481304169e-01</leafValues></_>
        <_>
          <internalNodes>
            0 -1 139 -810560622 -665059853 -1277305080 -1469585997
            1408747040 -1158944897 -537920754 -385876334</internalNodes>
          <leafValues>
            -6.1916553974151611e-01 5.8552782982587814e-02</leafValues></_>
        <_>
          <internalNodes>
            0 -1 0 -389765562 -1561629970 -407058482 -278007826
            1869073663 -539893957 1086841382 1450664038</internalNodes>
          <leafValues>
            -6.5278047323226929e-01 1.8069407343864441e-01</leafValues></_>
        <_>
          <internalNodes>
            0 -1 111 529071865 -1085884452 1876898777 -75497540
            726989803 -34821228 267987887 -1132608900</internalNodes>
          <leafValues>
            -4.2304381728172302e-01 3.2469213008880615e-01</leafValues></_>
        <_>
          <internalNodes>
            0 -1 22 -2031697790 -1158698126 -459616257 -1345390879
            1137985535 2147073919 -820348841 1598252147</internalNodes>
          <leafValues>
            -6.1014896631240845e-01 2.5720098614692688e-01</leafValues></_>
        <_>
          <internalNodes>
            0 -1 75 34898536 1924094574 966659859 2101738499 19705822
            454990561 427742202 327596031</internalNodes>
          <leafValues>
            -6.1536252498626709e-01 2.4561071395874023e-01</leafValues></_></weakClassifiers></_>
    <!-- stage 8 -->
    <_>
      <maxWeakCount>6</maxWeakCount>
      <stageThreshold>-2.0756282806396484e+00</stageThreshold>
      <weakClassifiers>
        <_>
          <internalNodes>
            0 -1 69 -1 -10753 -2826241 -33563393 -4620547 -5374481
            -3162113 -1</internalNodes>
          <leafValues>
            -8.2572227716445923e-01 6.1068702489137650e-02</leafValues></_>
        <_>
          <internalNodes>
            0 -1 152 -541338413 265091568 508719057 -9858860 762820351
            782613838 1430117620 -813696537</internalNodes>
          <leafValues>
            -5.7288467884063721e-01 1.2198573350906372e-01</leafValues></_>
        <_>
          <internalNodes>
            0 -1 14 1248235086 2115396212 -18191758 -1611256082
            2000058236 2134669590 1801221454 2121756415</internalNodes>
          <leafValues>
            -6.9124799966812134e-01 1.6440640389919281e-01</leafValues></_>
        <_>
          <internalNodes>
            0 -1 120 -16783857 -266275 1071364090 1380867935 919303234
            -1388839045 -21245969 -252346385</internalNodes>
          <leafValues>
            -4.6901932358741760e-01 2.7839469909667969e-01</leafValues></_>
        <_>
          <internalNodes>
            0 -1 49 -2013093871 -90732644 1770255839 -536937858
            1878235071 -15744633 -378537986 92998804</internalNodes>
          <leafValues>
            -5.7436358928680420e-01 2.5415545701980591e-01</leafValues></_>
        <_>
          <internalNodes>
            0 -1 59 -1281381982 825211372 1388021346 -135283986
            1989926792 1199865174 2058997882 1128906694</internalNodes>
          <leafValues>
            -6.8483579158782959e-01 1.6865643858909607e-01</leafValues></_></weakClassifiers></_>
    <!-- stage 9 -->
    <_>
      <maxWeakCount>9</maxWeakCount>
      <stageThreshold>-1.7802270650863647e+00</stageThreshold>
      <weakClassifiers>
        <_>
          <internalNodes>
            0 -1 16 -266241 2013083067 -1709250889 -1074601985
            -335579457 -135437665 -96863490 -10485761</internalNodes>
          <leafValues>
            -8.5827887058258057e-01 -4.2555236816406250e-01</leafValues></_>
        <_>
          <internalNodes>
            0 -1 118 -67151651 -182502468 -492924193 -539016196
            -120133890 -102771073 -18158598 -1187482466</internalNodes>
          <leafValues>
            -5.6500846147537231e-01 9.9934756755828857e-02</leafValues></_>
        <_>
          <internalNodes>
            0 -1 135 -1096292608 -1484598870 -876697936 1271791588
            914252773 1198357336 367883504 -1024467460</internalNodes>
          <leafValues>
            -5.3889060020446777e-01 1.9344633817672729e-01</leafValues></_>
        <_>
          <internalNodes>
            0 -1 145 1543503791 603504633 -268486108 -575017036
            1557970878 536739837 2113788653 -539230213</internalNodes>
          <leafValues>
            -3.0690157413482666e-01 3.9175850152969360e-01</leafValues></_>
        <_>
          <internalNodes>
            0 -1 41 -1295537974 1667402174 566405539 223369690
            -822349513 75894368 528736153 1462847839</internalNodes>
          <leafValues>
            -6.4550256729125977e-01 2.2920870780944824e-01</leafValues></_>
        <_>
          <internalNodes>
            0 -1 97 170728211 1785098622 1731402751 -160273953
            -1378882188 -443622935 2132866814 -257533466</internalNodes>
          <leafValues>
            -4.5709773898124695e-01 2.5350651144981384e-01</leafValues></_>
        <_>
          <internalNodes>
            0 -1 52 -842337371 -890362902 1921816944 -275975844
            254275547 -868224603 1451774967 -774384618</internalNodes>
          <leafValues>
            -4.1727703809738159e-01 3.1517004966735840e-01</leafValues></_>
        <_>
          <internalNodes>
            0 -1 21 1331193691 1605309167 -612368436 1272961406 -1442306
            -105912077 -1947567756 1976415707</internalNodes>
          <leafValues>
            -3.9653605222702026e-01 3.1896057724952698e-01</leafValues></_>
        <_>
          <internalNodes>
            0 -1 150 -1347160538 -1657826195 1156695794 350182615
            1040374596 -820790205 -1280574836 -153375814</internalNodes>
          <leafValues>
            -4.0793612599372864e-01 3.1422170996665955e-01</leafValues></_></weakClassifiers></_>
    <!-- stage 10 -->
    <_>
      <maxWeakCount>8</maxWeakCount>
      <stageThreshold>-1.7816517353057861e+00</stageThreshold>
      <weakClassifiers>
        <_>
          <internalNodes>
            0 -1 16 -4097 -134350485 -353964865 -1074737157 -268471107
            -3319397 -13041921 -10485761</internalNodes>
          <leafValues>
            -8.5658365488052368e-01 -4.4999998807907104e-01</leafValues></_>
        <_>
          <internalNodes>
            0 -1 77 -1090350165 -573035291 196521589 -1690320
            -1278755842 -278430769 -1555079746 -640875311</internalNodes>
          <leafValues>
            -5.8281683921813965e-01 2.4425650015473366e-02</leafValues></_>
        <_>
          <internalNodes>
            0 -1 29 1311613606 1957505630 -291329812 -269506354
            1951144947 1417485909 1910931294 1727428419</internalNodes>
          <leafValues>
            -5.1786160469055176e-01 1.8813557922840118e-01</leafValues></_>
        <_>
          <internalNodes>
            0 -1 164 1004316959 1031761461 376837417 643952639
            -611402792 2126240206 -2100609 1520757596</internalNodes>
          <leafValues>
            -4.4042032957077026e-01 2.5212576985359192e-01</leafValues></_>
        <_>
          <internalNodes>
            0 -1 90 -1074265215 2077965932 1775109882 1899227132
            1861477544 202065756 -1719739938 858431404</internalNodes>
          <leafValues>
            -4.2994242906570435e-01 2.7879217267036438e-01</leafValues></_>
        <_>
          <internalNodes>
            0 -1 83 -54769476 -1075953685 950174685 219096559 965500348
            -1362331448 -29074518 -1086701761</internalNodes>
          <leafValues>
            -4.6247398853302002e-01 2.5217232108116150e-01</leafValues></_>
        <_>
          <internalNodes>
            0 -1 113 -939565822 -348400417 1096808960 856680031
            1845230984 337627615 -1212452296 556203447</internalNodes>
          <leafValues>
            -4.8604404926300049e-01 2.5151115655899048e-01</leafValues></_>
        <_>
          <internalNodes>
            0 -1 104 -151010224 63401481 665575340 118811963 -1245774196
            1249317700 -1564773188 40041035</internalNodes>
          <leafValues>
            -5.4819101095199585e-01 2.1774841845035553e-01</leafValues></_></weakClassifiers></_>
    <!-- stage 11 -->
    <_>
      <maxWeakCount>10</maxWeakCount>
      <stageThreshold>-1.9003367424011230e+00</stageThreshold>
      <weakClassifiers>
        <_>
          <internalNodes>
            0 -1 161 -10485761 -2360641 -779101297 -1109394433 -3148291
            -101746037 -120595409 -1</internalNodes>
          <leafValues>
            -8.3017367124557495e-01 -2.1040189266204834e-01</leafValues></_>
        <_>
          <internalNodes>
            0 -1 94 406681885 -1116243265 -1112548417 -1107567747
            -7611396 -12722283 -56067285 -289694787</internalNodes>
          <leafValues>
            -5.0609892606735229e-01 1.1961286514997482e-01</leafValues></_>
        <_>
          <internalNodes>
            0 -1 58 -564637961 1073505119 -289473669 722470910 -26574888
            1996247380 -7053704 -8892453</internalNodes>
          <leafValues>
            -4.2508020997047424e-01 2.4042364954948425e-01</leafValues></_>
        <_>
          <internalNodes>
            0 -1 37 -26453018 -1073994010 -6399514 799684460 1490304741
            2063366815 -15499491 591232869</internalNodes>
          <leafValues>
            -5.4684847593307495e-01 1.9437013566493988e-01</leafValues></_>
        <_>
          <internalNodes>
            0 -1 98 -684723032 -28346841 -1172343500 1597428357
            1820325308 794087344 748112219 185295547</internalNodes>
          <leafValues>
            -4.2037683725357056e-01 2.8003945946693420e-01</leafValues></_>
        <_>
          <internalNodes>
            0 -1 92 712509235 1226363646 -554698504 -1140965542
            530529832 765997407 853144565 -1123387216</internalNodes>
          <leafValues>
            -5.1263713836669922e-01 2.3717260360717773e-01</leafValues></_>
        <_>
          <internalNodes>
            0 -1 133 1173540480 450805758 972399384 790224620 1609076460
            1006493853 1408192956 833994110</internalNodes>
          <leafValues>
            -5.9406477212905884e-01 1.9226126372814178e-01</leafValues></_>
        <_>
          <internalNodes>
            0 -1 38 267131692 -24285953 710630271 -2098929700 787970934
            2076131498 1674999665 890251892</internalNodes>
          <leafValues>
            -7.1126818656921387e-01 1.4592118561267853e-01</leafValues></_>
        <_>
          <internalNodes>
            0 -1 50 -800553438 -1624405315 81432029 1431530720
            -2001154432 -1143145045 -1078578263 611522326</internalNodes>
          <leafValues>
            -5.8146780729293823e-01 1.8291482329368591e-01</leafValues></_>
        <_>
          <internalNodes>
            0 -1 125 -828801230 -1510016782 -952053771 1239596023
            597737404 179232895 -68853900 676231003</internalNodes>
          <leafValues>
            -5.0962269306182861e-01 2.1719975769519806e-01</leafValues></_></weakClassifiers></_>
    <!-- stage 12 -->
    <_>
      <maxWeakCount>10</maxWeakCount>
      <stageThreshold>-1.8919657468795776e+00</stageThreshold>
      <weakClassifiers>
        <_>
          <internalNodes>
            0 -1 11 -536870913 -16792321 -1018566705 -405016881
            -304087041 -561716567 -8391825 -1</internalNodes>
          <leafValues>
            -8.2919847965240479e-01 -2.0873786509037018e-01</leafValues></_>
        <_>
          <internalNodes>
            0 -1 137 1165482591 2147212088 970161599 1475073775
            -83890199 -255401873 -294125606 -219676837</internalNodes>
          <leafValues>
            -5.0921720266342163e-01 1.1064580827951431e-01</leafValues></_>
        <_>
          <internalNodes>
            0 -1 1 -1073457966 -1010370835 -287379810 -1344099082
            1204114335 719932927 1577142135 1089426468</internalNodes>
          <leafValues>
            -6.0082089900970459e-01 1.4841154217720032e-01</leafValues></_>
        <_>
          <internalNodes>
            0 -1 56 -903147965 1325053157 1993691850 -1301615930
            2131708446 1769966195 -1410411658 -78447844</internalNodes>
          <leafValues>
            -4.7961825132369995e-01 2.1117247641086578e-01</leafValues></_>
        <_>
          <internalNodes>
            0 -1 42 1601317047 -206087329 621692863 157644771 1240056922
            -1387568253 1379639551 1361848438</internalNodes>
          <leafValues>
            -3.7030997872352600e-01 3.0930051207542419e-01</leafValues></_>
        <_>
          <internalNodes>
            0 -1 24 2100215918 -79289636 -1902142988 345778276
            -2064536623 -872496178 1741454130 1098845810</internalNodes>
          <leafValues>
            -5.5408811569213867e-01 2.1900860965251923e-01</leafValues></_>
        <_>
          <internalNodes>
            0 -1 122 -954243710 481719929 2068711224 949853150
            1068433200 1011441911 -9042430 150467447</internalNodes>
          <leafValues>
            -6.3015508651733398e-01 1.6857415437698364e-01</leafValues></_>
        <_>
          <internalNodes>
            0 -1 86 -1134385024 -1160495498 -1695983830 1996920695
            1141263294 1171063006 1692957546 358430089</internalNodes>
          <leafValues>
            -5.9966224431991577e-01 1.8548420071601868e-01</leafValues></_>
        <_>
          <internalNodes>
            0 -1 141 -1427264981 1878419390 -1072687888 587067471
            -748707300 -10925297 -163810596 -1329202849</internalNodes>
          <leafValues>
            -4.8172843456268311e-01 2.4027805030345917e-01</leafValues></_>
        <_>
          <internalNodes>
            0 -1 15 -1228034865 -1295461693 -661405626 -118076434
            503316246 1910536491 2100132655 813232636</internalNodes>
          <leafValues>
            -5.0573164224624634e-01 2.1325422823429108e-01</leafValues></_></weakClassifiers></_>
    <!-- stage 13 -->
    <_>
      <maxWeakCount>10</maxWeakCount>
      <stageThreshold>-1.8028310537338257e+00</stageThreshold>
      <weakClassifiers>
        <_>
          <internalNodes>
            0 -1 19 2138570719 -39864398 259968987 -268456715 -75908609
            -17704289 2141694351 2147333951</internalNodes>
          <leafValues>
            -8.6764138936996460e-01 -5.2596539258956909e-01</leafValues></_>
        <_>
          <internalNodes>
            0 -1 61 2128470014 -63481953 2138460157 -336642118
            1124925438 -26686736 2071030751 -244265</internalNodes>
          <leafValues>
            -5.0461447238922119e-01 1.2292214483022690e-01</leafValues></_>
        <_>
          <internalNodes>
            0 -1 23 690207152 795800906 1785118140 -725398098 1606635771
            -677511170 1372020951 -871710285</internalNodes>
          <leafValues>
            -4.7121962904930115e-01 2.0083157718181610e-01</leafValues></_>
        <_>
          <internalNodes>
            0 -1 100 2070325656 -635527416 -60001859 -80185547 252900124
            -1483825 661353450 1438527480</internalNodes>
          <leafValues>
            -4.3685233592987061e-01 2.3945027589797974e-01</leafValues></_>
        <_>
          <internalNodes>
            0 -1 153 1191151691 -210535556 -4097 -2047348889 -268608006
            -1115717633 -1350582418 -800723326</internalNodes>
          <leafValues>
            -2.6947867870330811e-01 3.7729766964912415e-01</leafValues></_>
        <_>
          <internalNodes>
            0 -1 28 -1093686174 198033598 -1000945847 1192087272
            1173508982 2106997058 1678316895 897146869</internalNodes>
          <leafValues>
            -5.2298396825790405e-01 2.0625741779804230e-01</leafValues></_>
        <_>
          <internalNodes>
            0 -1 146 1018410224 -1212255232 1911757784 798028176
            1553230586 1056831639 218200293 -1669548631</internalNodes>
          <leafValues>
            -5.3501826524734497e-01 1.9345937669277191e-01</leafValues></_>
        <_>
          <internalNodes>
            0 -1 13 2048065387 -1999191353 -335444690 -2025615420
            1969149694 -1634874897 1584625966 1348849127</internalNodes>
          <leafValues>
            -4.1002789139747620e-01 2.6467871665954590e-01</leafValues></_>
        <_>
          <internalNodes>
            0 -1 3 1152378521 -619709636 1663783418 -1084318770
            -1260667402 -590925057 -141691654 92796032</internalNodes>
          <leafValues>
            -3.9164873957633972e-01 2.7408763766288757e-01</leafValues></_>
        <_>
          <internalNodes>
            0 -1 54 210101549 -607193653 -678168908 -83963748 767000079
            1168872187 1943494645 -730538159</internalNodes>
          <leafValues>
            -4.4280895590782166e-01 2.5377312302589417e-01</leafValues></_></weakClassifiers></_>
    <!-- stage 14 -->
    <_>
      <maxWeakCount>10</maxWeakCount>
      <stageThreshold>-1.7477825880050659e+00</stageThreshold>
      <weakClassifiers>
        <_>
          <internalNodes>
            0 -1 115 -40370177 -1617103399 -773201931 -545432705
            -1143014913 -1074073673 -1987380273 -1</internalNodes>
          <leafValues>
            -8.3092254400253296e-01 -2.7196651697158813e-01</leafValues></_>
        <_>
          <internalNodes>
            0 -1 154 -547889246 228229016 -1814520908 1609826270
            1540241323 458891271 -548429624 -838991878</internalNodes>
          <leafValues>
            -5.3316372632980347e-01 3.7955258041620255e-02</leafValues></_>
        <_>
          <internalNodes>
            0 -1 112 1283456883 835682287 1967211827 1353432027
            -1089015660 -1191236961 -1445744 -2009599121</internalNodes>
          <leafValues>
            -3.5299843549728394e-01 2.6555725932121277e-01</leafValues></_>
        <_>
          <internalNodes>
            0 -1 96 -2011032576 -551678852 1063034800 1933311920
            -1524110436 913301044 1052268134 1409382204</internalNodes>
          <leafValues>
            -6.3882857561111450e-01 1.5324762463569641e-01</leafValues></_>
        <_>
          <internalNodes>
            0 -1 46 -1057848152 267259518 801363706 1087258592
            1465604907 1503344094 446232570 1343771786</internalNodes>
          <leafValues>
            -6.6815090179443359e-01 1.7574864625930786e-01</leafValues></_>
        <_>
          <internalNodes>
            0 -1 158 -690500577 -604262594 -805322833 -1688633568
            1591828125 -805437441 -138510514 2060557899</internalNodes>
          <leafValues>
            -2.9948347806930542e-01 3.3393859863281250e-01</leafValues></_>
        <_>
          <internalNodes>
            0 -1 71 -760705536 2027092958 -19607147 356196632 567839025
            -1767952073 1451212219 271545415</internalNodes>
          <leafValues>
            -4.8407104611396790e-01 2.0689246058464050e-01</leafValues></_>
        <_>
          <internalNodes>
            0 -1 82 736824920 602762218 273801173 2073781601 -1629749474
            -353657941 -550872235 -217401612</internalNodes>
          <leafValues>
            -4.1150078177452087e-01 2.4966061115264893e-01</leafValues></_>
        <_>
          <internalNodes>
            0 -1 20 2138031606 -1092250697 1460030423 -1879065633
            -679873930 1535754995 1779039741 1998454286</internalNodes>
          <leafValues>
            -3.5568603873252869e-01 2.9561549425125122e-01</leafValues></_>
        <_>
          <internalNodes>
            0 -1 12 783724078 925956752 -1509798178 -1696029720
            468679668 -1144246003 2133613020 821854204</internalNodes>
          <leafValues>
            -6.6761213541030884e-01 1.5431016683578491e-01</leafValues></_></weakClassifiers></_>
    <!-- stage 15 -->
    <_>
      <maxWeakCount>10</maxWeakCount>
      <stageThreshold>-1.6870762109756470e+00</stageThreshold>
      <weakClassifiers>
        <_>
          <internalNodes>
            0 -1 33 -4198401 -8441633 -474491947 -11534905 -546865153
            -33608709 -264257 -8388609</internalNodes>
          <leafValues>
            -8.2646214962005615e-01 -2.8959277272224426e-01</leafValues></_>
        <_>
          <internalNodes>
            0 -1 8 23318151 2113516478 394786782 -320872756 1857814490
            -1086344097 -129259009 1633776902</internalNodes>
          <leafValues>
            -5.8957165479660034e-01 -5.3894143551588058e-02</leafValues></_>
        <_>
          <internalNodes>
            0 -1 63 -1792146894 -1774379023 -4573405 1417379440
            1207563731 2143869751 1727973238 202969536</internalNodes>
          <leafValues>
            -5.3170359134674072e-01 1.5222884714603424e-01</leafValues></_>
        <_>
          <internalNodes>
            0 -1 67 -299187554 2079949641 -298872578 984818415 -90290092
            960186488 2078984955 -1083966874</internalNodes>
          <leafValues>
            -3.3519554138183594e-01 2.7724736928939819e-01</leafValues></_>
        <_>
          <internalNodes>
            0 -1 129 -808452192 1696239007 365487091 1573619851
            -1128826888 152295307 -1480592716 -706152961</internalNodes>
          <leafValues>
            -4.1122543811798096e-01 2.4595223367214203e-01</leafValues></_>
        <_>
          <internalNodes>
            0 -1 159 -1644806697 -615056921 809787391 -1163920499
            -1161167409 2052886555 727709002 218927081</internalNodes>
          <leafValues>
            -3.4821310639381409e-01 3.0664426088333130e-01</leafValues></_>
        <_>
          <internalNodes>
            0 -1 89 309109746 -262628712 -48451212 1039974136 699152764
            1442398636 -50588622 660680290</internalNodes>
          <leafValues>
            -5.8368259668350220e-01 1.7854951322078705e-01</leafValues></_>
        <_>
          <internalNodes>
            0 -1 109 -609301240 1725885491 772429599 520027583
            2103356917 661500938 -465115772 1371150005</internalNodes>
          <leafValues>
            -4.6968883275985718e-01 2.0484374463558197e-01</leafValues></_>
        <_>
          <internalNodes>
            0 -1 110 931146531 668839973 2131943126 2056680673 853117401
            -253793415 -101188609 -1414124108</internalNodes>
          <leafValues>
            -4.1408237814903259e-01 2.5195747613906860e-01</leafValues></_>
        <_>
          <internalNodes>
            0 -1 79 -737295743 -135319620 -33908809 1937727354
            1541201892 837450102 1705831858 -718622774</internalNodes>
          <leafValues>
            -3.0840533971786499e-01 3.3616095781326294e-01</leafValues></_></weakClassifiers></_>
    <!-- stage 16 -->
    <_>
      <maxWeakCount>10</maxWeakCount>
      <stageThreshold>-1.6826370954513550e+00</stageThreshold>
      <weakClassifiers>
        <_>
          <internalNodes>
            0 -1 147 -8396801 -10753 -503324867 -6149 -67649537 -22273
            -65537 -1</internalNodes>
          <leafValues>
            -8.1056797504425049e-01 1.7293232679367065e-01</leafValues></_>
        <_>
          <internalNodes>
            0 -1 148 1585274815 264626131 -1663134737 105217779
            2147311416 -456133585 1373698943 1300519226</internalNodes>
          <leafValues>
            -6.3117748498916626e-01 -7.1259394288063049e-02</leafValues></_>
        <_>
          <internalNodes>
            0 -1 32 1850388242 2115376250 263855394 1542153759
            1069281782 1337809362 1173846092 125321383</internalNodes>
          <leafValues>
            -4.8200500011444092e-01 1.7155699431896210e-01</leafValues></_>
        <_>
          <internalNodes>
            0 -1 149 2071659538 -1089681391 -1577856001 927220301
            -1226997220 1803020741 -1942258946 811724362</internalNodes>
          <leafValues>
            -4.8336565494537354e-01 1.9387581944465637e-01</leafValues></_>
        <_>
          <internalNodes>
            0 -1 87 784468560 167801050 2043995871 -1665238438 402197320
            793504162 1855560692 -376171739</internalNodes>
          <leafValues>
            -5.6477880477905273e-01 2.0076432824134827e-01</leafValues></_>
        <_>
          <internalNodes>
            0 -1 155 800332873 -1409402405 39280420 475314685
            -1895515505 -2104570189 -17271938 1145664095</internalNodes>
          <leafValues>
            -4.5595541596412659e-01 2.0551656186580658e-01</leafValues></_>
        <_>
          <internalNodes>
            0 -1 51 -425464606 -471302689 -800928513 801994958 -37531275
            1472927755 -1753018275 1164307036</internalNodes>
          <leafValues>
            -5.8497536182403564e-01 1.7632150650024414e-01</leafValues></_>
        <_>
          <internalNodes>
            0 -1 53 -703056062 -987914258 405356862 889156972 945667998
            184441722 -1082607100 579088552</internalNodes>
          <leafValues>
            -6.4352554082870483e-01 1.4469701051712036e-01</leafValues></_>
        <_>
          <internalNodes>
            0 -1 36 -151098200 574170990 235074750 245952852 1719361477
            1045248970 929687887 846492532</internalNodes>
          <leafValues>
            -6.9291436672210693e-01 1.2011756747961044e-01</leafValues></_>
        <_>
          <internalNodes>
            0 -1 143 984551217 61723458 -849355307 789221648 866614202
            709445705 195512826 -2130923016</internalNodes>
          <leafValues>
            -4.4568765163421631e-01 2.1310140192508698e-01</leafValues></_></weakClassifiers></_>
    <!-- stage 17 -->
    <_>
      <maxWeakCount>12</maxWeakCount>
      <stageThreshold>-1.8141692876815796e+00</stageThreshold>
      <weakClassifiers>
        <_>
          <internalNodes>
            0 -1 136 -2097185 -149001 -174727169 -1054753 -70255617
            -2379597 -3408945 -5153</internalNodes>
          <leafValues>
            -8.1019014120101929e-01 2.1600000560283661e-01</leafValues></_>
        <_>
          <internalNodes>
            0 -1 60 -1379029505 945809388 -734014337 1038443421
            -1412818052 -1583656910 1362231023 -680681633</internalNodes>
          <leafValues>
            -4.9407100677490234e-01 6.5483056008815765e-02</leafValues></_>
        <_>
          <internalNodes>
            0 -1 106 1357791240 -839081537 -606687578 757810683
            -34679112 500160586 -70367373 -1569672417</internalNodes>
          <leafValues>
            -5.2260351181030273e-01 1.5711534023284912e-01</leafValues></_>
        <_>
          <internalNodes>
            0 -1 91 652881059 680260966 -1150223632 -186647051
            1962885700 742342143 -133660684 -400916620</internalNodes>
          <leafValues>
            -4.9093952775001526e-01 1.7864565551280975e-01</leafValues></_>
        <_>
          <internalNodes>
            0 -1 64 -152372349 1058362741 -795011342 1926752732
            -713102360 226398585 584381502 523434361</internalNodes>
          <leafValues>
            -3.1530830264091492e-01 3.0372378230094910e-01</leafValues></_>
        <_>
          <internalNodes>
            0 -1 7 2131927516 2105034671 -1736255684 -1343345142
            1789521865 -373659160 -556073158 476643141</internalNodes>
          <leafValues>
            -4.0964984893798828e-01 2.2769615054130554e-01</leafValues></_>
        <_>
          <internalNodes>
            0 -1 142 267908618 2005262280 -778667264 671861963
            2067689216 660429057 -27305070 1668798803</internalNodes>
          <leafValues>
            -5.5491042137145996e-01 1.8642272055149078e-01</leafValues></_>
        <_>
          <internalNodes>
            0 -1 45 -1021146462 -170197150 -1567419109 424647532
            723124670 -5577557 1097234342 -976391653</internalNodes>
          <leafValues>
            -3.4777426719665527e-01 2.8322994709014893e-01</leafValues></_>
        <_>
          <internalNodes>
            0 -1 160 793522104 928770397 -2146909429 226284029
            -1681039951 -836925303 -339674872 32543958</internalNodes>
          <leafValues>
            -5.5912411212921143e-01 1.8375575542449951e-01</leafValues></_>
        <_>
          <internalNodes>
            0 -1 121 -1401028165 154014964 -1035747083 959218716
            -1175751730 1795797040 -1076956172 -1922417252</internalNodes>
          <leafValues>
            -4.3136703968048096e-01 2.3341189324855804e-01</leafValues></_>
        <_>
          <internalNodes>
            0 -1 66 -923869374 1192113351 -502508987 165124155
            -1735144936 1115472410 1805213506 1464231671</internalNodes>
          <leafValues>
            -4.4438904523849487e-01 2.2263057529926300e-01</leafValues></_>
        <_>
          <internalNodes>
            0 -1 70 853844837 1854567284 -988954321 1823048601
            1527847929 2105770206 -746368642 1226719285</internalNodes>
          <leafValues>
            -4.6425926685333252e-01 2.2236402332782745e-01</leafValues></_></weakClassifiers></_>
    <!-- stage 18 -->
    <_>
      <maxWeakCount>10</maxWeakCount>
      <stageThreshold>-1.9022008180618286e+00</stageThreshold>
      <weakClassifiers>
        <_>
          <internalNodes>
            0 -1 157 -1 -144704549 -217982721 -11536677 -134481921
            -743718630 -111154901 -1</internalNodes>
          <leafValues>
            -8.0644184350967407e-01 3.7931033968925476e-01</leafValues></_>
        <_>
          <internalNodes>
            0 -1 127 -725650765 -543238897 -754465711 -708351585
            -781847621 792183702 1075042783 -839913829</internalNodes>
          <leafValues>
            -4.5131513476371765e-01 1.7405723035335541e-01</leafValues></_>
        <_>
          <internalNodes>
            0 -1 48 1748174101 -459454533 -1054665230 247646879
            2069133671 -404002114 2065396983 2426678</internalNodes>
          <leafValues>
            -5.1619666814804077e-01 1.5461869537830353e-01</leafValues></_>
        <_>
          <internalNodes>
            0 -1 74 -803085629 2090867418 2137207543 324222352
            1203757550 -172664835 125695901 -1011362729</internalNodes>
          <leafValues>
            -2.7824962139129639e-01 3.3826661109924316e-01</leafValues></_>
        <_>
          <internalNodes>
            0 -1 107 267912808 -1344442666 -703227275 -1300964633
            1875851124 1662633627 -39659260 -1050608876</internalNodes>
          <leafValues>
            -5.6848722696304321e-01 1.6561961174011230e-01</leafValues></_>
        <_>
          <internalNodes>
            0 -1 34 -20881 2113231239 1888382655 791084764 465263444
            1451128909 2072838112 -1101691985</internalNodes>
          <leafValues>
            -3.4209248423576355e-01 2.8818055987358093e-01</leafValues></_>
        <_>
          <internalNodes>
            0 -1 73 -1328537600 2135877636 1909346027 83108716
            -1483102044 1957343887 1730933282 1382510797</internalNodes>
          <leafValues>
            -5.5848544836044312e-01 1.9539123773574829e-01</leafValues></_>
        <_>
          <internalNodes>
            0 -1 43 2066411499 -1160277488 1361041822 1204790102
            1844346799 -274806340 1094926619 -773097865</internalNodes>
          <leafValues>
            -3.1348034739494324e-01 3.0895465612411499e-01</leafValues></_>
        <_>
          <internalNodes>
            0 -1 47 2084327171 -821178248 358568301 1786717118 466512398
            197992645 -1100915781 2101146367</internalNodes>
          <leafValues>
            -3.6668863892555237e-01 2.7404317259788513e-01</leafValues></_>
        <_>
          <internalNodes>
            0 -1 80 -1107373560 -17383520 320892048 1924621617
            1545498317 119998061 435049291 24066396</internalNodes>
          <leafValues>
            -5.1347315311431885e-01 1.9473680853843689e-01</leafValues></_></weakClassifiers></_>
    <!-- stage 19 -->
    <_>
      <maxWeakCount>12</maxWeakCount>
      <stageThreshold>-1.8686615228652954e+00</stageThreshold>
      <weakClassifiers>
        <_>
          <internalNodes>
            0 -1 163 -167775233 -2103329 -746336387 1607989727
            -268444945 -112213491 -739246225 -2097153</internalNodes>
          <leafValues>
            -8.1911581754684448e-01 -1.3768115639686584e-01</leafValues></_>
        <_>
          <internalNodes>
            0 -1 126 -1960097587 797857431 -796343425 714858931
            -40913704 2067181990 586465944 -64693825</internalNodes>
          <leafValues>
            -5.7077777385711670e-01 -4.1937470436096191e-02</leafValues></_>
        <_>
          <internalNodes>
            0 -1 101 451871424 1811811103 -1635243096 1920695788
            601159182 772622655 1272047014 16826877</internalNodes>
          <leafValues>
            -5.1824629306793213e-01 1.4183671772480011e-01</leafValues></_>
        <_>
          <internalNodes>
            0 -1 5 1496188940 -861159706 923166088 483930092 502620128
            853153338 -193561161 42738195</internalNodes>
          <leafValues>
            -8.3448642492294312e-01 9.8532192409038544e-02</leafValues></_>
        <_>
          <internalNodes>
            0 -1 55 -1359000373 -1309190246 2017492394 1909907590
            1603996269 1008753002 1739507700 -1756445787</internalNodes>
          <leafValues>
            -3.3470001816749573e-01 2.6963222026824951e-01</leafValues></_>
        <_>
          <internalNodes>
            0 -1 156 2104270813 -134230218 -834095251 886600903
            -99885602 -228362101 2114207602 1297144269</internalNodes>
          <leafValues>
            -3.5221400856971741e-01 2.7379542589187622e-01</leafValues></_>
        <_>
          <internalNodes>
            0 -1 65 -1010564120 1913992702 426264039 1160984300
            -445531572 -1687485663 1082385266 161322633</internalNodes>
          <leafValues>
            -4.5489621162414551e-01 2.0114441215991974e-01</leafValues></_>
        <_>
          <internalNodes>
            0 -1 88 -1017590328 768769521 1003901117 672772444 197317188
            689045893 1270446007 1191445331</internalNodes>
          <leafValues>
            -4.8121535778045654e-01 2.0414054393768311e-01</leafValues></_>
        <_>
          <internalNodes>
            0 -1 85 1342171168 256600549 -1108018608 -1074789386
            232996216 2146402885 1056622805 67693022</internalNodes>
          <leafValues>
            -4.8996126651763916e-01 1.9138070940971375e-01</leafValues></_>
        <_>
          <internalNodes>
            0 -1 102 615407656 -1682026146 -786327295 1981321302
            1376400254 1939775665 1944647508 -1332946215</internalNodes>
          <leafValues>
            -5.1091229915618896e-01 1.8689875304698944e-01</leafValues></_>
        <_>
          <internalNodes>
            0 -1 44 -100669709 1875639482 617375852 -1082310977
            838448004 -436355108 -1442875409 -338987077</internalNodes>
          <leafValues>
            -2.3294125497341156e-01 4.3666997551918030e-01</leafValues></_>
        <_>
          <internalNodes>
            0 -1 30 -1075166686 1205611208 649261684 1963607090
            1369543436 1452994941 1537270407 29954814</internalNodes>
          <leafValues>
            -5.3704172372817993e-01 1.9298496842384338e-01</leafValues></_></weakClassifiers></_></stages>
  <features>
    <_>
      <rect>
        0 0 3 6</rect></_>
    <_>
      <rect>
        0 0 5 2</rect></_>
    <_>
      <rect>
        0 0 8 8</rect></_>
    <_>
      <rect>
        0 1 2 3</rect></_>
    <_>
      <rect>
        0 1 7 3</rect></_>
    <_>
      <rect>
        0 1 8 7</rect></_>
    <_>
      <rect>
        0 2 8 3</rect></_>
    <_>
      <rect>
        0 3 1 1</rect></_>
    <_>
      <rect>
        0 3 1 4</rect></_>
    <_>
      <rect>
        0 3 4 6</rect></_>
    <_>
      <rect>
        0 4 2 5</rect></_>
    <_>
      <rect>
        0 6 1 4</rect></_>
    <_>
      <rect>
        0 6 2 6</rect></_>
    <_>
      <rect>
        0 9 1 2</rect></_>
    <_>
      <rect>
        0 11 4 4</rect></_>
    <_>
      <rect>
        0 12 1 1</rect></_>
    <_>
      <rect>
        0 14 2 3</rect></_>
    <_>
      <rect>
        0 14 7 3</rect></_>
    <_>
      <rect>
        0 15 8 3</rect></_>
    <_>
      <rect>
        0 18 1 1</rect></_>
    <_>
      <rect>
        0 19 1 1</rect></_>
    <_>
      <rect>
        0 20 1 1</rect></_>
    <_>
      <rect>
        1 0 4 3</rect></_>
    <_>
      <rect>
        1 1 2 2</rect></_>
    <_>
      <rect>
        1 3 4 5</rect></_>
    <_>
      <rect>
        1 3 4 7</rect></_>
    <_>
      <rect>
        1 4 2 2</rect></_>
    <_>
      <rect>
        1 6 2 1</rect></_>
    <_>
      <rect>
        1 6 3 4</rect></_>
    <_>
      <rect>
        1 8 2 3</rect></_>
    <_>
      <rect>
        1 8 5 3</rect></_>
    <_>
      <rect>
        1 12 2 2</rect></_>
    <_>
      <rect>
        1 14 5 3</rect></_>
    <_>
      <rect>
        1 15 1 2</rect></_>
    <_>
      <rect>
        1 16 2 2</rect></_>
    <_>
      <rect>
        1 18 3 1</rect></_>
    <_>
      <rect>
        1 18 3 2</rect></_>
    <_>
      <rect>
        1 18 5 2</rect></_>
    <_>
      <rect>
        2 0 1 1</rect></_>
    <_>
      <rect>
        2 0 4 1</rect></_>
    <_>
      <rect>
        2 0 5 2</rect></_>
    <_>
      <rect>
        2 1 6 2</rect></_>
    <_>
      <rect>
        2 2 1 1</rect></_>
    <_>
      <rect>
        2 2 2 3</rect></_>
    <_>
      <rect>
        2 3 6 4</rect></_>
    <_>
      <rect>
        2 5 1 2</rect></_>
    <_>
      <rect>
        2 6 5 5</rect></_>
    <_>
      <rect>
        3 0 1 1</rect></_>
    <_>
      <rect>
        3 1 1 1</rect></_>
    <_>
      <rect>
        3 1 1 3</rect></_>
    <_>
      <rect>
        3 1 4 4</rect></_>
    <_>
      <rect>
        3 1 5 1</rect></_>
    <_>
      <rect>
        3 5 1 1</rect></_>
    <_>
      <rect>
        3 5 7 5</rect></_>
    <_>
      <rect>
        3 7 2 1</rect></_>
    <_>
      <rect>
        3 12 1 1</rect></_>
    <_>
      <rect>
        3 14 1 1</rect></_>
    <_>
      <rect>
        3 16 1 1</rect></_>
    <_>
      <rect>
        3 16 2 2</rect></_>
    <_>
      <rect>
        3 16 6 2</rect></_>
    <_>
      <rect>
        3 20 2 1</rect></_>
    <_>
      <rect>
        3 21 5 1</rect></_>
    <_>
      <rect>
        4 3 1 2</rect></_>
    <_>
      <rect>
        4 7 3 5</rect></_>
    <_>
      <rect>
        4 8 4 2</rect></_>
    <_>
      <rect>
        4 9 5 4</rect></_>
    <_>
      <rect>
        4 14 3 2</rect></_>
    <_>
      <rect>
        4 16 1 1</rect></_>
    <_>
      <rect>
        4 18 5 2</rect></_>
    <_>
      <rect>
        4 21 2 1</rect></_>
    <_>
      <rect>
        5 0 2 1</rect></_>
    <_>
      <rect>
        5 2 3 2</rect></_>
    <_>
      <rect>
        5 3 1 1</rect></_>
    <_>
      <rect>
        5 3 4 3</rect></_>
    <_>
      <rect>
        5 8 5 4</rect></_>
    <_>
      <rect>
        5 10 4 4</rect></_>
    <_>
      <rect>
        6 1 5 2</rect></_>
    <_>
      <rect>
        6 2 1 1</rect></_>
    <_>
      <rect>
        6 4 1 1</rect></_>
    <_>
      <rect>
        6 6 4 4</rect></_>
    <_>
      <rect>
        6 10 5 3</rect></_>
    <_>
      <rect>
        6 12 6 4</rect></_>
    <_>
      <rect>
        6 13 1 1</rect></_>
    <_>
      <rect>
        6 17 1 2</rect></_>
    <_>
      <rect>
        6 18 2 2</rect></_>
    <_>
      <rect>
        7 2 4 5</rect></_>
    <_>
      <rect>
        7 3 4 3</rect></_>
    <_>
      <rect>
        7 11 1 1</rect></_>
    <_>
      <rect>
        7 16 3 2</rect></_>
    <_>
      <rect>
        7 18 4 2</rect></_>
    <_>
      <rect>
        8 7 4 3</rect></_>
    <_>
      <rect>
        8 8 2 1</rect></_>
    <_>
      <rect>
        8 9 1 1</rect></_>
    <_>
      <rect>
        8 20 1 1</rect></_>
    <_>
      <rect>
        9 0 4 1</rect></_>
    <_>
      <rect>
        9 0 5 2</rect></_>
    <_>
      <rect>
        9 9 4 4</rect></_>
    <_>
      <rect>
        9 13 1 1</rect></_>
    <_>
      <rect>
        9 13 4 3</rect></_>
    <_>
      <rect>
        9 15 5 3</rect></_>
    <_>
      <rect>
        10 1 4 5</rect></_>
    <_>
      <rect>
        10 6 4 3</rect></_>
    <_>
      <rect>
        10 7 1 1</rect></_>
    <_>
      <rect>
        10 17 3 2</rect></_>
    <_>
      <rect>
        11 2 3 2</rect></_>
    <_>
      <rect>
        11 4 4 6</rect></_>
    <_>
      <rect>
        12 0 3 2</rect></_>
    <_>
      <rect>
        12 13 1 1</rect></_>
    <_>
      <rect>
        13 0 2 2</rect></_>
    <_>
      <rect>
        13 4 2 3</rect></_>
    <_>
      <rect>
        13 12 1 1</rect></_>
    <_>
      <rect>
        13 18 2 2</rect></_>
    <_>
      <rect>
        14 1 2 1</rect></_>
    <_>
      <rect>
        14 7 3 2</rect></_>
    <_>
      <rect>
        14 11 1 1</rect></_>
    <_>
      <rect>
        14 21 2 1</rect></_>
    <_>
      <rect>
        15 0 3 8</rect></_>
    <_>
      <rect>
        15 1 1 2</rect></_>
    <_>
      <rect>
        15 2 1 1</rect></_>
    <_>
      <rect>
        15 3 2 1</rect></_>
    <_>
      <rect>
        15 4 3 1</rect></_>
    <_>
      <rect>
        15 6 1 2</rect></_>
    <_>
      <rect>
        15 7 3 4</rect></_>
    <_>
      <rect>
        15 15 2 2</rect></_>
    <_>
      <rect>
        15 15 3 3</rect></_>
    <_>
      <rect>
        15 20 2 1</rect></_>
    <_>
      <rect>
        16 5 1 1</rect></_>
    <_>
      <rect>
        16 14 2 2</rect></_>
    <_>
      <rect>
        16 16 2 2</rect></_>
    <_>
      <rect>
        16 17 2 1</rect></_>
    <_>
      <rect>
        17 1 2 3</rect></_>
    <_>
      <rect>
        17 5 1 1</rect></_>
    <_>
      <rect>
        17 7 2 1</rect></_>
    <_>
      <rect>
        17 9 2 5</rect></_>
    <_>
      <rect>
        17 15 2 1</rect></_>
    <_>
      <rect>
        17 16 1 1</rect></_>
    <_>
      <rect>
        18 1 2 1</rect></_>
    <_>
      <rect>
        18 1 2 3</rect></_>
    <_>
      <rect>
        18 1 2 4</rect></_>
    <_>
      <rect>
        18 3 2 5</rect></_>
    <_>
      <rect>
        18 5 1 1</rect></_>
    <_>
      <rect>
        18 6 1 1</rect></_>
    <_>
      <rect>
        18 6 2 2</rect></_>
    <_>
      <rect>
        18 11 1 2</rect></_>
    <_>
      <rect>
        18 11 2 4</rect></_>
    <_>
      <rect>
        18 13 2 3</rect></_>
    <_>
      <rect>
        18 14 1 2</rect></_>
    <_>
      <rect>
        18 20 2 1</rect></_>
    <_>
      <rect>
        18 21 1 1</rect></_>
    <_>
      <rect>
        19 4 1 3</rect></_>
    <_>
      <rect>
        19 8 1 1</rect></_>
    <_>
      <rect>
        19 11 1 1</rect></_>
    <_>
      <rect>
        19 13 1 2</rect></_>
    <_>
      <rect>
        20 4 1 3</rect></_>
    <_>
      <rect>
        20 10 1 3</rect></_>
    <_>
      <rect>
        20 18 1 1</rect></_>
    <_>
      <rect>
        20 20 1 1</rect></_>
    <_>
      <rect>
        21 1 1 7</rect></_>
    <_>
      <rect>
        21 3 1 3</rect></_>
    <_>
      <rect>
        21 4 1 1</rect></_>
    <_>
      <rect>
        21 6 1 4</rect></_>
    <_>
      <rect>
        21 6 1 5</rect></_>
    <_>
      <rect>
        21 8 1 3</rect></_>
    <_>
      <rect>
        21 17 1 2</rect></_>
    <_>
      <rect>
        21 18 1 1</rect></_></features></cascade>
</opencv_storage>
