<?xml version="1.0"?>
<opencv_storage>
<cascade>
  <stageType>BOOST</stageType>
  <featureType>LBP</featureType>
  <height>24</height>
  <width>24</width>
  <stageParams>
    <boostType>GAB</boostType>
    <minHitRate>9.9500000476837158e-01</minHitRate>
    <maxFalseAlarm>5.0000000000000000e-01</maxFalseAlarm>
    <weightTrimRate>9.4999999999999996e-01</weightTrimRate>
    <maxDepth>1</maxDepth>
    <maxWeakCount>100</maxWeakCount></stageParams>
  <featureParams>
    <maxCatCount>256</maxCatCount>
    <featSize>1</featSize></featureParams>
  <stageNum>15</stageNum>
  <stages>
    <!-- stage 0 -->
    <_>
      <maxWeakCount>4</maxWeakCount>
      <stageThreshold>-2.0265119075775146e+00</stageThreshold>
      <weakClassifiers>
        <_>
          <internalNodes>
            0 -1 5 -674244406 -552118846 1358960776 1432308375
            -657743665 -1643577206 -788268805 1934357199</internalNodes>
          <leafValues>
            -9.4438689947128296e-01 1.8461538851261139e-01</leafValues></_>
        <_>
          <internalNodes>
            0 -1 12 2035285754 1393769635 1570099420 2001047699
            -796004150 -611590008 1350695151 1600121839</internalNodes>
          <leafValues>
            -8.0962520837783813e-01 5.0374120473861694e-01</leafValues></_>
        <_>
          <internalNodes>
            0 -1 25 -145260416 -741886574 1380369 1464275423 -545023794
            -1744138239 1082907567 1364698047</internalNodes>
          <leafValues>
            -8.0280613899230957e-01 5.3414303064346313e-01</leafValues></_>
        <_>
          <internalNodes>
            0 -1 78 -551556590 957853698 -1056751588 522049691
            1342947480 -870727677 1476837386 188742587</internalNodes>
          <leafValues>
            -7.1431577205657959e-01 5.3030639886856079e-01</leafValues></_></weakClassifiers></_>
    <!-- stage 1 -->
    <_>
      <maxWeakCount>5</maxWeakCount>
      <stageThreshold>-2.4363675117492676e+00</stageThreshold>
      <weakClassifiers>
        <_>
          <internalNodes>
            0 -1 70 -1 -1084753929 -2236963 -24609 -1075856403 -71566657
            -302453251 -1</internalNodes>
          <leafValues>
            -8.5682183504104614e-01 8.0851063132286072e-02</leafValues></_>
        <_>
          <internalNodes>
            0 -1 3 -857552678 -537933674 168971518 1527809378 -626079525
            -1632820742 -32780805 2068543227</internalNodes>
          <leafValues>
            -7.8841626644134521e-01 2.0365533232688904e-01</leafValues></_>
        <_>
          <internalNodes>
            0 -1 2 -356063546 -604059121 598970367 -3152150 -963715329
            -1141059589 1157617407 -412912297</internalNodes>
          <leafValues>
            -6.0673338174819946e-01 3.8660442829132080e-01</leafValues></_>
        <_>
          <internalNodes>
            0 -1 36 2009855962 1943107518 984887644 2006437756
            2089582588 527226528 1876185818 1799748426</internalNodes>
          <leafValues>
            -7.1535879373550415e-01 3.4826490283012390e-01</leafValues></_>
        <_>
          <internalNodes>
            0 -1 109 -18956765 -1345882125 1481898276 -1569274531
            -929584588 1408406239 -56886364 -185342017</internalNodes>
          <leafValues>
            -5.3266090154647827e-01 4.5172330737113953e-01</leafValues></_></weakClassifiers></_>
    <!-- stage 2 -->
    <_>
      <maxWeakCount>5</maxWeakCount>
      <stageThreshold>-1.6782908439636230e+00</stageThreshold>
      <weakClassifiers>
        <_>
          <internalNodes>
            0 -1 18 -268435457 -269484050 -2601 -17 -1 -4195393
            -134220809 -1</internalNodes>
          <leafValues>
            -8.6493164300918579e-01 -7.7901430428028107e-02</leafValues></_>
        <_>
          <internalNodes>
            0 -1 102 -264285 800063463 -268437582 -67638277 1610577183
            124645375 -134777388 -587726849</internalNodes>
          <leafValues>
            -7.1401274204254150e-01 1.7700681090354919e-01</leafValues></_>
        <_>
          <internalNodes>
            0 -1 98 -134217937 2143256431 -453509519 41746427 -545527994
            2130161149 -167774986 -228067401</internalNodes>
          <leafValues>
            -5.5199158191680908e-01 3.9054623246192932e-01</leafValues></_>
        <_>
          <internalNodes>
            0 -1 8 -420557058 -622146946 -134822917 1297640612 -55837957
            -268485374 100497103 1298366323</internalNodes>
          <leafValues>
            -6.5575647354125977e-01 3.4184077382087708e-01</leafValues></_>
        <_>
          <internalNodes>
            0 -1 4 -1509055862 -539063335 599768639 -335545425 -3146337
            -1093080851 -1056769 1430618075</internalNodes>
          <leafValues>
            -6.2116640806198120e-01 3.6400938034057617e-01</leafValues></_></weakClassifiers></_>
    <!-- stage 3 -->
    <_>
      <maxWeakCount>7</maxWeakCount>
      <stageThreshold>-1.8649448156356812e+00</stageThreshold>
      <weakClassifiers>
        <_>
          <internalNodes>
            0 -1 91 -1 -1074039399 1963162997 -10487073 -622928130
            -1092638307 -605039111 -1049601</internalNodes>
          <leafValues>
            -8.5584712028503418e-01 -3.0418250709772110e-02</leafValues></_>
        <_>
          <internalNodes>
            0 -1 69 -679479300 -1075938914 1028799800 903469531
            -1677721928 -1929457455 -2065900152 -1612711969</internalNodes>
          <leafValues>
            -7.0133459568023682e-01 1.4963434636592865e-01</leafValues></_>
        <_>
          <internalNodes>
            0 -1 82 -43132912 2075916656 -687549137 454021753 -887300616
            -1074298232 1403111709 16775599</internalNodes>
          <leafValues>
            -6.4904373884201050e-01 2.6468804478645325e-01</leafValues></_>
        <_>
          <internalNodes>
            0 -1 30 -964735361 1062630987 -1327563238 815857354 -5831092
            2102014527 1190984690 -597950629</internalNodes>
          <leafValues>
            -5.2080082893371582e-01 4.0278026461601257e-01</leafValues></_>
        <_>
          <internalNodes>
            0 -1 43 -1934976846 -141274856 -182978057 1440077244
            -1372660770 -30413943 -2071275124 -587246207</internalNodes>
          <leafValues>
            -4.9593213200569153e-01 4.3757164478302002e-01</leafValues></_>
        <_>
          <internalNodes>
            0 -1 49 1355751424 -550792992 334853631 1938741119
            -336911409 -1905785951 2108047279 1091695178</internalNodes>
          <leafValues>
            -7.4988776445388794e-01 2.5741818547248840e-01</leafValues></_>
        <_>
          <internalNodes>
            0 -1 22 2062478966 -5868454 1276131674 -1820032404
            1388477426 1756633354 1472525150 1273718763</internalNodes>
          <leafValues>
            -6.3856518268585205e-01 2.9369166493415833e-01</leafValues></_></weakClassifiers></_>
    <!-- stage 4 -->
    <_>
      <maxWeakCount>7</maxWeakCount>
      <stageThreshold>-2.2544002532958984e+00</stageThreshold>
      <weakClassifiers>
        <_>
          <internalNodes>
            0 -1 63 -161 -12582913 -2097153 -67108929 -2359553 -139841
            -88085505 -83886145</internalNodes>
          <leafValues>
            -8.4744942188262939e-01 -1.2761904299259186e-01</leafValues></_>
        <_>
          <internalNodes>
            0 -1 100 -536870915 429696496 495565177 1065352152
            -1719992323 -1343815689 -67695112 -68157441</internalNodes>
          <leafValues>
            -5.8852416276931763e-01 2.4286346137523651e-01</leafValues></_>
        <_>
          <internalNodes>
            0 -1 17 -454562129 -1374769182 -808455437 -210764937
            760702958 -303169561 1200841605 -436734221</internalNodes>
          <leafValues>
            -4.8734518885612488e-01 3.7146228551864624e-01</leafValues></_>
        <_>
          <internalNodes>
            0 -1 58 -21013253 -1677758977 1862188991 2133483130
            -595716324 -491699 2079382750 -69017877</internalNodes>
          <leafValues>
            -3.6941918730735779e-01 4.8774537444114685e-01</leafValues></_>
        <_>
          <internalNodes>
            0 -1 56 -85985400 998112669 -1770586448 1013972463
            -259558740 127646901 1582152456 1021296471</internalNodes>
          <leafValues>
            -6.6356539726257324e-01 2.7131438255310059e-01</leafValues></_>
        <_>
          <internalNodes>
            0 -1 96 -806359390 -508914785 1073735537 -604269905
            2144983979 236710623 -1208225147 -710279169</internalNodes>
          <leafValues>
            -4.3518379330635071e-01 4.1087353229522705e-01</leafValues></_>
        <_>
          <internalNodes>
            0 -1 0 -435787602 1660439694 -160277537 -707844354
            1117442011 -20976145 1725393391 1917146887</internalNodes>
          <leafValues>
            -6.5495753288269043e-01 2.7155059576034546e-01</leafValues></_></weakClassifiers></_>
    <!-- stage 5 -->
    <_>
      <maxWeakCount>4</maxWeakCount>
      <stageThreshold>-2.0710182189941406e+00</stageThreshold>
      <weakClassifiers>
        <_>
          <internalNodes>
            0 -1 87 -1614807043 -1074266152 -194055 -69206280 1054583229
            -1098188130 1018643961 -1678772523</internalNodes>
          <leafValues>
            -9.0413534641265869e-01 -3.5507246851921082e-01</leafValues></_>
        <_>
          <internalNodes>
            0 -1 46 -299415522 1945757298 -603136778 816982116
            1793984596 2134526777 2130358009 -98384310</internalNodes>
          <leafValues>
            -7.9084593057632446e-01 1.1766333132982254e-01</leafValues></_>
        <_>
          <internalNodes>
            0 -1 88 -592838572 -1281462369 -237768421 -1074055137
            -1437622275 -71380229 -1160864865 -1473629853</internalNodes>
          <leafValues>
            -6.5438294410705566e-01 3.2518991827964783e-01</leafValues></_>
        <_>
          <internalNodes>
            0 -1 34 -1381718134 -286345750 1977611060 -158139468
            767457879 1154218487 1674008565 -193801455</internalNodes>
          <leafValues>
            -7.1593248844146729e-01 2.7834588289260864e-01</leafValues></_></weakClassifiers></_>
    <!-- stage 6 -->
    <_>
      <maxWeakCount>7</maxWeakCount>
      <stageThreshold>-1.8468612432479858e+00</stageThreshold>
      <weakClassifiers>
        <_>
          <internalNodes>
            0 -1 24 -2105345 -214017 -2165793 -1079083153 -16941059
            -231781 -75530305 -5243905</internalNodes>
          <leafValues>
            -8.5882353782653809e-01 -3.1497004628181458e-01</leafValues></_>
        <_>
          <internalNodes>
            0 -1 99 -612898001 2032926671 -23069142 821018559 -17158400
            -277487857 -34079128 -520094269</internalNodes>
          <leafValues>
            -6.6551655530929565e-01 7.4590303003787994e-02</leafValues></_>
        <_>
          <internalNodes>
            0 -1 55 -1601665616 -1074791557 2147473397 1040051705
            -1212531218 -537921553 -562626049 -1662171839</internalNodes>
          <leafValues>
            -5.7704108953475952e-01 2.4293898046016693e-01</leafValues></_>
        <_>
          <internalNodes>
            0 -1 101 -408949261 153852859 1743630864 -574640138
            -167985183 238612468 -673515824 -990511625</internalNodes>
          <leafValues>
            -4.6961653232574463e-01 3.3193564414978027e-01</leafValues></_>
        <_>
          <internalNodes>
            0 -1 62 -685220396 2004826077 -77931537 1031565669
            -1363911236 -1426053 -1147389124 -1213055684</internalNodes>
          <leafValues>
            -5.6191927194595337e-01 3.1917259097099304e-01</leafValues></_>
        <_>
          <internalNodes>
            0 -1 21 -151073173 -16908682 -1157705992 -87105926
            1583831875 1013207869 1846441590 -8945801</internalNodes>
          <leafValues>
            -4.7634705901145935e-01 3.2815504074096680e-01</leafValues></_>
        <_>
          <internalNodes>
            0 -1 89 -624999415 2122257723 1240537983 2058304591
            -268722764 -1161866757 -1095569413 -1706906241</internalNodes>
          <leafValues>
            -4.0264946222305298e-01 3.9754647016525269e-01</leafValues></_></weakClassifiers></_>
    <!-- stage 7 -->
    <_>
      <maxWeakCount>8</maxWeakCount>
      <stageThreshold>-2.1072812080383301e+00</stageThreshold>
      <weakClassifiers>
        <_>
          <internalNodes>
            0 -1 64 -8388769 -270369 -577822849 -8781921 -22282305 -1105
            -69222657 -16778369</internalNodes>
          <leafValues>
            -8.4782248735427856e-01 -3.0975955724716187e-01</leafValues></_>
        <_>
          <internalNodes>
            0 -1 23 -218370049 1600978639 -218224006 -1229127842
            2147299116 -38900391 -1125369089 -15211537</internalNodes>
          <leafValues>
            -5.9410881996154785e-01 1.1080570518970490e-01</leafValues></_>
        <_>
          <internalNodes>
            0 -1 57 -18194435 -1073857683 2080355263 766406571
            1071570364 -337085706 -18604546 -1430642817</internalNodes>
          <leafValues>
            -4.9087640643119812e-01 2.7447244524955750e-01</leafValues></_>
        <_>
          <internalNodes>
            0 -1 90 -4745224 95944701 -212490303 134217599 -668714800
            -33555457 -579040608 525860341</internalNodes>
          <leafValues>
            -5.8227950334548950e-01 2.3949775099754333e-01</leafValues></_>
        <_>
          <internalNodes>
            0 -1 51 689906594 -831619332 -1250447398 -50410508 666791772
            -1372370562 -1345676 -463407167</internalNodes>
          <leafValues>
            -5.6895369291305542e-01 2.5565695762634277e-01</leafValues></_>
        <_>
          <internalNodes>
            0 -1 72 178785553 1744731509 2079715133 -1394671659 -3375491
            -620971761 -1678908424 -1999062544</internalNodes>
          <leafValues>
            -5.4385417699813843e-01 2.4474555253982544e-01</leafValues></_>
        <_>
          <internalNodes>
            0 -1 54 845421308 290248084 784583598 -1746099078 180682732
            1740386167 2129482367 241859328</internalNodes>
          <leafValues>
            -5.7486110925674438e-01 2.5355556607246399e-01</leafValues></_>
        <_>
          <internalNodes>
            0 -1 26 -324799753 2037345004 -228870913 -136583618 75496895
            -278401543 1469804787 -1041792300</internalNodes>
          <leafValues>
            -3.7932956218719482e-01 3.8919535279273987e-01</leafValues></_></weakClassifiers></_>
    <!-- stage 8 -->
    <_>
      <maxWeakCount>8</maxWeakCount>
      <stageThreshold>-1.7067462205886841e+00</stageThreshold>
      <weakClassifiers>
        <_>
          <internalNodes>
            0 -1 1 -831529001 -607652387 -542384961 -3691777 -69208129
            -427777 2141573119 -1057225</internalNodes>
          <leafValues>
            -8.6326014995574951e-01 -4.3957969546318054e-01</leafValues></_>
        <_>
          <internalNodes>
            0 -1 27 -810579037 -138750366 -271141517 972021556
            -1884360198 -55857425 1297380007 -975179257</internalNodes>
          <leafValues>
            -5.6410002708435059e-01 1.0439611971378326e-01</leafValues></_>
        <_>
          <internalNodes>
            0 -1 79 402451964 -1681082520 -1077002667 -1612989044
            796680189 -1444030212 44969980 779969904</internalNodes>
          <leafValues>
            -6.5400934219360352e-01 1.7809408903121948e-01</leafValues></_>
        <_>
          <internalNodes>
            0 -1 77 -601931772 -1262652481 -550404275 59373669 -51404408
            -1951564737 384153547 1611916926</internalNodes>
          <leafValues>
            -5.3198653459548950e-01 2.3062142729759216e-01</leafValues></_>
        <_>
          <internalNodes>
            0 -1 93 -215238880 260242600 -1213244936 -1347451815
            938726890 261083059 1299140841 -1653611314</internalNodes>
          <leafValues>
            -4.3594208359718323e-01 3.1862255930900574e-01</leafValues></_>
        <_>
          <internalNodes>
            0 -1 75 1391083584 -273383105 -69209942 743163291 -708159816
            1073723738 -4559489 -1978499225</internalNodes>
          <leafValues>
            -5.4878181219100952e-01 2.4749986827373505e-01</leafValues></_>
        <_>
          <internalNodes>
            0 -1 32 -82908630 -8065436 1306743268 1430812496 1849489595
            784885855 -372451876 1160992111</internalNodes>
          <leafValues>
            -4.8671287298202515e-01 2.6401180028915405e-01</leafValues></_>
        <_>
          <internalNodes>
            0 -1 16 -1914107378 2005785087 89681742 1909517751
            -1611496459 1065103966 -1151535177 269196938</internalNodes>
          <leafValues>
            -6.3640660047531128e-01 1.9621780514717102e-01</leafValues></_></weakClassifiers></_>
    <!-- stage 9 -->
    <_>
      <maxWeakCount>9</maxWeakCount>
      <stageThreshold>-1.9523993730545044e+00</stageThreshold>
      <weakClassifiers>
        <_>
          <internalNodes>
            0 -1 1 -818937865 -1572929 -548405249 -2692609 -134481921
            -67262209 -1454081 -68166105</internalNodes>
          <leafValues>
            -8.5537981986999512e-01 -4.0021118521690369e-01</leafValues></_>
        <_>
          <internalNodes>
            0 -1 9 2129587455 -1399412514 -272145041 -271593881
            2004877044 -119541410 2115460921 -126877833</internalNodes>
          <leafValues>
            -5.9462827444076538e-01 6.7413821816444397e-02</leafValues></_>
        <_>
          <internalNodes>
            0 -1 74 1043851128 463126456 1027518068 1047507352 765065888
            230744624 263918804 228580528</internalNodes>
          <leafValues>
            -7.5243902206420898e-01 1.2793330848217010e-01</leafValues></_>
        <_>
          <internalNodes>
            0 -1 66 -1074190712 1386166190 -1713581356 1402208234
            -2090936422 67629733 892648840 4259238</internalNodes>
          <leafValues>
            -5.9833198785781860e-01 2.3646414279937744e-01</leafValues></_>
        <_>
          <internalNodes>
            0 -1 39 -2002068318 -1078248029 -514866213 -274804165
            -203426313 -134616359 -1350668613 229725269</internalNodes>
          <leafValues>
            -6.2081366777420044e-01 1.7697587609291077e-01</leafValues></_>
        <_>
          <internalNodes>
            0 -1 6 -427629406 468553386 -135628850 -546571266 130606565
            -806362128 165093900 -682556889</internalNodes>
          <leafValues>
            -5.0449311733245850e-01 2.6147413253784180e-01</leafValues></_>
        <_>
          <internalNodes>
            0 -1 103 1858568194 182384332 -1127229168 139385814
            2105360896 368558960 1065234184 -2001470490</internalNodes>
          <leafValues>
            -6.4111566543579102e-01 2.0611679553985596e-01</leafValues></_>
        <_>
          <internalNodes>
            0 -1 38 -17392660 -164060 827784910 -1352992083 -26054680
            -1090751016 -107679821 -151046309</internalNodes>
          <leafValues>
            -3.8766101002693176e-01 3.4704661369323730e-01</leafValues></_>
        <_>
          <internalNodes>
            0 -1 11 1794559518 -27888556 -30274864 534002602 -210600074
            1480403284 735998278 2054565503</internalNodes>
          <leafValues>
            -6.4440786838531494e-01 2.0322388410568237e-01</leafValues></_></weakClassifiers></_>
    <!-- stage 10 -->
    <_>
      <maxWeakCount>9</maxWeakCount>
      <stageThreshold>-1.6514880657196045e+00</stageThreshold>
      <weakClassifiers>
        <_>
          <internalNodes>
            0 -1 15 -301541417 -34999334 -536969731 -14086 2107468287
            -1312003 -4587585 -1082269785</internalNodes>
          <leafValues>
            -8.5310935974121094e-01 -4.7644928097724915e-01</leafValues></_>
        <_>
          <internalNodes>
            0 -1 97 -26013618 2133536242 -1124861475 436827007 -23156720
            -1092980898 -361831191 -1305284785</internalNodes>
          <leafValues>
            -6.4255619049072266e-01 -2.8425602242350578e-02</leafValues></_>
        <_>
          <internalNodes>
            0 -1 19 2000337598 1025010418 -280598986 -1481985282
            2068676095 2110029592 2079940604 1598911999</internalNodes>
          <leafValues>
            -5.1333141326904297e-01 1.8773791193962097e-01</leafValues></_>
        <_>
          <internalNodes>
            0 -1 67 405220352 -543354948 930193184 1664843385
            -1373111298 778698300 934812234 491215918</internalNodes>
          <leafValues>
            -5.6147885322570801e-01 1.8653863668441772e-01</leafValues></_>
        <_>
          <internalNodes>
            0 -1 76 -764689408 1749123023 -950603842 9633694 1677670144
            -307245123 -209937415 2481982</internalNodes>
          <leafValues>
            -6.9429320096969604e-01 1.8251864612102509e-01</leafValues></_>
        <_>
          <internalNodes>
            0 -1 45 1940314690 -607423711 1369060628 2079401704
            -2111519519 256851311 1559658239 432797252</internalNodes>
          <leafValues>
            -4.6139338612556458e-01 2.4914039671421051e-01</leafValues></_>
        <_>
          <internalNodes>
            0 -1 60 2139036811 1558081375 460987135 1059462134 24919216
            479682776 607809118 -277188241</internalNodes>
          <leafValues>
            -4.0512230992317200e-01 2.9148462414741516e-01</leafValues></_>
        <_>
          <internalNodes>
            0 -1 81 230216181 -550063432 -1781025545 795886300 492011216
            972023975 940424702 -1114649412</internalNodes>
          <leafValues>
            -3.8566255569458008e-01 3.0423793196678162e-01</leafValues></_>
        <_>
          <internalNodes>
            0 -1 14 -2031434208 -1911358961 2145242846 803367919
            -757107717 1537570559 -2036638365 1750422787</internalNodes>
          <leafValues>
            -7.0222479104995728e-01 1.6736286878585815e-01</leafValues></_></weakClassifiers></_>
    <!-- stage 11 -->
    <_>
      <maxWeakCount>10</maxWeakCount>
      <stageThreshold>-1.8600090742111206e+00</stageThreshold>
      <weakClassifiers>
        <_>
          <internalNodes>
            0 -1 105 -79692133 -284299793 -40633641 -6049161 321122303
            -1911570597 -673188413 -537921089</internalNodes>
          <leafValues>
            -8.6056888103485107e-01 -5.0794851779937744e-01</leafValues></_>
        <_>
          <internalNodes>
            0 -1 50 -1576354119 -662000718 -828779659 -671786092
            670759677 -300162157 797161462 -852540011</internalNodes>
          <leafValues>
            -6.1013078689575195e-01 -2.7741251513361931e-02</leafValues></_>
        <_>
          <internalNodes>
            0 -1 47 593491712 2003398502 123289670 997700303 -1172375940
            2006051141 255850306 1125643080</internalNodes>
          <leafValues>
            -7.1300154924392700e-01 1.1720214039087296e-01</leafValues></_>
        <_>
          <internalNodes>
            0 -1 35 -898953657 1054455525 2126328522 -1337131834
            2134592030 1834928503 -352790668 -145293476</internalNodes>
          <leafValues>
            -4.5489603281021118e-01 2.4949240684509277e-01</leafValues></_>
        <_>
          <internalNodes>
            0 -1 20 1324344846 1307010348 1306381988 1468835516
            2144273375 622032470 1204414335 1982313815</internalNodes>
          <leafValues>
            -4.6206355094909668e-01 2.4003504216670990e-01</leafValues></_>
        <_>
          <internalNodes>
            0 -1 73 -1155288440 -1841569350 1545510661 1902566765
            1416034204 -1124357225 1914730264 294646508</internalNodes>
          <leafValues>
            -5.1446026563644409e-01 2.1417725086212158e-01</leafValues></_>
        <_>
          <internalNodes>
            0 -1 84 -554744739 -1193400195 1838085102 -663538211
            -635532468 2147351646 -1714225550 235026095</internalNodes>
          <leafValues>
            -4.7030586004257202e-01 2.2817558050155640e-01</leafValues></_>
        <_>
          <internalNodes>
            0 -1 104 -16793667 1067232187 -837609060 -1090699780
            871080844 -1518009619 1607287532 -285478406</internalNodes>
          <leafValues>
            -3.3706191182136536e-01 3.3569523692131042e-01</leafValues></_>
        <_>
          <internalNodes>
            0 -1 53 -430281876 377382078 2023382527 728126389 220285604
            1560275415 1254112250 511072007</internalNodes>
          <leafValues>
            -4.9658796191215515e-01 2.3376330733299255e-01</leafValues></_>
        <_>
          <internalNodes>
            0 -1 86 645340207 193411766 -601163969 811269329 2103268279
            -1101306993 2128574501 -285827880</internalNodes>
          <leafValues>
            -4.5701873302459717e-01 2.3995651304721832e-01</leafValues></_></weakClassifiers></_>
    <!-- stage 12 -->
    <_>
      <maxWeakCount>11</maxWeakCount>
      <stageThreshold>-1.9731445312500000e+00</stageThreshold>
      <weakClassifiers>
        <_>
          <internalNodes>
            0 -1 110 -543165261 -1882197790 521809393 -39221836
            777516795 -1379811790 1505566156 -805308113</internalNodes>
          <leafValues>
            -8.6634266376495361e-01 -5.8002269268035889e-01</leafValues></_>
        <_>
          <internalNodes>
            0 -1 37 -92539137 1038968340 -1697365378 872538811
            -1258590388 2141944613 -269485090 -80241953</internalNodes>
          <leafValues>
            -5.5334585905075073e-01 1.6707416623830795e-02</leafValues></_>
        <_>
          <internalNodes>
            0 -1 41 -253726200 323057211 660299189 1432884565
            -1292510540 -1620870152 -29638913 386614600</internalNodes>
          <leafValues>
            -5.0390404462814331e-01 1.8049027025699615e-01</leafValues></_>
        <_>
          <internalNodes>
            0 -1 106 264158969 -1113008208 -615639056 -1613578384
            530887162 -1956762960 225069996 1505456632</internalNodes>
          <leafValues>
            -4.7803312540054321e-01 2.0563110709190369e-01</leafValues></_>
        <_>
          <internalNodes>
            0 -1 7 1839596032 -1885364884 1447968704 1004290021
            1064646382 325008348 2096381414 839655734</internalNodes>
          <leafValues>
            -8.4536206722259521e-01 1.4316487312316895e-01</leafValues></_>
        <_>
          <internalNodes>
            0 -1 52 -824256572 -854107652 958290727 1386154245
            -720124978 174650325 1738467763 1440741707</internalNodes>
          <leafValues>
            -3.9083865284919739e-01 2.6578548550605774e-01</leafValues></_>
        <_>
          <internalNodes>
            0 -1 33 -906771529 -875942930 147780945 -142036744
            1259600347 -298413589 379245777 -1042295402</internalNodes>
          <leafValues>
            -3.3660787343978882e-01 3.1177031993865967e-01</leafValues></_>
        <_>
          <internalNodes>
            0 -1 48 1598880630 -1343947178 211639279 -1963115794
            1006170356 -620991870 -1769246210 1858697122</internalNodes>
          <leafValues>
            -4.2463389039039612e-01 2.4846407771110535e-01</leafValues></_>
        <_>
          <internalNodes>
            0 -1 61 233375745 786843132 -307001482 -89115748 1938449011
            -338291029 -1615268460 -252678368</internalNodes>
          <leafValues>
            -5.6675392389297485e-01 1.8714287877082825e-01</leafValues></_>
        <_>
          <internalNodes>
            0 -1 111 1165254445 -1092853730 -1436630113 140255741
            563268342 627956437 -578315314 1444442090</internalNodes>
          <leafValues>
            -4.3584263324737549e-01 2.5219011306762695e-01</leafValues></_>
        <_>
          <internalNodes>
            0 -1 80 -12691872 1149089662 1093908720 668125820 -585533464
            191067302 -1938213666 470200234</internalNodes>
          <leafValues>
            -5.0231921672821045e-01 2.1749866008758545e-01</leafValues></_></weakClassifiers></_>
    <!-- stage 13 -->
    <_>
      <maxWeakCount>10</maxWeakCount>
      <stageThreshold>-1.7879724502563477e+00</stageThreshold>
      <weakClassifiers>
        <_>
          <internalNodes>
            0 -1 108 -92298210 -80750058 -2081557537 -1217052579
            -134501732 -278139911 -866451730 -227280293</internalNodes>
          <leafValues>
            -8.6870986223220825e-01 -5.9059327840805054e-01</leafValues></_>
        <_>
          <internalNodes>
            0 -1 95 -335946311 -1210256424 -1621131272 -778339396
            1995943402 229814200 433930233 -839127057</internalNodes>
          <leafValues>
            -5.3923422098159790e-01 2.7442429214715958e-02</leafValues></_>
        <_>
          <internalNodes>
            0 -1 28 -629276010 -100988320 1576426826 -847309600
            1604253017 504599410 267147260 496321952</internalNodes>
          <leafValues>
            -5.3757017850875854e-01 1.6826970875263214e-01</leafValues></_>
        <_>
          <internalNodes>
            0 -1 83 -1019752613 2063595355 1358822971 54123966 -25838076
            1991965491 2128723018 -1872857221</internalNodes>
          <leafValues>
            -3.9246270060539246e-01 2.5434869527816772e-01</leafValues></_>
        <_>
          <internalNodes>
            0 -1 94 845676544 2069690221 1572268143 -1116504225
            -1271949896 -62977429 1633115006 536925782</internalNodes>
          <leafValues>
            -6.3865989446640015e-01 1.9686484336853027e-01</leafValues></_>
        <_>
          <internalNodes>
            0 -1 59 2128477976 584364372 -1617543180 1039005142
            1068466168 687356410 717370388 1019992019</internalNodes>
          <leafValues>
            -6.5247219800949097e-01 1.5716749429702759e-01</leafValues></_>
        <_>
          <internalNodes>
            0 -1 40 1409395338 407892452 418320831 -2048969478
            -392286809 1449656012 -103826482 21067542</internalNodes>
          <leafValues>
            -6.7036366462707520e-01 1.2334839254617691e-01</leafValues></_>
        <_>
          <internalNodes>
            0 -1 68 -1149358976 660872966 1289452656 2042161625
            -476323000 258682869 1978623230 557086275</internalNodes>
          <leafValues>
            -5.6399667263031006e-01 1.6555900871753693e-01</leafValues></_>
        <_>
          <internalNodes>
            0 -1 31 2123869885 2027640268 1948963054 252082046
            -1091422723 -757313494 -1844052228 -11187461</internalNodes>
          <leafValues>
            -3.2111218571662903e-01 3.2125142216682434e-01</leafValues></_>
        <_>
          <internalNodes>
            0 -1 42 -18423366 -571032018 1879010301 1106239075 804765627
            -838928385 2109677503 -843507725</internalNodes>
          <leafValues>
            -2.8894960880279541e-01 3.6856299638748169e-01</leafValues></_></weakClassifiers></_>
    <!-- stage 14 -->
    <_>
      <maxWeakCount>10</maxWeakCount>
      <stageThreshold>-1.8257770538330078e+00</stageThreshold>
      <weakClassifiers>
        <_>
          <internalNodes>
            0 -1 107 -11544653 -1354893438 1346108753 -38937098
            -1157262657 262793899 -582019109 -576716853</internalNodes>
          <leafValues>
            -8.4929710626602173e-01 -5.6336998939514160e-01</leafValues></_>
        <_>
          <internalNodes>
            0 -1 29 2084548606 2147202007 -2053463081 355663858
            -24499032 -45467191 -609562434 -73933730</internalNodes>
          <leafValues>
            -5.1130795478820801e-01 3.7540107965469360e-02</leafValues></_>
        <_>
          <internalNodes>
            0 -1 65 -1648493244 470598337 -40968464 632921374
            -1290801452 -1229198901 -987532232 312943093</internalNodes>
          <leafValues>
            -4.4750463962554932e-01 1.8824928998947144e-01</leafValues></_>
        <_>
          <internalNodes>
            0 -1 112 1979311906 895713212 -1920542422 631360510
            -545441888 1729421930 -132142708 -2042104078</internalNodes>
          <leafValues>
            -3.6720091104507446e-01 2.5275570154190063e-01</leafValues></_>
        <_>
          <internalNodes>
            0 -1 10 1818160750 821983374 -1512283000 720251510
            1665598183 -550288493 1744272990 1952772415</internalNodes>
          <leafValues>
            -5.0571012496948242e-01 2.1786403656005859e-01</leafValues></_>
        <_>
          <internalNodes>
            0 -1 44 -1862301015 1002768366 468639908 -740858429
            -1144076305 793664518 1094384570 1610841002</internalNodes>
          <leafValues>
            -3.8937300443649292e-01 2.4796037375926971e-01</leafValues></_>
        <_>
          <internalNodes>
            0 -1 13 938963901 632657367 1870590365 1673998078 2076948837
            -560861816 1990538723 1475687743</internalNodes>
          <leafValues>
            -3.8139805197715759e-01 2.6911497116088867e-01</leafValues></_>
        <_>
          <internalNodes>
            0 -1 92 200621115 1876580312 -628893197 1694158332
            2042379885 -1366557811 1934096158 -1929872884</internalNodes>
          <leafValues>
            -4.4450551271438599e-01 2.3461447656154633e-01</leafValues></_>
        <_>
          <internalNodes>
            0 -1 71 -637564218 461390442 710582016 1998544737 987933966
            89686072 128440192 825877323</internalNodes>
          <leafValues>
            -4.8286518454551697e-01 2.0501577854156494e-01</leafValues></_>
        <_>
          <internalNodes>
            0 -1 85 -1909716687 670538476 -170516523 -1092183665
            724925046 -1379175118 -556928028 -1174864152</internalNodes>
          <leafValues>
            -4.5887070894241333e-01 2.2312647104263306e-01</leafValues></_></weakClassifiers></_></stages>
  <features>
    <_>
      <rect>
        0 0 4 6</rect></_>
    <_>
      <rect>
        0 0 5 2</rect></_>
    <_>
      <rect>
        0 0 5 3</rect></_>
    <_>
      <rect>
        0 0 6 8</rect></_>
    <_>
      <rect>
        0 0 8 3</rect></_>
    <_>
      <rect>
        0 0 8 8</rect></_>
    <_>
      <rect>
        0 1 3 4</rect></_>
    <_>
      <rect>
        0 2 8 7</rect></_>
    <_>
      <rect>
        0 3 4 6</rect></_>
    <_>
      <rect>
        0 4 2 5</rect></_>
    <_>
      <rect>
        0 8 2 3</rect></_>
    <_>
      <rect>
        0 11 4 4</rect></_>
    <_>
      <rect>
        0 12 8 4</rect></_>
    <_>
      <rect>
        0 18 1 1</rect></_>
    <_>
      <rect>
        1 0 5 2</rect></_>
    <_>
      <rect>
        1 1 5 1</rect></_>
    <_>
      <rect>
        1 2 7 6</rect></_>
    <_>
      <rect>
        1 4 2 2</rect></_>
    <_>
      <rect>
        1 6 2 1</rect></_>
    <_>
      <rect>
        1 6 2 6</rect></_>
    <_>
      <rect>
        1 8 2 2</rect></_>
    <_>
      <rect>
        1 10 2 3</rect></_>
    <_>
      <rect>
        1 12 5 4</rect></_>
    <_>
      <rect>
        1 15 2 2</rect></_>
    <_>
      <rect>
        1 18 5 2</rect></_>
    <_>
      <rect>
        2 1 7 3</rect></_>
    <_>
      <rect>
        2 2 2 2</rect></_>
    <_>
      <rect>
        2 5 1 2</rect></_>
    <_>
      <rect>
        2 7 4 5</rect></_>
    <_>
      <rect>
        2 11 1 3</rect></_>
    <_>
      <rect>
        2 15 1 1</rect></_>
    <_>
      <rect>
        2 16 2 2</rect></_>
    <_>
      <rect>
        3 4 3 3</rect></_>
    <_>
      <rect>
        3 5 1 1</rect></_>
    <_>
      <rect>
        3 7 2 1</rect></_>
    <_>
      <rect>
        3 14 1 1</rect></_>
    <_>
      <rect>
        3 15 6 3</rect></_>
    <_>
      <rect>
        3 18 2 1</rect></_>
    <_>
      <rect>
        3 18 3 2</rect></_>
    <_>
      <rect>
        4 0 2 3</rect></_>
    <_>
      <rect>
        4 0 5 3</rect></_>
    <_>
      <rect>
        4 1 4 4</rect></_>
    <_>
      <rect>
        4 2 2 2</rect></_>
    <_>
      <rect>
        4 3 1 2</rect></_>
    <_>
      <rect>
        4 8 5 3</rect></_>
    <_>
      <rect>
        4 12 4 3</rect></_>
    <_>
      <rect>
        4 16 1 1</rect></_>
    <_>
      <rect>
        4 17 6 2</rect></_>
    <_>
      <rect>
        4 18 5 2</rect></_>
    <_>
      <rect>
        5 0 5 3</rect></_>
    <_>
      <rect>
        5 3 1 1</rect></_>
    <_>
      <rect>
        5 6 1 1</rect></_>
    <_>
      <rect>
        5 15 4 2</rect></_>
    <_>
      <rect>
        5 19 3 1</rect></_>
    <_>
      <rect>
        5 20 4 1</rect></_>
    <_>
      <rect>
        6 0 2 2</rect></_>
    <_>
      <rect>
        6 14 6 3</rect></_>
    <_>
      <rect>
        6 17 1 2</rect></_>
    <_>
      <rect>
        6 18 1 1</rect></_>
    <_>
      <rect>
        6 18 6 2</rect></_>
    <_>
      <rect>
        6 19 1 1</rect></_>
    <_>
      <rect>
        7 12 1 1</rect></_>
    <_>
      <rect>
        8 17 1 2</rect></_>
    <_>
      <rect>
        9 0 5 2</rect></_>
    <_>
      <rect>
        9 1 5 2</rect></_>
    <_>
      <rect>
        9 2 4 1</rect></_>
    <_>
      <rect>
        9 6 4 3</rect></_>
    <_>
      <rect>
        9 9 4 4</rect></_>
    <_>
      <rect>
        9 10 4 2</rect></_>
    <_>
      <rect>
        9 15 5 3</rect></_>
    <_>
      <rect>
        9 18 5 2</rect></_>
    <_>
      <rect>
        10 5 4 2</rect></_>
    <_>
      <rect>
        10 11 1 1</rect></_>
    <_>
      <rect>
        11 3 4 5</rect></_>
    <_>
      <rect>
        11 17 3 2</rect></_>
    <_>
      <rect>
        12 0 3 2</rect></_>
    <_>
      <rect>
        12 1 4 4</rect></_>
    <_>
      <rect>
        12 2 3 2</rect></_>
    <_>
      <rect>
        12 3 4 6</rect></_>
    <_>
      <rect>
        12 18 2 2</rect></_>
    <_>
      <rect>
        13 10 3 3</rect></_>
    <_>
      <rect>
        13 18 1 1</rect></_>
    <_>
      <rect>
        14 0 3 7</rect></_>
    <_>
      <rect>
        14 2 2 1</rect></_>
    <_>
      <rect>
        14 3 1 1</rect></_>
    <_>
      <rect>
        14 9 1 1</rect></_>
    <_>
      <rect>
        14 13 1 1</rect></_>
    <_>
      <rect>
        14 17 2 2</rect></_>
    <_>
      <rect>
        15 1 1 2</rect></_>
    <_>
      <rect>
        15 3 1 1</rect></_>
    <_>
      <rect>
        15 3 3 7</rect></_>
    <_>
      <rect>
        15 12 3 4</rect></_>
    <_>
      <rect>
        15 14 1 1</rect></_>
    <_>
      <rect>
        15 14 2 2</rect></_>
    <_>
      <rect>
        16 1 2 3</rect></_>
    <_>
      <rect>
        16 16 2 2</rect></_>
    <_>
      <rect>
        16 17 2 1</rect></_>
    <_>
      <rect>
        17 5 1 1</rect></_>
    <_>
      <rect>
        17 6 2 1</rect></_>
    <_>
      <rect>
        17 6 2 2</rect></_>
    <_>
      <rect>
        17 11 2 4</rect></_>
    <_>
      <rect>
        17 14 2 2</rect></_>
    <_>
      <rect>
        17 15 2 1</rect></_>
    <_>
      <rect>
        18 6 2 3</rect></_>
    <_>
      <rect>
        18 11 2 4</rect></_>
    <_>
      <rect>
        18 15 1 1</rect></_>
    <_>
      <rect>
        18 15 1 2</rect></_>
    <_>
      <rect>
        18 16 1 1</rect></_>
    <_>
      <rect>
        19 4 1 3</rect></_>
    <_>
      <rect>
        19 11 1 1</rect></_>
    <_>
      <rect>
        19 13 1 2</rect></_>
    <_>
      <rect>
        19 20 1 1</rect></_>
    <_>
      <rect>
        20 9 1 2</rect></_></features></cascade>
</opencv_storage>
